,0,1,2,3,4,5,6,7,8,9,10,11,12,13,14,15,16,17,18,19,20,21,22,23,24,25,26,27,28,29,30,31,32,33,34,35,36,37,38,39,40,41,42,43,44,45,46,47,48,49,50,51,52,53,54,55,56,57,58,59,60,61,62,63,64,65,66,67,68,69,70,71,72,73,74,75,76,77,78,79,80,81,82,83,84,85,86,87,88,89,90,91,92,93,94,95,96,97,98,99,100,101,102,103,104,105,106,107,108,109,110,111,112,113,114,115,116,117,118,119,120,121,122,123,124,125,126,127,128,129,130,131,132,133,134,135,136,137,138,139,140,141,142,143,144,145,146,147,148,149,150,151,152,153,154,155,156,157,158,159,160,161,162,163,164,165,166,167,168,169,170,171,172,173,174,175,176,177,178,179,180,181,182,183,184,185,186,187,188,189,190,191,192,193,194,195,196,197,198,199,200,201,202,203,204,205,206,207,208,209,210,211,212,213,214,215,216,217,218,219,220,221,222,223,224,225,226,227,228,229,230,231,232,233,234,235,236,237,238,239,240,241,242,243,244,245,246,247,248,249,250,251,252,253,254,255,256,257,258,259,260,261,262,263,264,265,266,267,268,269,270,271,272,273,274,275,276,277,278,279,280,281,282,283,284,285,286,287,288,289,290,291,292,293,294,295,296,297,298,299,300,301,302,303,304,305,306,307,308,309,310,311,312,313,314,315,316,317,318,319,320,321,322,323,324,325,326,327,328,329,330,331,332,333,334,335,336,337,338,339,340,341,342,343,344,345,346,347,348,349,350,351,352,353,354,355,356,357,358,359,360,361,362,363,364,365,366,367,368,369,370,371,372,373,374,375,376,377,378,379,380,381,382,383
3d,-0.02245241,-0.033180263,-0.0054297894,0.019246832,-0.05888233,-0.037836608,-0.037681587,-0.064105056,0.011294349,0.023810776,0.06632433,-0.04082913,0.049139835,-0.061450973,-0.023216285,0.008232957,-0.021968706,0.042391934,0.045362025,0.0058000395,0.04628341,-0.081339404,-0.042972498,-0.04630495,0.07467564,0.01888009,0.0076391604,-0.0043488885,0.00076551765,-0.11325196,0.040705852,0.042956654,0.0042590895,-0.018067965,0.005186709,-0.0013286098,-0.019937504,-0.027564395,0.03191716,-0.026281396,-0.01920179,0.07651656,0.007333849,0.010197734,0.117743954,-0.0058079963,0.0012319704,-0.007404834,0.022667456,-0.004106884,-0.08189496,-0.054236844,-0.0043535004,-0.043314498,0.019105969,0.020300882,0.06603651,-0.04945484,0.037832625,-0.02450691,0.016065747,0.025272962,-0.041031662,0.008637616,0.012067701,0.003404539,-0.00012833106,-0.039909188,4.0354287e-05,0.07044606,-0.04550069,-0.0005789952,-0.04783032,-0.104973525,0.03869477,-0.036686208,0.01050252,-0.004799662,0.022269806,0.022518061,0.011204136,0.09319062,0.08854319,-0.031599887,0.0029935245,0.050146684,-0.0023606154,0.052181955,-0.042746454,-0.023300573,0.071081355,0.015620419,-0.054961286,0.050339237,0.04915552,-0.026186518,0.018069727,-0.1095496,0.1084325,0.3499049,-0.03443313,0.04606093,-0.017811747,0.033785,0.0029319006,0.006878684,0.070016034,-0.01614449,-0.04367994,0.06578391,-0.033951875,-0.029992333,0.02870093,0.02698278,0.06826022,0.022802558,-0.06260589,-0.075601235,0.01873479,-0.016359664,0.0055681816,0.049157266,0.015970431,0.034450863,0.0546834,-0.23860306,0.017893307,0.026525427,-0.029916767,0.0637329,0.052349262,0.102499135,0.034937605,0.06764569,0.06635717,0.02209619,0.0065816706,0.077596806,-0.08999633,0.033249453,-0.043655727,0.13027383,-0.05846582,0.011302457,0.06273767,0.009858111,-0.06031033,0.033809848,0.017186472,-0.006313485,0.018987762,-0.012967735,-0.04426677,0.05808219,0.02056213,0.015965901,-0.05353051,-0.060069192,-0.07994896,0.054605037,-0.03401339,0.016361548,0.048639197,-0.010974139,-0.055008534,-0.009108385,0.0015789516,0.099815585,0.022043072,0.064737365,-0.06404015,-0.029076789,-0.022548959,0.03783955,0.060749613,-0.0025006023,-0.06386929,-0.032920852,-0.021189215,0.055237487,-0.03281371,-0.0066666645,0.04305682,-0.07607227,0.0010683317,-0.040723212,0.06407383,0.0008048342,-0.022842923,0.009889783,-0.0073426976,-0.0016361113,-0.07358826,0.0067349058,-0.0015450841,-0.040071137,0.0836924,0.028353859,-0.04588508,0.020885957,0.015282245,-0.055676833,0.009602409,-0.043522004,-0.028351016,-0.022579527,-0.025259992,0.028024353,-0.07464026,0.05835184,0.010404812,-0.14259659,-0.0005565112,-0.020281605,-0.04398325,0.02319622,-0.0016213655,-0.074204914,-0.10681647,-0.022327846,0.02799967,-0.0333487,-0.045794453,-0.081279606,-0.0065188757,-0.03363697,0.018606342,-0.027157169,-0.047614507,-0.028416492,0.012664917,-0.006929433,0.05983622,0.030874202,-0.0050939103,0.033409618,-0.021200513,0.03580428,0.0023532466,-0.046938065,-0.010938527,-0.10127719,-0.02466393,0.0065877787,0.041364484,-0.0964791,-0.081355326,-0.023895591,0.03693979,0.18012527,-0.03496968,-0.02741346,0.055916447,-0.0030307383,-0.044890955,0.0006434945,-0.004359228,0.020478621,0.039677937,-0.0056595225,0.02986188,0.04192516,-0.052696545,-0.08204937,-0.020995935,0.006469339,0.047801293,0.05524467,-0.0028057485,-0.04579742,0.030189652,-0.07898959,-0.031222658,-0.0022106776,-0.021619108,-0.038139027,-0.0066760248,-0.006594442,-0.021535823,-0.0084378105,-0.04320769,0.008996768,-0.0015015865,0.032955986,-0.026292881,-0.021061266,0.017947417,0.029167099,-0.050063502,-0.03024513,-0.012441065,-0.015213321,-0.103825234,0.030281713,0.016391627,0.05869732,0.059337758,0.018465247,-0.05397427,0.018047893,0.048148934,0.08204146,-0.009005827,0.03790846,0.0019771347,-0.012497218,0.069639996,0.023651421,0.0039607254,0.01619595,0.04999286,-0.0436341,0.0006611615,-0.024580335,0.0077544297,-0.018535333,-0.021473018,0.03355025,0.032903,-0.10065331,-0.060085155,-0.026605267,-0.058676317,-0.0114594,-0.044927195,-0.0561215,-0.013518468,0.06228592,0.015650554,-0.015774256,0.023947967,-0.05263756,0.113028675,-0.01518929,-0.0045119054,0.07812511,-0.010164086,-0.023359189,0.047162134,-0.018601403,-0.0007283091,0.0676446,-0.023802817,-0.002763191,-0.040253427,-0.02822964,0.013602708,-0.0877386,0.065389164,-0.013306972,0.029177887,0.021725051,-0.019122446,0.020622082,-0.007846559,-0.004029908,0.009586529,0.0050920085,0.039406076,-0.0074986066,0.04802507,-0.0057421317,-0.026175631,-0.033299662,0.086607136,0.03813513,0.01783379,-0.15197326,0.026508354,0.0803435,-0.005106875,0.07309819,-0.100921184,0.00077338266,0.12122831,-0.005474168,-0.03931713,-0.052346356,-0.05301789,0.03224343,-0.011243923,-0.016431239,-0.007490644,-0.02473036
AI,-0.029056834,-0.050599646,-0.038883466,-0.03032096,0.016547143,0.024760183,0.08428155,0.020139135,0.04935381,0.05705402,0.061775483,0.02141247,0.04352508,0.0005286349,-0.014427547,0.029956419,-0.039797157,0.047849946,-0.033145536,-0.037095364,0.06665978,-0.047915775,-0.0017965131,-0.05739502,-0.00314557,0.03459887,-0.011022279,-0.02769863,-0.020644924,-0.097002074,0.061203603,-0.063752286,0.1100426,0.01881871,-0.03892785,-0.0012491189,-0.028559724,0.0021703735,0.007381896,-0.0738192,-0.034116127,0.02888602,0.044407383,0.01735526,0.08141182,0.027283456,-0.038889907,-0.07643261,0.00017429591,-0.02635656,-0.025154091,-0.033917394,0.008348588,0.02751673,0.012602305,0.06191807,0.052814037,-0.019513832,-0.01743267,-0.0057135583,0.0046360795,-0.024359355,-0.04309143,0.06389346,0.017156104,0.012880334,0.011284072,-0.07682814,-0.026604831,-0.023273105,-0.033297084,-0.032573532,-0.032966457,-0.0018731041,0.07039953,-0.010645643,-0.010877973,-0.015476227,0.11996146,0.06954041,0.025800483,-0.00076439884,0.052128017,0.07998733,-0.018291544,0.041813005,0.04420664,-0.010691155,0.03888104,-0.021253157,0.022752808,-0.01718505,0.015235872,-0.027108436,0.118940294,-0.02067738,0.00366381,-0.056639463,0.028143419,0.46743175,-0.044313714,-0.020381652,-0.07221918,0.009443346,-0.04428223,-0.012549474,0.02615687,-0.10383813,-0.016515493,0.0153938,-0.034469746,-0.014551686,0.0320938,0.051098015,0.04574871,0.019299267,0.003953247,0.01927116,0.03966047,0.018081142,-0.018444205,-0.023216242,0.031091945,0.06287982,0.026296664,-0.16441521,0.006606832,0.024811598,-0.05956342,-0.0048782304,0.05278484,0.0014017395,-0.03782927,-0.02920407,-0.007679918,-0.00086692814,0.020130277,-0.023865934,-0.069189236,0.0239589,-0.039812062,0.11969728,0.0060478016,0.036194067,0.036522053,0.02643501,-0.028629657,0.005414988,0.050059423,-0.013001354,-0.0041787787,-0.020226484,0.04405601,0.047492202,0.023219453,-0.011094981,0.0036590153,0.0009889788,-0.04733983,0.028324796,-0.084910564,0.0021434964,0.053451803,-0.016979555,-0.00018949957,-0.011764751,-0.0070402496,0.032826923,0.012871934,0.11301717,0.03798516,-0.052478615,0.008915978,-0.012098452,-0.001507091,0.017013192,-0.028267512,0.04391953,-0.033094298,-0.005905082,0.000887071,-0.062457293,0.00082745997,0.02896624,0.005963698,0.0518918,-0.008081424,0.006729665,-0.0354776,-0.0016329362,-0.04416081,0.05465973,0.009201341,0.047001354,-0.029262755,-0.042771865,0.100708574,0.0012005906,-0.022239788,0.008629681,-0.066261254,0.022286164,-0.0645901,-0.058889754,-0.0465842,-0.046850674,-0.06783492,0.0002894588,-0.023650797,0.03443436,-0.04382239,-0.058205064,-0.049072254,-0.048247132,-0.027565334,-0.0472662,-0.043061294,-0.0069471016,-0.0064963447,-0.019132389,-0.06885135,0.028041078,-0.008730033,-0.091652066,-0.0085130315,-0.14461996,-0.09083892,-0.008198442,-0.052908413,-0.036563735,0.036686692,0.04807631,0.06743058,0.039724912,0.008102427,-0.037241064,-0.05378847,0.065395795,-0.021516137,-0.017937053,-0.023843592,-0.04159161,-0.011450822,0.060851797,0.04537,0.09953197,0.031951576,0.006012169,-0.00440794,0.140354,-0.078436606,0.058112632,0.04078842,-0.05373786,0.015382337,-0.069208,-0.0007087802,0.0669057,-0.011521083,0.014919354,0.11359093,-0.031977624,0.04526154,-0.05203027,0.014053412,0.02389153,-0.051302824,0.05379247,0.0066014,0.018537035,-0.038406085,0.03621528,-0.0069969697,-0.010972072,-0.066957265,-0.056354146,0.02950124,-0.057429966,0.0065173334,0.020906787,-0.039719265,-0.006891943,-0.05051452,0.04649808,-0.015227542,-0.029651312,0.032243896,0.037805855,-0.098625675,0.0066137877,-0.030299501,-0.0035606693,-0.057933833,-0.007138546,0.04834354,0.08795675,0.08471589,0.019315338,-0.056384295,0.020926295,-0.008574447,0.012730163,-0.011333544,-0.086429074,-0.048911925,-0.057682414,0.032827944,0.0017412517,0.0031932811,0.011159218,-0.0478072,-0.02633024,0.016004093,-0.059371017,-0.016638296,-0.0072967676,-0.03719445,0.0123227555,-0.062358852,-0.13916485,-0.012458748,0.00975679,-0.010119292,0.03663724,-0.021579111,0.0063183983,-0.08281506,-0.01985958,0.007993031,-0.068018645,0.04106981,0.0054275966,0.014767503,0.016884048,0.0022936536,0.018684281,-0.013036385,0.061571643,0.022056565,-0.054233134,0.1284183,0.0017857191,-0.061226673,0.0011176829,-0.0044638235,0.021664659,0.013876321,-0.070728585,0.0008769423,0.0037326543,-0.029208297,0.01355802,0.014414232,-0.0121414615,0.008188058,0.10560141,0.015343227,-0.04525725,0.017311528,-0.0018298503,0.015655732,0.00637102,-0.042426247,-0.05382698,0.09886263,0.06400392,-0.021393046,-0.09836189,0.045705076,0.00031815976,-0.05344226,0.029249554,-0.011012836,0.018356448,0.06324349,0.015214788,0.036280733,-0.043689094,-0.021876467,0.061103474,0.027851807,0.009561557,-0.015696822,-0.034508057
AMS,-0.015707979,-0.010206133,0.019859472,0.06944729,-0.02611861,-0.027389936,0.030012311,0.037774775,-0.00011031778,0.006394743,-0.02432267,-0.07709552,0.014191191,0.0033122373,-0.07466471,0.0016624249,0.06547946,-0.018695086,0.12642384,0.0044403938,0.06520537,0.047727842,-0.033599783,-0.0054100794,-0.025357774,0.0150227705,-0.009121687,0.015843002,-0.0045127305,-0.120846026,-0.035217118,-0.046760373,0.053912397,0.051896248,-0.0059592933,-0.019286187,0.04150201,-0.008158501,0.0025281792,0.036885966,-0.015717223,0.021658355,0.08566202,-0.01793027,0.09068156,0.006868187,-0.055563804,-0.015269777,-0.0071161487,0.029641982,0.030423107,-0.0408263,0.013541411,0.03389111,-0.021315975,0.057099737,-0.017108502,0.046640214,-0.01084837,0.0072206776,0.09715067,-0.009272579,-0.0878329,0.06867851,0.010163445,-0.042708404,0.112861596,0.04271929,0.059246305,-0.030958893,-0.03138066,0.016618125,0.014776145,0.06404603,0.022560399,0.006319046,0.08506036,0.027853627,0.007924751,0.054349028,-0.024638737,-0.054666378,0.04766389,-0.079473265,0.024601946,0.066519596,-0.0056517613,0.01607759,-0.03750584,-0.071279295,-0.0015531239,-0.10204042,0.0067511685,0.017702855,0.11816181,0.018894922,0.0116671,-0.0191129,-0.0103995195,0.40449446,-0.0028024742,-0.09195435,-0.121876456,-0.0767898,-0.046861425,-0.036623664,0.038326055,-0.00769326,0.01779634,-0.0028979299,-0.08013126,-0.018501898,0.019332286,0.017233483,0.04769823,-0.006443705,-0.026450407,0.05452387,0.0576354,0.033670828,-0.03909797,-0.0067243488,-0.07518994,-0.049788445,0.007148457,-0.116030954,0.04538425,-0.008252007,-0.054394092,0.057020884,-0.04042821,0.020915907,-0.011175716,-0.028476916,0.022962693,0.019334545,0.023362486,0.0027677289,0.015322757,0.006018817,-0.0077882656,0.06624807,0.013763787,-0.0060224705,-0.01169561,0.017476508,-0.051104315,0.00036954723,-0.044047263,-0.0041395808,-0.003869542,-0.009254091,0.032607164,0.072052605,-0.002033187,0.0036403504,0.018226383,-0.078678556,-0.024888285,0.037807964,-0.08986571,-0.0239189,0.019364681,0.038652066,0.085939236,-0.05801816,-0.043070104,-0.053658664,0.05165926,0.048982993,-0.014443568,-0.047532823,-0.02105814,0.04264537,0.00027638377,0.041737933,-0.0020670102,-0.030637195,-0.07180126,-0.07948316,-0.0038409196,-0.02914799,0.048795074,0.028727828,0.008156235,0.025588965,-0.046408795,0.030854762,0.036188122,-0.029734377,-0.01905491,0.037434965,0.057812892,0.07161687,-0.028251106,-0.024720619,0.075623326,0.0019641228,0.059571832,0.01871682,0.023288578,0.017115375,-0.036977407,-0.00904559,0.0746245,-0.02347247,0.013648928,0.030851558,0.019293016,-0.008573685,-0.029682063,-0.008218069,0.013865206,-0.036712214,0.018225346,-0.03072786,0.042159524,-0.02403761,-0.053489786,-0.029981185,-0.03925382,0.099676244,0.021869302,-0.1297281,0.0015164359,-0.016782831,-0.06308476,0.034609877,-0.08701262,-0.027405666,0.093071364,0.02376009,0.052365422,-0.04878692,-0.016117807,0.0035398677,-0.012537146,0.018673778,-0.06150009,-0.067126036,-0.021719836,-0.042369943,0.035674725,0.031872723,0.00018655405,0.063626245,-0.026085012,0.0300158,-0.020641353,0.10836466,-0.07082635,-0.070180945,-0.035775337,-0.01334231,-0.039278228,-0.03482326,-0.02478051,0.023204353,-0.04505059,-0.03876918,0.10656259,0.00071039866,0.03825725,-0.059865978,0.022941066,0.071564555,0.047728512,0.084810436,0.018844161,0.033056762,-0.08271184,-0.009741816,0.016099125,-0.021805624,-0.06980005,-0.06825204,0.025312776,0.03305427,0.07012938,0.0063736117,-0.022442864,0.0027659729,-0.043352097,0.005959198,0.001108456,0.0385952,-0.033046402,0.04673584,0.011336907,-0.021521423,0.0075666932,-0.036947757,0.018197158,-0.0069549927,-0.021776468,-0.051891968,-0.066814214,-0.017080374,-0.05735275,-0.105907604,-0.019113518,-0.025510943,-0.04349017,-0.075153604,0.001260692,-0.02758072,0.0072481106,-0.020205755,-0.009950629,0.0025421162,0.08013844,0.0046717348,0.021387728,0.024496865,-0.11652987,-0.0055660633,-0.08253813,0.008862064,-0.045299366,-0.15712687,0.0050091464,-0.05199809,-0.06571258,0.044948876,0.06999086,-0.04508467,-0.08643628,-0.022237672,0.04273605,-0.064643696,0.009464511,0.021081807,-0.019409455,-0.042733148,-0.023716092,-0.018582946,-0.038088772,0.03631062,-0.025243374,-0.07356471,0.06093293,0.024468262,0.06389431,0.016864076,-0.009646527,0.012612419,-0.030425709,-0.121299736,0.116333514,0.09022907,-0.02639286,0.007704062,-0.054013703,-0.0054921084,-0.0127148945,0.06616624,0.031098086,0.044427384,0.026456987,-0.017954068,0.07892674,0.004069458,-0.02930498,0.05317401,-0.061880425,-0.02028294,-0.03795243,-0.04641931,0.035086475,0.049421612,-0.019687837,-0.031163977,0.044179555,0.041103113,0.01880598,-0.008401408,0.060998727,-0.012492568,-0.009579174,0.051656853,0.0792092,-0.010663821,-0.005303173,-0.03047473
Banach,-0.03234879,0.06767251,-0.053181518,0.012904019,-0.037339233,-0.008951307,0.067699134,0.02619562,-0.01660119,-0.0141631635,-0.07630425,-0.063118234,0.00092846644,-0.053169318,-0.021298716,-0.034996662,0.039705526,0.02701758,0.011497694,-0.044138774,0.07377509,0.010096398,0.077829935,0.003736307,-0.04150633,-0.034304,0.029696442,0.06951975,0.010174343,-0.06990588,-0.0017929986,-0.023760969,0.039356533,-0.057601515,-0.0014881525,0.07760762,-0.05032316,0.056717146,0.051342614,0.01506594,0.010739396,0.02780325,-0.04684862,0.00772181,-0.04639054,-0.009514888,-0.036798526,-0.0395881,0.0039607706,-0.03483124,0.07969702,0.0068810955,0.0021731807,-0.01604675,0.052576534,-0.035472523,0.004392575,-0.023842007,-0.037165873,-0.005380215,-0.026085436,0.046961255,-0.120671764,-0.016668353,0.0013184797,-0.00014778358,0.035005163,0.005507342,-0.05868475,0.09181575,-0.016174095,-0.028217586,0.042873748,0.09677756,-0.015098701,-0.0039252755,0.04643883,0.01960536,-0.047802478,-0.0457299,-0.0833465,0.0008730914,-0.041798584,-0.02101965,-0.013830512,0.07386943,-0.03581651,0.03470553,0.054445013,-0.039667677,0.030874524,-0.04882362,0.07224649,-0.007024068,0.014030678,-0.027266055,-0.02096768,-0.025120506,-0.06270108,0.25162253,0.053060595,0.010116391,-0.029524889,0.01028166,-0.04272842,0.02756617,0.025258735,-0.06777776,-0.0062934794,0.010233831,-0.025094876,0.05990564,0.058053467,0.021817863,-0.009734268,0.009332558,0.05615863,0.042529307,-0.005009211,0.013917844,-0.07268109,0.0015055644,0.045095287,0.08370747,-0.02103125,-0.04346835,0.013242949,0.024606353,-0.03426909,-0.035780817,-0.02188332,0.0013358807,-0.011126531,0.041421533,-0.02113249,-0.0765096,0.065142676,0.1004718,0.07697578,-0.1521057,-0.054162744,0.064468235,-0.0021691737,-0.08667106,0.002407768,-0.016945664,0.06483899,-0.05831853,-0.007247292,0.006203466,-0.043797813,-0.031006863,-0.04532722,-0.058887623,-0.017888533,-0.045628224,-0.056743786,0.03945486,0.023347875,0.06797785,-0.087329194,-0.018338485,0.0038525017,-0.05016781,-0.021070512,0.049733497,-0.032167777,0.034282908,0.028555227,-0.018645314,-0.0094085485,-0.033954155,0.018227737,-0.031105304,-0.09332087,0.011097193,-0.018725432,-0.026449243,-0.031841293,0.063147865,-0.013436906,0.01576447,-0.05624337,-0.01822212,0.024673078,0.030520676,0.09567451,0.034760464,-0.0123169115,0.057415687,-0.029348824,0.06551406,0.032196548,0.018643785,-0.113066226,0.06735316,-0.09421076,-0.032943513,0.039611693,-0.03551267,-0.0476939,0.08222014,-0.020037236,-0.047893457,0.042658143,-0.06308144,0.087017186,-0.0076505053,0.07713431,-0.029810993,0.000706621,-0.0059478222,-0.0928596,-0.015924921,-0.016740004,-0.06856901,0.13695061,0.08238661,-0.05951335,0.08204153,0.045094464,-0.09400792,-0.004631997,-0.093756825,0.051654313,-0.074013546,-0.0010453123,-0.018396225,0.0530851,-0.003617805,0.028052771,-0.013535154,-0.023978531,0.04473884,0.0005973252,-0.019146895,-0.0012907758,0.016695864,0.009597782,0.016608275,-0.0044893837,-0.02050977,0.042903516,-0.018467836,-0.07356763,-0.061841186,-0.060354263,0.13364536,-0.06343115,0.086280346,-0.05865672,0.13753298,0.027958024,-0.06824834,0.05443825,-0.014919413,0.0036657085,0.051965196,0.045005675,-0.0405634,0.07783133,0.055652823,-0.060513258,-0.017860066,0.0040960107,-0.015875446,-0.026709862,0.05489032,0.0354052,0.029867843,-0.017618809,-0.009521859,-0.03572669,-0.132547,0.017408062,0.017067049,0.054045226,-0.04501647,0.025354162,0.05605416,0.045468155,-0.08602253,0.103559375,-0.023795068,-0.01492012,-0.072675444,-0.026746953,-0.061944645,0.052405994,-0.012520905,-0.016929822,-0.012607155,0.017762844,0.0036953837,-0.023272859,-0.0057684747,0.012574992,-0.004852945,-0.024521824,0.04084808,0.044559106,-0.09710564,0.02522526,-0.03704526,-0.004807065,-0.004671798,-0.100299835,-0.051042423,0.092032254,0.010364434,-0.023000361,0.01622905,0.03767505,-0.039694913,-0.017415836,0.06276404,-0.03438749,0.020571865,0.17666696,-0.117815174,0.061548818,-0.10091467,-0.03156352,0.099846825,0.02092923,-0.027981672,0.010447542,-0.07900016,0.0133028515,0.007898979,0.016714523,0.074639715,-0.089508615,0.0024826834,-0.043612476,0.05800742,0.07318673,0.010823445,-0.0062590986,-0.028069654,0.025651865,0.020666316,0.031442046,-0.088066235,-0.03350085,-0.02125796,-0.03577195,0.012781431,0.038375717,-0.04170063,0.014035326,0.03347896,-0.03928607,0.031204045,0.061898764,0.075022705,-0.025610043,0.022288503,0.031978156,-0.034532927,0.055332713,-0.041225027,-0.007611648,-0.016138678,0.0039306968,0.02601688,-0.050246194,0.028405989,0.02359853,0.027575212,-0.03129682,0.032939393,0.06985292,0.07128225,0.03928969,0.046158638,-0.019697169,-0.101143196,0.016429756,0.05464543,0.01705218,-0.085183874,0.032523867,-0.059560467
CERN,-0.0182194,0.04108537,-0.040393855,0.008687864,-0.06091767,-0.09143257,0.034508515,0.082726106,0.034444727,-0.055180535,0.03730727,-0.11829931,0.035935044,-0.01883855,-0.07431912,-0.031111002,-0.016364707,-0.0030952727,0.14402136,-0.08319076,0.017185787,-0.0060898955,-0.009858856,-0.031256754,-0.10943114,-0.039918095,-0.012532104,-0.03732448,-0.099529676,-0.090838306,-0.06543005,-0.053899255,-0.022345128,0.056764856,-0.04223136,0.03839811,-0.024349902,0.030982291,-0.004346565,-0.021704527,0.02143416,0.0046932045,0.09661515,0.021286523,0.084624864,0.0044520996,-0.06594041,-0.034615442,-0.021153005,0.010579327,0.015017884,0.030490084,-0.01366558,-0.06650322,0.018903304,0.034399524,0.015684998,0.012647065,-0.0016541813,-0.042739753,-0.007175994,0.031881023,-0.09802873,0.02426434,0.049433988,-0.046926584,0.09202874,0.0554742,-0.022408439,0.07223181,-0.034682363,0.01198082,8.330387e-05,0.0114760725,0.026691867,0.0708265,0.004354131,0.014716982,0.025038563,-0.07592119,0.09033792,0.09770272,-0.08856698,-0.04180609,0.03668513,0.059197433,0.018425863,-0.0031046206,0.031191558,-0.07245528,0.07918783,-0.08275223,-0.048985716,0.044129804,0.0055211,-0.017909808,0.052985024,0.005760653,0.077781975,0.27806333,-0.0018264649,0.022644224,-0.030663459,-0.007983924,-0.025107216,0.03410303,0.05301869,-0.0802084,-0.021797989,-0.03831805,-0.013941933,0.01698735,0.00538994,-0.07030374,0.009198534,0.07894271,0.008177938,-0.001434776,0.0928001,-0.012768265,-0.054440033,0.10762139,-0.0024698158,-0.018716857,0.038132682,-0.11626498,0.06903931,0.0747381,-0.053569347,-0.061129898,0.0003956008,-0.0012318104,-0.061137505,0.041313436,0.022399135,0.0013959948,-0.029023869,-0.00662903,-0.008249362,-0.061167084,0.037184764,0.006639104,0.002951392,-0.017796773,0.035898093,0.028822822,0.0375253,-0.07346424,-0.025614746,0.020392148,0.03193392,-0.041110538,0.042813774,0.01826997,-0.06370113,0.09221762,0.0027955277,-0.0061167367,0.03535936,0.07552986,-0.029720062,0.12445098,0.055322684,0.06920353,0.0021701474,-0.026119692,0.0504634,0.0026341656,0.0048905932,-0.0028172233,-0.006831809,-0.025413247,-0.034381248,-0.0088611385,-0.040492978,-0.051183816,0.0067843455,0.027512755,-0.0017881911,0.03838946,-0.029225422,-0.048416495,-0.0050217835,-0.009246036,-0.0034454442,0.03165327,0.027845157,0.010660754,-9.587207e-05,0.07355927,-0.066969045,0.03230758,0.029247925,0.01946111,-0.09402995,-0.0316472,-0.014047582,-0.061189737,-0.019153219,0.005681923,-0.049084477,-0.06935568,-0.026451005,0.053681042,-0.020127872,-0.053791367,-0.03340842,0.027144585,0.05528962,-0.009721688,-0.016249279,-0.033893276,0.009364501,-0.05048769,-0.04822788,0.10724842,0.02792307,-0.014550399,0.01555346,0.02401972,0.10183204,0.0048784968,0.005020085,-0.07700603,0.019541284,-0.03891232,0.018246725,0.12014769,0.035557676,0.042875573,0.014146365,-0.05642301,0.028649256,-0.03330678,-0.034019195,-0.042552553,0.0016959637,-0.05155619,0.003768793,-0.061395545,-0.06270613,0.008742696,-0.010981825,0.060908977,0.0543165,-0.091515504,-0.060272157,0.057068728,-0.0003780977,-0.03836244,-0.066968985,-0.04401065,-0.0732508,0.012585478,-0.025911069,-0.012146788,0.02176314,0.081514835,0.021835396,-0.07114821,0.075731575,0.02347523,-0.029515259,-0.027575672,-0.053666357,0.0039261854,-0.07104229,0.03142177,0.07728677,-0.05782261,-0.038345475,0.043335386,0.089647256,-0.07394651,-0.04189944,-0.04353597,0.019054309,-0.10191475,0.030179875,0.09362987,-0.051314697,-0.00408533,0.12569763,0.015252214,0.0036577235,-0.010548561,-0.03660233,-0.0059218113,0.018030416,-0.012853038,-0.035553228,0.092442594,-0.10339671,0.018496037,0.086865604,0.03373328,-0.036892973,-0.006467818,-0.05600658,-0.015826607,-0.03368158,-0.029697923,-0.05422641,0.09613148,0.0072873244,-0.014884042,0.027537566,0.045431655,0.07642702,0.05332891,-0.034792777,-0.08514233,-0.024110397,0.0039201467,0.00945348,0.019271597,-0.019327138,0.012605694,-0.019931749,-0.0858154,0.03682062,-0.042532504,-0.09358661,0.05143879,0.058580406,-0.022487463,0.025606293,-0.053937502,-0.028870275,0.009377355,-0.08160184,-0.024841739,-0.025729923,-0.03216237,0.023075908,0.058833376,-0.009175685,-0.061343864,0.01455581,-0.012387906,-0.014070243,0.06267837,0.06274242,-0.032352533,-0.08032827,-0.0054488974,0.068815835,0.12709798,0.04167736,-0.045883194,-0.010533563,-0.03014781,-0.022876712,0.015736563,-0.00096551183,0.012144738,0.016950158,0.03713713,0.034292288,0.10761273,-0.025176885,0.0057495967,0.03315208,0.048845854,0.00044067268,0.098709345,-0.056242257,0.0030174146,0.022733144,0.008191687,-0.03391983,0.01890355,-0.0240308,-0.07067546,0.071466886,0.04603533,0.029509809,0.01253891,-0.052283596,-0.013073855,0.011246649,-0.08407849,0.02814114,0.0345343
CEUR,0.011013768,0.031828653,-0.031594284,0.0046216515,-0.025861813,-0.04949675,0.08626324,0.068790406,0.0323158,-0.005482781,0.022195598,-0.076816574,0.029749468,-0.020584393,-0.02966658,-0.000273192,-0.0043007066,0.02156289,0.046120744,-0.00089724304,0.07794022,-0.018999277,-0.011148741,-0.030756017,-0.034850854,-0.02413684,-0.019267647,-0.011172868,-0.02195806,-0.11765261,0.028741812,-0.029985895,0.05031479,0.051129866,-0.0065846904,0.029010003,-0.0012709394,0.007352886,0.03943486,0.01386044,-0.004285452,0.017299566,0.021141497,0.060287204,0.036687277,0.041622564,-0.004561195,0.011894727,-0.0071333754,0.020925295,0.03539611,-0.004082744,-0.03416628,-0.03002364,0.024088489,0.039324798,0.022484038,0.011798964,-0.022138063,0.0054840627,0.01838359,0.019916818,-0.16859658,0.059558794,-0.058797333,-0.063080765,0.014132172,-0.0045824843,-0.041476406,0.08642388,-0.0076151835,-0.011892959,0.004448962,0.0397814,0.03153778,-0.008958186,-0.0025877228,0.047409676,-0.007335095,-0.03402396,0.027039548,0.053425893,0.01299774,-0.020179238,-0.021364953,0.032993846,0.026134187,0.042485382,0.044164583,-0.04119803,0.029066112,-0.04746036,0.06668481,-0.010854458,0.08027358,-0.0049211695,0.01042198,-0.019313006,0.03685466,0.6303261,-0.007172703,0.018879922,-0.03678324,0.025035052,-0.027278626,-0.007938772,0.03227893,-0.03346245,-0.022678759,-0.0024704023,-0.049751643,-0.00024228574,-0.012609976,-0.02433824,0.009221057,-0.002697258,-0.012658902,0.006181247,0.027087172,0.042995594,-0.019134533,-0.011962837,-0.0027527472,0.000440973,0.017811626,-0.19969891,0.05972415,0.051870752,-0.04052655,0.019798147,0.021931835,0.021258026,-0.024703749,0.026729707,-0.04320495,0.003458808,0.028525895,0.040311698,-0.01258556,-0.07121862,-0.028638596,0.07447679,-0.009194134,0.0048228092,0.021903012,-0.010573748,-0.038169492,-0.0660089,0.0038263826,0.039069537,-0.0036558844,-0.02470581,0.014963907,0.015802851,0.0028986763,-0.021561852,-0.0049385317,-0.02934935,0.026788753,0.051579952,-0.041024063,0.04033117,0.019372897,0.026454546,-0.0142944595,-0.037796218,-0.036796678,0.015742065,0.050881602,0.0343528,0.011477008,-0.0044923173,0.009742763,0.027960727,-0.017044505,-0.008131208,-0.0120588755,0.011276971,-0.022341043,0.024005232,-0.0028016677,-0.025126992,-0.02232971,0.036930438,-0.00752798,0.01923933,-0.011560077,-0.0072253975,0.029280942,-0.029677194,-0.038652048,-0.022510871,-0.0019829972,0.010394711,-0.039981555,-0.07454594,0.0035158123,-0.046299383,-0.026348691,-1.0319006e-05,-0.0752624,-0.037315734,-0.044306297,-0.0433317,0.07913021,-0.028970752,0.0067018466,0.0019672092,-0.011565999,-0.0027810414,0.023543222,-0.03244947,-0.02547498,-0.019024182,0.009248201,0.0034406432,0.008230248,0.005727056,-0.056359645,0.0026001264,0.026115267,-0.018336004,0.012247788,-0.17857549,0.03690468,-0.045502417,-0.04744288,0.049717683,-0.025229773,0.0038761033,0.0018938066,-0.00029428332,0.008336555,-0.03324954,-0.054018445,-0.033596344,-0.00071572495,-0.013241141,-0.036176667,-0.016479926,-0.03646086,-0.028013473,-0.017312272,0.050839577,-0.0067923637,-0.0135198645,0.006220661,0.105532326,-0.032336146,0.13973892,-0.068702884,-0.03891264,-0.013664381,0.007974577,0.00026151302,-0.024415666,-0.041648325,0.0392462,-0.029329073,-0.011019172,0.03943799,-0.003611605,-0.06815094,-0.002904921,0.02796229,-0.006051061,0.002550225,0.0982104,0.027971689,0.022347443,-0.022869345,-0.000120681674,0.018178616,-0.050193194,0.022267204,-0.016599843,0.015397773,-0.032957476,0.03568227,0.04294499,-0.037910283,-0.08952643,0.008842208,0.032225072,0.01907863,0.008160199,-0.016806,0.029721357,-0.016641373,-0.0004442997,-0.029783858,0.059058722,-0.018853111,-0.0008372097,0.02424291,0.006511488,-0.029941428,0.032135695,-0.014628591,0.030430414,-0.017451182,-0.06683386,-0.032779284,-0.0107232295,-0.059380114,-0.03395426,-0.007981134,0.022093756,0.05436182,-0.02332829,-0.03475923,-0.019507315,0.017166466,-0.0025642535,0.0026180884,0.023112874,-0.010578769,-0.008835529,0.001584716,-0.23349175,-0.0034081605,-0.06530992,-0.08683779,0.043840904,0.057115383,-0.033425767,-0.030117584,-0.06557674,0.0118339425,-0.003332706,-0.040089007,0.032861996,-0.036957998,-0.02391905,0.01201375,0.04015673,-0.026953595,0.0021728675,0.008892381,-0.044388585,0.04115811,0.05385039,0.020273887,-0.032694377,-0.019402362,0.0004476612,-0.018117944,-0.06418289,0.023910189,0.004751417,0.02383418,0.039959494,-0.039728817,-0.004960274,-0.014989113,0.048655357,0.015722532,0.0136331655,0.02710653,0.05141862,0.0642098,0.0055648973,0.016765341,0.03466895,0.022281932,0.05659414,-0.02818207,-0.014030623,0.014990284,0.015400405,-0.025147865,0.020703025,0.004988848,-0.0028423371,0.018680831,-0.017926045,5.6527874e-06,-0.021475531,-0.04139257,0.03413202,0.03859999,-0.029197361,-0.006812857,0.059092052
CSIC,0.008500052,0.012074503,-0.055550244,0.0068476168,-0.017014721,0.012802776,0.016040951,0.07440966,0.02833213,0.021560427,0.031179339,-0.080958925,0.044242494,-0.03564048,-0.038361657,-0.002500092,0.018864194,0.032544598,0.050224025,0.03890932,0.036532436,-0.054832473,-0.048643276,-0.05327149,-0.03151612,-0.014154651,-0.037969995,-0.03137424,-0.043103352,-0.12448793,0.018299997,-0.052929178,0.101702176,0.08488389,-0.0113708405,0.014002441,0.030096145,-0.008449816,0.0068414267,0.03290989,-0.044545237,0.06232813,0.024366034,0.06623601,0.056040544,-0.014393117,-0.02827764,-0.059443533,0.0065995106,0.035708442,-0.040110253,0.012068967,-0.008039649,-0.021814777,0.014524507,0.044009853,0.019469047,0.024456106,0.031835444,0.03524051,0.027341563,0.0029878437,-0.18074775,0.043170936,-0.013829652,-0.035139926,-0.0007691443,0.029754672,-0.0009089202,0.02915168,-0.06529525,-0.012389565,-0.01622814,0.03318577,0.027677594,0.0017715733,-0.018440424,0.022614306,0.04652453,-0.0410792,0.08594436,0.029935502,-0.020823956,-0.022233672,0.047774408,0.060607493,0.05071269,0.017715964,0.025129136,-0.04160339,0.058083102,-0.049794123,0.038821585,0.005136322,0.04739797,-0.0533063,-0.001055191,-0.03910563,0.079854034,0.5259365,-0.001035103,0.016465748,-0.0404694,0.021041948,-0.037082702,-0.022837922,0.07713777,-0.016225066,-0.018857466,-0.03630393,-0.010230565,0.009621126,-0.06855757,-0.06284534,0.059404787,0.056814205,0.0063988934,0.006906875,0.10475893,0.023375034,-0.022902265,-0.020650143,0.021354387,-0.018481053,0.03609201,-0.18375221,0.068877295,0.07041153,-0.05346828,-0.0091751395,0.016341116,0.047602605,0.018141842,0.0058441465,-0.023280116,0.030326365,-0.005917195,0.051991194,-1.4672041e-05,-0.0063431086,0.00047653966,0.107524864,-0.0078066043,0.031361274,0.036074348,-0.00032924578,-0.014477331,-0.059861373,0.05748048,0.0074275085,0.046754707,-0.02074605,0.03510422,0.029167375,0.011543058,-0.0037412932,0.0016268727,-0.0040214607,0.0046950425,0.04654439,-0.06751545,0.053907,0.056687996,0.07776603,0.019037643,-0.046001114,-0.015557929,0.029275628,-0.004829993,0.035666138,0.008057176,-0.045740403,0.01209576,0.005297052,-0.020976564,-0.063483,-0.031812415,0.00864261,-0.026511077,0.026282392,0.0348059,-0.055374697,-0.054437704,0.017732633,-0.0094267335,0.04463354,0.019188285,-0.027495777,0.018958334,-0.029250953,-0.078443885,-0.025045468,0.002432262,0.03771498,-0.0142797,-0.10994222,0.042600643,-0.092612214,-0.032013614,0.008334062,-0.05371583,-0.08049791,-0.032601982,0.011538921,-0.020341475,-0.0034317998,-0.025276264,-0.0015465771,-0.04079952,0.034196056,0.017940743,-0.06512069,0.012297021,-0.029020332,0.03831275,0.04541328,-0.072573595,-0.011486301,-0.06841382,0.014557981,0.07979041,0.036968034,0.025911776,-0.15004209,0.029179316,-0.015406396,-0.04316767,0.044946134,-0.043140445,0.04003783,0.0077915504,-0.009411995,0.0044997134,-0.032218788,0.020021807,-0.056833073,-0.0011474574,-0.015647661,-0.03989502,-0.023000957,-0.08517906,-0.0007821398,-0.065344706,0.021649176,0.008856616,-0.015076486,0.019692115,0.117517635,0.018284656,0.12544367,-0.052822515,-0.032761637,0.0066263475,-0.023234652,-0.048504025,0.0021358791,-0.061723005,-0.00034716714,-0.0351546,0.0028532567,0.014273789,0.009813178,-0.03625174,0.050535955,-0.007005449,0.046194207,-0.0087552285,0.09875626,0.018562095,-0.02810067,-0.037379354,-0.0052800416,-0.014121533,0.012540894,0.0039169593,-0.02323739,-0.012781712,-0.028172193,0.0136881815,0.070005246,-0.07581176,-0.028207947,-0.034282222,0.020032603,0.010510036,0.0047734976,-0.025641413,0.056038007,0.004085576,0.01788222,-0.0039217467,-0.0036810422,-0.042750206,-0.016737318,0.065766804,0.047884688,-0.023176285,-0.011964399,-0.061862133,-0.036616173,0.0043573026,-0.007892797,-0.05212384,0.036564656,0.009878533,-0.04782637,0.00971696,0.055878807,0.02495632,-0.023946518,0.025981305,-0.035234716,0.03333887,-0.027495287,0.005191785,-0.004509211,-0.03805221,-0.010432066,-0.028188283,-0.18523072,-0.042823713,-0.027987871,-0.11627363,0.036242776,0.043389335,-0.027863732,-0.07526703,-0.06122112,-0.010691148,-0.0101107955,-0.005728048,0.020336943,-0.034703977,-0.032683738,0.0027037964,0.011336572,-0.00793525,0.049803708,0.031225665,-0.011655739,0.059599604,0.030080633,0.035892796,0.010656217,-0.038510595,-0.01392494,-0.0482749,-0.03133234,0.032649405,0.009890883,0.004433053,0.021621825,-0.04867779,-0.022325948,0.0152146835,0.0811016,0.043757394,0.001039256,0.03073801,0.047323566,0.025516164,-0.015918273,-0.0059689907,0.01979555,-0.01736114,0.044753518,-0.060597237,-0.055526525,0.032017514,0.023947569,-0.013757877,0.017363776,-0.008943961,-0.04074386,0.0027783983,5.7652895e-05,0.02634511,0.014224405,-0.051693436,3.0793413e-05,0.030590639,-0.037690755,-0.03426235,0.021956882
HVAC,0.011943743,0.12122009,-0.022263233,0.04709254,0.020426326,-0.023838336,0.0011780632,0.017266508,-0.079379685,0.012505788,-0.00817984,-0.017336683,0.023471719,0.0039790757,-0.059251737,0.06991773,0.005830033,0.014504775,0.015210057,-0.04485451,0.031581055,0.0061574546,-0.056450825,-0.054092534,-0.0053034495,0.0072837807,-0.037153665,-0.006256057,-0.073737636,-0.004601384,-0.010014369,-0.07651651,0.007355061,-0.0037168988,0.10405868,-0.03745809,0.017750405,-0.041955948,-0.07153267,-0.08099185,-0.069095016,-0.088429816,-0.015839973,0.04377301,-0.051871456,-0.0016860351,0.013491763,-0.04815541,-0.02236672,-0.054477166,0.05219726,-0.036236886,-0.011669541,0.08093391,0.003686408,-0.0098092975,0.009666345,-0.018271554,-0.015541907,-0.074004814,-0.0010405108,0.09021575,-0.06973964,0.01707842,0.010591078,0.03644576,-0.010766434,-0.011360261,0.02856053,0.010480655,-0.09153197,-0.035460062,-0.016835764,0.004450616,0.056829087,0.064325035,0.0012102318,-0.059392504,0.077867225,-0.04333802,0.15517987,-0.002089197,-0.032664116,-0.00090310833,-0.025821375,0.014456192,-0.010978405,-0.0853968,-0.036657266,-0.043606516,-0.007766425,-0.0672463,-0.003018367,-0.03763954,-0.0069172033,-0.07184991,-0.053215418,0.036639716,0.026138762,0.21249732,-0.0007180306,-0.026973197,0.02870449,0.003214178,-0.015223959,-0.0459889,0.0048533124,0.10834577,-0.02652723,-0.04148388,-0.10346574,0.06465573,-0.064745255,-0.087477736,0.032316912,0.016431196,0.07072293,0.030248035,0.026471129,-0.033654604,-0.02934203,-0.051149562,0.046256095,-0.0625806,0.03294424,-0.08994257,0.011957786,-0.025228314,0.06484817,0.024532178,0.036752824,0.00059314456,0.0732695,0.053397365,-0.024408972,0.037300166,0.102432586,0.088637,0.13050202,0.05171766,-0.054604076,0.0038359938,0.022852622,-0.04435729,-0.007840835,0.0025275385,-0.084779166,-0.01600607,-0.02867145,0.0077162716,0.08942354,0.011998184,0.08178808,-0.06542448,0.0057524536,-0.0026467247,-0.05411699,0.022825636,0.09706839,0.052741393,-0.095641285,0.022619748,-0.039026875,-0.0029779715,-0.058519457,-0.012960062,0.014684707,-0.04187369,0.040649828,-0.009185165,0.05236643,-0.008028206,0.07822244,-0.08719094,-0.010345855,0.00327223,0.038065135,0.013776486,-0.04746764,0.0038429257,-0.09682207,0.022575608,0.04195492,-0.0008407743,0.1354627,0.024440322,0.13135447,-0.04468859,-0.023056291,0.04766639,-0.048066225,0.0042660185,0.009887414,0.03561748,0.036719188,0.021596998,-0.021012481,0.014910078,0.08646472,-0.057095908,-0.033227906,-0.026312115,-0.053117804,-0.010217051,0.02226013,-0.031339206,-0.06777038,0.021555683,0.009276236,-0.022555863,0.048378605,0.04238405,-0.037114866,-0.022058915,0.024314431,0.074917346,-0.035199605,0.0368701,-0.016412279,0.060532503,0.071705826,0.01689328,2.1594982e-05,-0.061628297,0.03827682,-0.045173205,-0.028811326,0.015470452,-0.05251912,-0.018108744,-0.029647274,-0.071764134,-0.06000022,0.030875301,0.04444239,-0.06623019,-0.03824016,0.044276726,0.017863331,0.04031694,-0.032042503,-0.12278069,-0.047911715,0.11825344,0.04470574,0.014048885,-0.00929904,0.07528097,-0.008898465,0.04488483,-0.008101053,0.07821162,0.023466753,0.0025848546,-0.13249719,0.05821028,0.07090579,0.08066312,0.0036318556,-0.049312957,0.04938495,0.018460495,0.022566153,-0.048808258,0.034800563,0.019468926,-0.010540836,0.097616106,-0.039380755,0.00059862615,-0.04018804,-0.19599065,-0.042929154,0.038770087,-0.0070573245,-0.06964875,-0.058661584,0.028173681,0.04134497,0.054718748,-0.008163603,0.0019322522,0.030347886,0.026367214,0.08244252,0.037268247,0.026282452,0.0028978738,-0.012825675,-0.037296917,0.106854625,0.034840338,-0.028121682,-0.06404832,-0.005846492,0.013119754,0.122465,-0.045995943,-0.017268717,-0.091680065,0.07175105,-0.034442365,-0.0049373624,-0.030764922,-0.03160444,-0.0077778623,0.020901578,-0.0018833574,0.057130173,-0.07997407,-0.060776822,-0.08170925,0.012937471,0.010135435,-0.00046401133,0.05372163,-0.00033663344,-0.07262228,-0.007992216,-0.09290238,-0.041158803,-0.01656858,0.044493217,-0.009710941,0.047669522,-0.08631109,0.0015645267,-0.0045313677,0.023198184,-0.00034673416,0.08971321,0.01682493,0.027877849,-0.001120183,0.02814068,0.022882843,-0.05442291,0.07070797,0.036608703,0.007953033,0.04455636,0.0346115,0.021671548,0.06519846,0.038991284,0.007250152,-0.048014402,-0.020084005,0.016369738,-0.0028838264,-0.045836676,0.0108954795,-0.0013592888,0.031036112,-0.06986399,0.043728825,0.034219787,-0.021608142,-0.057961628,-0.05729385,0.014398975,0.016734822,-0.008073952,0.039328933,-0.03157808,-0.015737949,-0.10309648,0.0091039585,-0.05889605,0.008446423,0.02208677,0.022396209,0.05770493,0.026422618,-0.009197152,-0.0027664362,0.05056558,-0.045696273,0.07190501,-0.0067909295,0.0042147725,-0.014227695,-0.14003648,0.016781252
IoT,-0.018467812,0.027032835,0.04166481,-0.032368083,0.02644565,-0.02584922,-0.003657571,-0.0041728443,0.008088651,0.0017716787,0.064926654,0.031906616,0.10076957,-0.038784362,-0.006615612,-0.009148051,0.026549315,0.014819415,0.031877276,-0.044400103,0.028537862,-0.10609465,0.023071315,-0.07357541,5.5721994e-05,-0.03245816,0.0019046812,0.051419515,-0.037556484,-0.04183378,0.028756378,-0.054056313,-0.052308455,0.025424454,-0.022824148,0.025996389,-0.01460463,-0.05933926,-0.085729055,-0.12520292,-0.0127951745,-0.02017177,0.0136939185,0.005513768,0.05316578,0.03544047,-0.055499386,-0.05071674,-0.050393075,-0.011077324,0.038491372,-0.006715356,-0.012660734,-0.002932344,0.031545445,0.07516139,0.020736942,0.03829056,-0.047077563,-0.046820708,0.018585952,-0.04838763,-0.041102473,0.07435681,0.016806666,0.10307829,0.012617718,-0.056236207,0.014949801,-0.11231894,-0.061988927,-0.03229844,-0.01012589,0.04132637,0.020887876,0.04971649,-0.049819563,0.039311163,0.041031644,0.051727965,0.030683005,0.032383237,0.070727214,0.014316199,0.0060235146,0.033950146,-0.031352688,-0.023443239,-0.032069575,-0.026383407,-0.06974167,-0.023448525,0.011066711,-0.00610779,0.09368686,-0.0010991383,0.0076629044,-0.043842085,-0.028850457,0.28949842,0.003850109,-0.044135936,-0.054027844,0.03249489,-0.011554726,0.007798529,0.031507496,-0.06862464,-0.03725287,0.008553061,-0.020889271,0.029320505,-0.03206862,-0.03673206,0.016665224,0.02303992,-0.042867813,0.039709374,0.07631115,0.02063555,-0.061653364,0.016124563,0.0051513887,-0.027545242,0.04491628,-0.16028033,0.13530184,0.038259145,-0.057221763,0.063664004,-0.00428857,-0.041426282,0.036906444,0.012555077,-0.025752349,-0.009536165,-0.03723558,-0.05698143,-0.10587387,0.059155975,-0.016365578,0.015000452,0.07228379,-0.06879987,0.06754011,0.05964406,0.028784221,-0.059436213,0.015548201,-0.09770559,0.030759638,0.011361569,0.03820105,0.013093596,0.003898551,0.00862303,0.04319565,-0.052939612,-0.011639069,-0.020470057,-0.05464736,-0.06954231,0.013300539,0.03556486,-0.0048059435,-0.072610095,-0.07228663,-0.011540298,-0.0018356498,0.008753139,-0.03914051,-0.06520882,0.014877845,-0.048866887,0.03075974,0.026124394,-0.03193244,0.023258517,-0.06068984,-0.075099155,-0.04787039,-0.07249449,0.067852244,-0.027247695,0.012706828,0.017767597,0.06555139,0.11216173,0.039166417,0.006691087,-0.019887712,0.010984775,0.09180625,-0.029039593,0.028604353,-0.057688255,0.008836737,0.06793715,0.02981627,0.0006492505,-0.059832282,0.08258922,-0.047350973,0.0005753896,-0.0608865,-0.04446905,-0.04832005,-0.03257207,-0.0032574728,-0.0065342216,0.0024343596,0.026247349,-0.009112317,0.040143266,-0.02534866,-0.026013838,-0.10410762,0.016305597,-0.022520449,0.05942408,-0.0740738,-0.036993425,-0.004720748,-0.063441314,-0.072858855,-0.02494125,-0.037614252,0.028354943,-0.008242742,-0.13683903,0.033519294,-0.0037007527,0.060693923,0.13915244,0.0027775767,-0.028765976,0.0045709587,-0.03760792,3.0436131e-05,-0.03652795,0.015016787,-0.061272435,-0.021033166,0.056984298,0.068119034,-0.017317569,-0.034131955,-0.016813546,-0.0044678575,0.06330555,-0.06481813,-0.009674398,-0.051959004,-0.0067252456,0.02968961,-0.0017727483,0.03877375,0.055113807,0.009068176,0.04774701,0.11471704,0.0047667744,0.058060974,-0.0077461503,0.11298675,0.036993124,-0.09256755,0.002257988,-0.07220502,-0.07620704,-0.058336005,0.022483353,-0.027446242,0.009691605,0.047485914,-0.054718502,0.08328808,-0.051182672,0.043428022,0.007926519,-0.031879075,0.097112,0.0075383065,0.009387779,0.021293152,-0.079010636,-0.01871956,0.08399984,-0.03047633,0.02058329,0.012442545,0.0074404585,-0.09839842,0.10480194,-0.05016804,0.017235747,0.14586502,-0.03540774,-0.07730824,-0.003797505,0.02036705,0.032877423,-0.071648,-0.0070110667,0.058344238,0.006965807,0.027400993,-0.08205889,0.03953956,-0.023006937,-0.00594168,-0.06572338,-0.07077112,-0.012966051,-0.0051802485,0.07153986,-0.048017517,0.051225133,-0.044177387,-0.10445568,-0.019263256,-0.028070847,-0.048519924,0.008773263,0.033811867,0.037130933,0.035681557,-0.0052417535,0.021685535,-0.070676796,-0.01093275,0.015678292,-0.032162916,0.034618262,0.057981007,0.041381687,-0.00017390162,0.023266608,0.018858945,0.020457711,0.11810586,0.028809227,-0.020499734,0.0119072525,0.040163897,0.0067285667,0.06221062,0.00653691,0.06386079,-0.074011855,-0.015594412,0.010483376,0.0009614307,0.036889065,-0.06187191,0.14375597,-0.002602661,-0.026852133,-0.021573424,0.058946595,-0.04456901,0.011984634,-0.03723505,0.002529151,0.0410755,0.087191544,-0.03996451,-0.056370683,0.008183794,0.021839133,-0.037786096,-0.014396648,0.031402342,0.04698739,0.06413378,0.025945159,0.05862194,-0.05699604,-0.017520916,0.10713825,-0.056393657,0.02853337,0.0068417364,-0.0025939143
RIMS,0.0047284677,-0.0073340707,0.019944422,-0.027918743,-0.035459306,-0.02670634,0.05586761,0.061303496,0.018512692,-0.005534565,-0.024376016,-0.029484686,0.029576922,0.008537344,-0.044771895,0.017597463,0.012100385,0.036389377,0.05808894,0.013994715,0.0752089,0.004177067,-0.024605012,-0.019197626,-0.0473574,-0.007688107,-0.03864768,0.0012581305,0.00049189536,-0.12545715,0.028936144,-0.02548282,-0.019747244,0.032178722,0.0005463571,0.05775826,-0.056402795,-0.0042765695,0.023295384,0.06574067,0.009122355,0.0050990987,-1.377329e-05,0.032205492,0.03139117,0.018551702,0.002696976,0.02547912,0.008075619,0.018387828,0.030032434,0.0073204516,-0.0356873,-0.0450877,0.03695516,0.029703526,0.0017158258,0.016232666,-0.009480133,-0.0020292606,0.052880254,0.043745197,-0.19763544,0.048836645,-0.04872447,-0.07473441,0.010834646,0.042457614,-0.029016536,0.08008783,-0.03830421,-0.0057059927,-0.037412044,0.018717011,0.054773726,0.017652135,-0.012155615,0.061803654,-0.03486778,-0.061976362,-0.0099953385,0.014980711,-0.004296382,-0.024631156,-0.05277901,0.020922974,0.022258675,0.039657902,0.042592216,-0.0094780205,0.05548283,-0.04285878,0.038049564,0.01352872,0.08802711,0.03654422,-0.013004834,-0.021331636,0.043256614,0.55819964,0.021908633,-0.017452674,-0.023651939,0.032068107,0.0026993935,-0.017569352,0.010923558,-0.04403697,-0.0053902627,-0.011229052,0.0017273596,-0.0042509832,-0.013441907,0.026376596,-0.02490907,-0.056787867,-0.04208428,0.015945673,-0.019687956,0.04097375,-0.045069076,-0.030951995,0.016411573,0.028582389,0.004736908,-0.18090335,0.032691274,0.046475835,-0.026292322,0.0024315207,0.010666786,0.027511775,-0.023500867,-0.0047705914,-0.03305346,0.014135055,0.025630185,0.09289594,-0.010240479,-0.055169523,-0.08852672,0.085065275,0.017710438,-0.011197983,0.028837617,-0.036009386,-0.042517558,-0.048379302,0.0055095404,0.03190862,-0.024184605,-0.061800014,0.005717314,0.014102087,0.019337635,-0.06326759,-0.013880309,-0.0163792,0.036638204,0.024411652,-0.015079951,0.030180926,0.021591457,-0.0032747702,-0.0049967244,-0.04327308,-0.06583096,0.005821443,0.07585389,0.0033147351,0.01878972,0.029649852,-0.008002499,0.022902003,0.002170947,0.03866578,-0.020899419,-0.0070731696,0.007046712,0.056257203,0.04333164,-0.007227271,0.0041341,0.05152522,0.013441594,0.010444972,-0.037247602,0.02351512,0.02426519,-0.04259292,-0.041039992,-0.083455205,0.017803041,0.023907715,0.01320727,-0.022893166,-0.003514424,-0.0064375964,-0.061687395,-0.027671611,-0.08155601,0.0059428196,-0.020493982,-0.014895342,0.064788476,-0.0023337295,0.018893175,-0.009069091,-0.028028188,0.03886154,0.013932814,-0.06537421,-0.026101027,-0.013939377,0.04274364,-0.020796519,0.053501334,0.02112965,-0.0739694,0.008006108,0.0005733515,0.021835595,0.029238863,-0.16649806,0.0042990185,-0.040582668,-0.036706142,0.069604926,-0.031864412,-0.015221185,0.011415282,0.033843003,-0.03590292,0.006151343,-0.038656093,-0.014530152,-0.03570042,-0.037406556,-0.013866899,-0.030597212,-0.04340215,-0.012169766,0.007333026,0.05423261,0.024383405,0.05376466,0.06803417,0.115606844,-0.01963532,0.13355035,-0.035939783,-0.024239084,-0.058892187,0.031711195,0.010280343,-0.013666875,-0.04625382,0.033956114,-0.032321844,0.03798806,0.053844664,-0.011759046,-0.057998978,-0.025784014,0.043550413,-0.017820105,0.015404607,0.08009569,-0.0099767735,0.023580248,-0.0325093,0.021687541,-0.018882476,-0.031954713,0.0015281817,0.048058797,0.012435685,0.001236273,0.03276438,0.013798717,-0.038301926,-0.08958008,0.00050412235,0.055023953,0.023234658,-0.0019293318,-0.05982116,-0.031421535,0.010510633,-0.03233654,-0.03122106,-0.020605054,-0.062183198,0.009044175,-0.03534171,0.021061094,0.026948404,0.021591594,0.041106112,0.05106601,-0.008354893,-0.08934401,-0.008067752,-0.05253946,-0.081198476,-0.008792889,-0.011983035,0.04503692,0.051453747,-0.0011479827,-0.06865939,0.025581181,0.012501058,0.018294603,0.034196224,-0.0118162315,-0.027332699,0.02008871,0.00764811,-0.22694515,0.021719124,-0.034576662,-0.07957116,0.05209955,0.026325053,0.00225468,-0.035763152,0.008984275,0.03150075,0.008558449,-0.027451662,0.007726672,-0.04178915,-0.0010916538,0.017067995,0.026796335,0.0023281265,0.037779484,-0.015293179,-0.08147749,0.028680248,0.037887603,0.05967005,0.0147430375,-0.0016288442,-0.07402542,-0.014889339,-0.11536527,0.050089236,-0.0103597045,0.019203091,-0.02153518,-0.050551236,0.021688813,0.010779316,0.071796566,-0.010369776,0.042222846,0.034464385,0.062375605,0.040623426,-0.02096725,0.03139362,0.014818502,0.024210934,0.054557327,-0.010475348,0.01374719,0.0041288594,0.016077163,0.00912128,-0.00041243236,0.0014369909,0.024987102,0.032741643,-0.021651559,-0.025201576,-0.06580981,-0.06763586,0.027022216,-0.010324274,-0.013985166,-0.022918353,0.04760698
RSME,-0.011778907,-0.088112235,-0.0072042015,-0.04703002,-0.029333228,-0.018669568,0.013391919,0.037838683,-0.016068915,0.0033479584,0.0076624756,-0.045237496,0.096355,0.012285976,0.028671082,-0.027215017,0.04379312,-0.042053454,0.07719759,0.06124246,0.090690665,0.005805464,-0.055313133,-0.102966696,-0.0018479179,-0.038308557,0.062200632,-0.05958376,-0.03660376,-0.047963597,0.11848788,-0.06293371,-0.010662539,0.033471312,-0.09095006,-0.0033949744,0.03289136,-0.042228363,0.06464195,0.029048566,-0.12195934,0.0332084,0.012436393,0.013459875,-0.04191108,-0.009218374,-0.026514726,-0.015750129,-0.030636877,-0.0023457676,0.015746266,0.016562518,-0.04568428,0.028370086,-0.0009917284,0.07647695,0.058868647,0.062383216,-0.043982293,0.02125186,0.1054971,-0.03286563,-0.06728236,0.011881025,0.0013582518,-0.014133484,0.038474645,-0.015525765,-0.00090367685,-0.058916643,-0.120344,-0.011515405,-0.022254473,0.06286266,0.047807112,-0.00322165,-0.07726674,0.053145617,0.017459208,-0.09446651,-0.03284064,0.080929324,-0.0019588792,0.10267597,0.0030543243,0.07581778,0.024936363,0.0024137578,0.014725869,0.029636392,0.03975123,-0.07712642,-0.014702444,0.02911397,0.055366267,-0.07620913,-0.07594611,0.038773622,0.06009508,0.33393708,-0.018027762,0.04980757,-0.05860551,-0.0039946036,-0.04454845,-0.07221559,-0.013586847,0.008095588,-0.05078173,0.007129725,-0.012129104,0.006262431,-0.0029290959,0.017433017,-0.006271649,0.000514538,0.0040723276,0.00163793,0.058162294,0.029557029,-0.016406387,0.05804685,-0.007907351,0.019913865,-0.006740732,-0.1392188,0.010087726,0.024902757,0.010262576,-0.011277958,0.015120544,-0.03675912,-0.053892575,-0.024608113,-0.016781606,0.033848777,0.003326238,-0.014272913,-0.008824727,-0.04775375,-0.018209128,0.045133457,0.037063595,-0.01737115,0.053247124,0.0052558105,0.019790517,-0.03364433,-0.052944142,0.040406246,0.010048158,-0.0375044,-0.038230773,0.026536593,0.03670882,0.005476097,0.03556118,0.0062350933,0.00311468,-0.0023898731,0.022608731,0.036009848,-0.0007702806,-0.0328591,-0.026414009,-0.07030111,-0.075850226,-0.008913294,0.06057382,0.10639421,-0.029934939,0.053890876,-0.047084097,0.06657211,0.003300306,-0.07589618,0.030273909,-0.04049661,-0.02442422,0.030998453,0.0641436,-0.028032027,-0.028779209,0.07066169,-0.0102080535,0.042141974,-0.030591732,-0.01010646,-0.060663827,-0.074681595,-0.023532147,-0.03620044,-0.056934133,0.038346115,0.03247631,-0.09247086,0.020265497,-0.030583965,0.002670052,-0.0043036803,-0.0008254295,-0.012476757,-0.04404765,-0.0050978377,0.050282232,0.018443573,-0.027040236,0.0074939593,-0.04852664,-0.045014042,0.0018609354,0.015420525,0.004273826,0.012904397,-0.019229688,-0.03825634,-0.09505047,-0.017037414,-0.042586397,0.03764906,-0.015009036,-0.016332526,-0.02762172,-0.11592993,-0.013739085,0.025312107,-0.108800136,0.042177934,-0.050875742,0.03784612,-0.06351243,0.030314723,-0.012773554,0.036538534,0.029122962,-0.024773004,0.012107277,0.014893198,-0.051333055,-0.014471854,-0.0035460396,0.013880961,-0.070625745,0.061241217,-0.0141137,0.112097524,0.06670604,0.06303813,0.043002255,0.10080836,-0.06789487,0.014105663,-0.0793517,-0.04727207,0.113430314,-0.04047982,-0.06887163,-0.03901611,-0.055732854,-0.006996946,0.048401788,7.261925e-05,-0.04387525,0.036217038,0.033910897,0.023546837,0.030206868,0.028687637,0.023140544,-0.013688155,-0.09500153,0.052953232,0.019875612,0.040789407,-0.0099567855,-0.0070865736,0.09001102,-0.049605913,0.01445995,0.032252215,-0.06609718,-0.022657169,-0.023543485,-0.05006674,0.055582426,-0.036831945,0.03454343,0.00022297089,-0.07386387,-0.02545622,0.034767695,0.049618915,0.020259764,-0.03784674,0.030310126,-0.0063655125,-0.031386297,0.0021354519,-0.059954297,-0.054123394,-0.07917167,-0.049742423,-0.006371528,0.02200123,-0.015168585,-0.010269695,-0.0022059644,0.04065155,0.028572118,-0.025709078,0.007249574,0.049941067,0.043146633,-0.0063902717,-0.083391644,-0.013568492,-0.020104313,0.018264528,-0.05007953,-0.122959964,0.0019206469,-0.051611826,-0.09765809,0.031958975,0.030931173,-0.011261457,-0.105772026,0.057973225,0.015848503,0.04780251,0.009731448,0.03800419,-0.08012838,0.012312013,0.031036673,0.0010443269,0.048433885,0.03693114,-0.03872412,-0.03540833,0.09529337,0.055167075,0.09987942,-0.001665877,0.01072608,0.028150516,0.005455659,-0.001074946,-0.0032902209,-0.05207404,-0.053280227,0.07568014,0.00448142,-0.0600094,-0.02234808,0.12928317,0.096653074,0.07292375,0.069496095,0.1492682,0.023478294,-0.052465357,0.084238954,0.050763953,-0.009207093,0.027070306,-0.021402823,-0.045315612,0.020526107,0.05154119,-0.06261725,-0.01819408,-0.007987559,0.089381784,-0.027210789,-0.075897284,-0.036570624,-0.015474507,-0.061969843,0.09806833,0.017854195,0.03057176,-0.022545604,0.0243207
SCM,-0.09548963,0.017620852,-0.11304619,0.0069296393,-0.053860247,-0.033997636,0.064306825,0.046568,-0.084187515,-0.008353877,-0.0012283485,-0.05011876,0.13180281,-3.5765017e-05,-0.081471905,0.014184495,0.09288558,-0.02644563,0.15733573,0.07665355,0.057904582,0.0013419007,-0.065883294,0.013577894,-0.014541924,0.008511982,-0.03519484,-0.05907714,-0.09653912,-0.015227126,-0.03529893,-0.03626159,0.04492535,0.016303727,0.018974816,-0.05595053,0.07121263,0.044054538,-0.013292679,0.02684739,-0.061643932,0.033449795,0.057492442,0.03401732,0.016142605,0.0012557047,-0.08142123,0.033572476,-0.05661681,0.010310388,-0.07991371,-0.012829911,-0.0020092675,0.03835385,-0.056705505,0.0610012,0.070635624,0.030896068,-0.061642885,-0.05938032,0.029385446,0.028309762,-0.02783996,-0.005037767,0.09648075,0.020442087,0.027801743,0.03335448,0.00016093557,0.05501077,-0.0615496,0.014165737,0.040145017,0.028750079,0.022151548,0.019769331,-0.014133236,0.0117878495,0.064531356,-0.023335582,0.043087848,0.0063068788,-0.032978933,0.017004509,0.049510833,0.04762338,-0.0074678003,-0.060436573,0.07331486,-0.031261787,0.046899773,-0.08312281,-0.062516294,-0.0058880476,0.03613655,-0.0635546,-0.04178716,-0.01922171,0.06042013,0.36154896,-0.007556328,-0.019787265,0.022261,-0.031905074,-0.038102366,-0.0651691,0.024121787,0.015785579,-0.057164982,0.0128086135,-0.010019078,0.026915843,-0.011225099,-0.06511441,0.02236625,0.053923123,0.046430357,0.024485108,0.07992417,0.032269314,-0.03486441,0.05222346,-0.0051162853,-0.057921667,-0.01026278,-0.04110077,-0.075335324,0.016529681,-0.013510497,-0.08380941,-0.037388742,0.053483095,-0.011196013,0.009856927,-0.040274203,0.064409606,0.024034701,0.05365988,0.016408017,-0.016408047,0.062937595,0.027668798,0.0019565364,0.013748912,0.035133146,0.077716105,-0.03975506,0.00058793643,-0.010281004,-0.020634266,-0.0071252454,-0.043835778,0.06343941,0.07398413,0.006589802,0.009109798,0.008172361,0.0060003097,-0.0211765,0.094455436,-0.08400937,0.012562525,-0.0058513656,-0.021859357,0.053823993,-0.051432826,-0.025937436,-0.031644993,0.06030487,0.018815769,0.022880083,-0.012112326,-0.013831124,-0.038477734,0.05285274,-0.054478988,0.030845337,-0.05110336,0.005377136,-0.05121936,0.02231769,-0.0029282738,-0.006420826,0.058291174,0.029368887,-0.0033515117,-0.048180476,-0.042146403,-0.087975636,-0.027415909,-0.08686086,0.010974126,0.04766917,0.008147886,-0.012886495,-0.080698445,0.005916849,-0.018172156,0.006527602,-0.023674566,-0.02355098,0.008125556,-0.05283478,-0.006479594,0.10388757,0.007055757,-0.030475311,0.006619589,-0.006089683,0.037847117,-0.02627794,-0.011793608,0.01756983,-0.034692604,0.017141353,-0.036726054,-0.028253559,-0.112938724,-0.037220266,-0.011284337,0.024446843,0.077053644,-0.086939566,-0.09862851,-0.05315224,0.022154996,-0.060924537,0.06684848,-0.041908897,-0.0028329035,-0.027732337,-0.01666851,0.020326843,-0.046241146,0.01617388,-0.049551602,-0.00998563,0.040723566,-0.05842062,-0.057103407,-0.04260026,-0.07787151,-0.049204186,0.048271414,0.05499691,-0.0035431243,0.048539467,0.044991195,0.017308168,0.019902961,-0.090394996,-0.03228719,-0.04104321,0.011135341,-0.028057892,-0.010886375,-0.019970993,0.052977737,-0.046838004,-0.038723387,0.08280358,-0.014120511,-0.015624352,-0.03670903,-0.007880974,0.05052085,0.03370239,0.042326976,0.051630963,-0.07257275,-0.019949274,-0.0169235,0.008023476,-0.0309681,-0.069263525,-0.02679435,0.019736,0.013471493,0.029014645,0.004453748,-0.09074165,-0.055575963,-0.026083646,-0.006784997,0.12399126,-0.06831441,-0.0013323936,0.10521778,-0.020293474,-0.03892485,0.029803565,0.05082081,-0.040562883,-0.030758142,0.02544643,-0.0027760442,0.025581563,0.041851964,-0.051469766,-0.13510124,-0.015073113,0.033857726,0.025747174,-0.011492903,-0.021690482,-0.013522473,5.4011332e-05,0.0539121,0.031967502,0.0020949773,0.048026513,0.0042379196,0.054629494,-0.07366132,-0.06742394,-0.028157117,-0.0005526649,0.022800323,-0.09982574,-0.08994707,0.023026556,-0.032932207,-0.012248852,0.05391108,0.05457225,-0.045164775,-0.098878264,-0.042809427,0.0714089,0.01649301,-0.027647126,-0.014523492,-0.03836646,-0.010020581,-0.0044932347,0.0030215099,-0.028599575,0.054038305,-0.041097242,-0.007850402,0.112084314,0.10888572,0.096795276,0.08553247,0.0018557414,0.018307153,0.013990076,-0.0013241904,0.025896866,-0.036783926,-0.04917163,0.0756904,-0.0108856885,-0.013025778,-0.0346791,0.071440764,0.061647866,0.013531533,0.028330246,0.060121633,-0.013663716,-0.03586143,0.09548175,0.06680728,-0.03413295,0.002684667,-0.07101673,-0.020991681,0.027491705,0.041729048,-0.060441505,0.023790428,-0.0073787514,0.01408999,0.038321976,-0.034276128,0.0692068,-0.018910898,-0.030987585,0.012257257,0.021138795,-0.017209513,-0.13009533,0.036426578
absorption,-0.009425443,-0.0035520769,0.021628326,-0.006236434,-0.021069326,-0.08539743,0.17748822,-0.0056191995,-0.0147700505,0.010854911,0.051730234,-0.079211526,0.010710551,-0.048301008,-0.004055879,0.041058995,0.016007379,0.027344583,-0.087987505,-0.02710169,0.057274044,-0.024180561,-0.07925924,0.005087924,-0.0230623,0.055519477,-0.09543687,-0.07907242,0.0027995724,-0.07161231,-0.03925669,-0.10600969,0.010662669,-0.024566915,0.051560137,0.0064896294,-0.046968326,-0.06063603,0.04175726,-0.015748685,0.0045593567,-0.036767714,-0.043221295,0.03867811,-0.016760321,-0.00067898625,-0.022860378,-0.017978994,0.001909609,-0.039465275,0.022848945,-0.0074487333,-0.035562746,-0.01098685,-0.081136234,0.01816457,0.011522698,-0.029075647,-0.08504057,-0.03059245,-0.047462404,0.040580705,-0.088666104,0.06725053,-0.008510217,0.038278095,0.048242304,-0.032803863,0.077491954,0.022398947,-0.029012812,0.013345974,0.011779028,-0.05725314,0.016621124,-0.022525616,0.03963872,0.035769694,-0.06674517,-0.003985669,0.014581973,0.021351675,0.046767633,0.010215006,0.0023747194,0.13866003,-0.04944513,0.07491458,-0.022086507,-0.005883446,-0.048627164,-0.053497255,-0.06465458,0.072270446,0.026337877,-0.02101705,-0.012441051,0.030906655,0.042481847,0.3504999,-0.022484811,0.017431987,-0.05197537,-0.012518396,-0.006852409,-0.037666596,-0.009908311,-0.036881056,0.032498784,-0.011148966,-0.030952958,-0.011525509,0.036031846,0.021029105,0.041021597,0.052932553,0.07699099,0.035875525,0.026959822,0.043252107,-0.037623268,-0.004958104,0.029735547,-0.0018899803,-0.0038207087,-0.11894962,0.040798064,4.428926e-06,-0.06572242,0.020955758,0.010932121,-0.04432566,-0.10036795,0.012993142,-0.00079765514,0.0007629804,0.022861538,-0.0031738074,0.00065473514,0.02157831,-0.034040246,0.03870764,0.042959597,-0.01953563,-0.016848916,0.038840577,0.08169361,-0.03817374,-0.01175159,-0.029244484,-0.0073676314,0.07493462,-0.019522049,-0.042781647,-0.055770196,-0.02376853,-0.051954105,-0.02180038,-0.017736696,0.0591767,-0.07187485,-0.025758771,0.004084305,-0.018519828,0.022347845,0.07552109,0.0039904453,-0.045441855,0.0074989055,0.043329563,0.073472105,-0.051132325,-0.0032988805,-0.11964626,-0.00020066483,-0.0060861376,-0.023053523,0.05540043,0.07911203,-0.06357276,0.023266887,0.009044829,-0.045724593,0.010093812,0.0025353571,0.01213005,0.04345758,0.054341268,0.041493937,0.0665203,-0.023528978,0.026696136,0.0087813595,0.0006717321,-0.0815669,-0.01772934,-0.037008896,-0.015873319,-0.08549042,-0.002049043,0.03399055,-0.015602138,-0.08532862,0.016622107,0.025186962,-0.021573564,0.06910694,-0.00010734044,0.012597527,-0.020099187,0.0023819318,-0.06099379,-0.08453462,-0.061301045,0.0072064837,-0.073830605,0.031175757,0.008100301,-0.024598356,0.039694216,-0.07271718,-0.02892695,0.12439096,-0.074509695,0.16756484,-0.028646931,-0.025445122,-0.014432836,-0.047884863,0.0028115262,-0.009958256,0.026045604,0.007641684,-0.023903893,-0.030584203,0.03829553,-0.066518396,0.04764368,-0.091172114,-0.10054905,0.08439121,-0.017698154,-0.046171054,0.05711174,-0.020184925,0.073986016,0.0825006,-0.021349842,-0.00012804392,0.07495196,0.0045022257,0.009302682,0.042042293,-0.011307273,-0.012284821,0.054629687,-0.0040182513,-0.054725282,-0.0057615507,-0.01090723,0.07592288,0.048528917,-0.07243251,-0.049170747,0.0016203722,0.054696716,0.044068016,0.057551417,0.0023959316,0.023259262,0.017687948,-0.018161485,-0.055643186,-0.034984894,0.054064624,-0.04230664,-0.027617041,0.017751632,0.03870408,0.08149508,0.008069572,-0.08174592,-0.0037766122,0.04309063,0.094489336,-0.0368455,-0.08717175,-0.035967126,0.029279243,-0.015054724,0.058559746,0.047632672,0.040174276,-0.009204447,0.0835618,0.016097458,0.056817856,-0.004506644,-0.05047658,0.042475075,-0.03511713,-0.12940043,-0.06325942,0.03664251,-0.11290864,-0.022419458,0.05079151,0.026672391,0.1005439,0.012274754,-0.11325958,-0.0586136,-0.050621457,-0.06564439,-0.007830881,-0.010625817,0.07864551,0.008049639,0.065846905,-0.13284126,0.0018487885,-0.03484238,-0.010896423,0.0017279857,0.012942545,0.009378752,0.003359605,-0.031202449,-0.026245307,-0.026072007,-0.041655775,0.033135366,-0.012892836,-0.031459395,-0.023145653,0.070866406,0.046013676,-0.012416061,-0.017406756,-0.044098534,0.009984837,0.031380627,0.046605118,-0.038575552,0.0043496015,0.028665226,0.02056839,-0.09471924,-0.019310085,0.00430374,0.031617872,0.010969068,-0.00064504705,0.046926122,0.009446932,0.039109204,0.028059164,0.053331297,-0.035995454,0.05540269,0.00015023495,-0.100518584,0.002798471,0.051912803,0.01045007,0.050429072,-0.017015388,0.06685862,0.058412332,0.10247953,0.04758964,-0.011929271,-0.056306727,0.0054920767,-0.017402472,-0.021578964,0.060491,0.03442766,0.015350514,0.018504841,0.04891914,0.038441237,-0.027708903,0.039153308
abstract,-0.044884104,0.026448697,-0.03933034,0.050480016,0.019127907,0.032896362,0.023774719,0.05143835,-0.012213137,0.019475957,0.03202574,-0.011733162,0.04948786,-0.011811472,0.07254046,0.013452114,-0.00014545035,0.09258251,-0.030139849,-0.0015136191,0.0926622,-0.019250473,0.015075081,-0.037210904,0.019781753,0.032811306,-0.026674883,-0.063768074,-0.0004996936,-0.10067319,0.059899043,0.011919158,0.1149279,0.04527625,-0.032665294,0.019541584,-0.04375462,0.03262079,-0.002231391,0.06699552,-0.024646165,0.029448796,-0.015126927,-0.0006844697,0.02328296,-0.08239303,-0.00755146,-0.041226372,-0.017739234,-0.031036906,-0.046964925,-0.023533763,-0.045581736,-0.03973218,-0.018674968,0.026782947,0.0024712384,-0.0582972,-0.0069477963,-0.048887484,-0.0005696438,-0.0005612051,-0.05174579,0.054810252,0.065005235,4.3224933e-05,0.030406548,0.046136286,0.02308062,0.017910784,-0.016802272,-0.0015178142,0.025808668,-0.020633634,0.07540829,-0.050216984,0.024687747,0.016701994,0.013210088,0.024872404,-0.025089497,-0.02608157,0.08188378,-0.016423607,-0.022325281,0.050498053,-0.0056343717,0.03955438,-0.05172147,-0.05815398,0.0259793,-0.044385046,-0.022217922,0.008617134,0.09986799,0.010345223,0.01575071,-0.081863925,0.098978385,0.41860116,-0.028260324,-0.021131663,-0.0069992878,-0.0052354094,-0.05281198,-0.054088254,0.04723246,-0.085094675,-0.022572134,-0.015100165,0.04821136,-0.044345193,0.013158015,-0.03968025,0.031971246,-0.05801174,0.06468631,-0.049987584,0.027390976,0.027432075,-0.0089582475,0.027249115,0.06884517,0.09540963,-0.0022022587,-0.12232147,-0.0018982958,0.0023990637,-0.041121226,0.036310334,0.04809172,-0.01718101,-0.060693942,0.018730264,0.029345252,0.028817905,-0.0023871704,-0.0061934483,0.01804864,0.10333183,-0.02545969,0.0774069,-0.059429314,-0.034377523,0.027532194,0.07548311,0.030144542,-0.031414412,0.001531186,0.07308518,0.01321985,-0.031377822,-0.009566299,-0.0054743877,0.041880984,-0.021211423,0.009990076,-0.0056600184,-0.000956388,0.03131778,-0.0114473915,0.053864364,0.057644233,0.04030125,-0.07748322,-0.017636424,-0.046421148,-0.028973393,-0.026989462,0.073539406,0.00057532033,-0.023819286,0.07577332,0.10270178,0.032431085,-0.0038289921,-0.01210367,-0.034516606,-0.004750005,0.026776262,-0.005574742,0.02020593,0.017584963,0.010089426,-0.0752306,0.009060831,-0.027314384,-0.018089764,-0.03622193,0.10201696,-0.106673524,-0.0037936699,-0.048182797,0.028525595,-0.030114865,-0.04227496,0.07049685,-0.010763913,-0.07765812,0.04487745,-0.056809843,0.077849306,0.00068974245,-0.013456934,0.046499576,-0.04361356,-0.0020834662,0.01869146,-0.04883807,0.031866863,0.006186094,-0.0679818,-0.061396252,-0.027781444,-0.045280803,0.050063677,-0.0796659,-0.03351967,-0.027289813,-0.03162128,-0.036816854,0.011628142,0.045876104,-0.09010469,0.046381388,-0.044067353,-0.11164856,-0.02974886,-0.032218948,-0.0052431985,-0.045410108,-0.05972491,0.032714367,-0.0083418,-0.05631757,-0.008849109,0.021102391,0.009941569,-0.016510343,-0.09174468,-0.03941442,-0.044091806,0.0027513043,0.04067429,-0.011700698,0.048054483,-0.0025999888,-0.014130946,0.012803465,0.12290149,-0.064929046,0.030941246,0.027413266,8.788876e-05,-0.01996293,0.007400612,-0.084240116,0.015375794,-0.039018705,0.0043240376,0.016075658,0.008978273,-0.035917416,-0.05665955,-0.0032092,0.05614726,-0.00420824,0.022535326,0.01674206,0.025213717,-0.06603097,0.012283095,-0.029255442,-0.09431711,-0.05261813,-0.029565165,0.039539736,-0.13999325,-0.003128225,0.0048476136,-0.05573763,-0.036077127,0.009745038,0.061410904,-0.017795548,0.049585342,0.04100273,0.08459529,-0.08166631,-0.06868757,-0.043926056,-0.0052800565,-0.1405553,0.019018572,0.061325062,0.11279479,-0.040880837,0.04081063,0.0025415958,0.09729055,0.047146615,-0.07800714,-0.06493781,-0.024340518,0.00061031955,-0.010445531,0.057668407,0.008184497,0.022296634,-0.040332768,-0.04769956,-0.021619087,-0.026767284,0.02916375,0.03647983,-0.02374544,-0.06759341,0.049722195,-0.015158253,-0.13936849,-0.010239163,0.002609173,-0.05236522,-0.053256586,-0.011050836,0.048936542,-0.0060350886,-0.030294036,-0.051984675,-0.036385596,-0.010905764,-0.00069414475,-0.029828602,0.019604104,-0.011980537,0.038276974,-0.016292328,-0.01208427,0.061973404,0.05207013,0.13524804,0.07652474,-0.11026313,-0.012683195,-0.007688139,-0.009986389,0.062681764,-0.038353547,0.07419637,0.029750265,0.03880831,0.06285593,-0.014133869,0.006809756,-0.013149256,0.00081841234,0.027830856,-0.013656396,-0.0578598,0.0622328,0.0017573796,-0.037389144,0.024705533,-0.047918413,0.11080641,0.0023435294,-0.017660223,-0.026779573,0.07419796,-0.010786251,-0.03930497,-0.016119251,-0.014118935,-0.02429814,0.020067973,-0.013142688,-0.004479984,-0.0040661283,-0.011327964,-0.019042892,-0.016125023,-0.00034130813,0.019101541,0.07033936
academia,0.06818722,0.033041414,-0.02954742,0.027052473,0.040704533,-0.010962934,-0.04329114,0.021455796,0.047908947,0.052229304,-0.028814085,0.0047807754,-0.028774977,0.0117900185,0.010927837,0.0047915583,-0.041095246,0.0045943377,0.060077045,-0.0035060055,0.038696256,-0.025121894,0.011998823,-0.042327113,-0.026235862,0.0067077144,0.01097528,-0.06965705,-0.013012667,-0.10734488,-0.0039946497,-0.06660291,0.13041496,0.04386518,-0.048202444,0.0934971,-0.009406327,0.056367733,0.008883522,0.043963347,0.003796688,-0.025970202,0.04585908,0.06214448,0.020903409,-0.05708369,0.010946153,-0.04247841,-0.035755526,-0.014545477,-0.032141574,-0.0557152,-0.034281135,-0.026265541,-0.03414134,0.048052955,0.10869489,0.07018556,-0.015856555,0.036145825,-0.0017128772,0.028801993,-0.1075409,0.050333563,0.018429067,-0.08957756,0.016809538,0.083136074,-0.053807054,0.03470398,0.003274824,-0.05758127,0.014704845,0.023334377,0.117021486,0.02375272,0.01224319,-0.0021358125,0.043812413,0.020085143,0.09579381,-0.014295106,0.03201315,-0.012504033,0.017185241,0.020642605,-0.06408301,0.048935145,0.045158826,-0.06840647,0.035043582,-0.07012737,-0.021835582,-0.029404482,0.090094626,0.03832174,0.021405889,-0.047123834,0.05301132,0.3875814,-0.07144557,0.0354423,0.017201556,0.0008758678,-0.074814044,-0.034403533,0.0088012125,-0.06890067,-0.0074448893,0.052558552,-0.00041126067,-0.039301768,-0.021763409,0.011537299,0.03667406,0.021382302,-0.019875664,-0.014261971,0.05557571,0.050609853,-0.03660097,0.01320156,0.06472831,-0.0930217,-0.025859043,-0.07319081,-0.019847903,0.09329851,-0.041015465,0.0054765106,-0.0023981156,-0.0041131857,-0.044329662,0.012242488,0.0037365493,0.018032165,0.0452325,-0.030544644,0.03731309,0.05785545,0.013787384,0.041003816,0.0021131437,0.06369242,-0.016729763,0.021765936,0.009040507,0.026355218,0.04107033,0.03581792,-4.9770664e-05,-0.027394567,-0.0169467,0.0061817025,-0.026775757,-0.0050607035,0.034377404,-0.005261107,0.07230769,0.01021508,-0.07843477,-0.0046670474,0.08716535,0.028115528,0.053329274,-0.035794385,0.06445154,-0.062178086,-0.02590457,0.0419763,0.08879326,-0.039373696,0.047622956,0.04057339,0.013507452,-0.04742636,0.0040261154,0.04921145,-0.035752457,-0.06570269,0.040395167,-0.014447679,0.014065886,0.0006754383,0.012563814,0.052059993,-0.0016194752,-0.03603878,0.0076724114,0.091391675,-0.058527663,0.04679038,-0.018555794,-0.08122178,-0.061076097,0.015993884,0.12160384,-0.12771718,-0.058885418,0.045504946,-0.086301275,-0.014484311,-0.065865174,0.017899254,-0.01349228,-0.024307938,0.028850956,0.036367502,0.06279634,0.011468007,-0.0014624046,-0.07371439,-0.015091403,-0.016542407,0.01774739,-0.00053481193,-0.0019059277,0.026421262,-0.051799156,-0.040188435,-0.03365654,0.058954976,0.0065735127,-0.08895246,0.044834707,-0.035949282,-0.083019584,0.062505685,0.029731696,0.044206634,0.023033101,0.018372322,0.0062065762,-0.04904941,-0.041352484,-0.015594103,0.05161104,0.02385543,-0.061001703,-0.044421554,-0.01978972,-0.0053696735,-0.08800533,0.06975961,0.03563467,0.0029429623,0.023233226,0.03525219,0.04406395,0.017063068,-0.039464362,-0.062324885,-0.06661921,-0.00037764545,0.020204343,0.04970467,-0.05675412,0.0056069153,-0.0073228856,0.006033902,0.032842837,-0.035165034,-0.032775525,0.012061907,0.044637714,-0.0049866256,-0.005286493,-0.014359397,0.060542487,0.021778386,-0.10296696,-0.0014929848,0.005031756,-0.05260045,-0.045664944,-0.029070212,0.016096003,-0.090489164,0.08090134,-0.003955859,-0.021480883,-0.005758125,-0.02553546,0.09261334,-0.0267683,0.002751342,-0.00013566655,-0.00026139637,-0.043940388,0.023794753,-0.023309154,0.04201528,-0.13310765,0.05135223,0.07646779,0.036274564,-0.03706375,0.022670405,-0.07178742,0.028777478,0.0037656007,-0.02602655,-0.095607094,-0.009612416,-0.003588834,-0.019864606,-0.018828245,0.008085799,-0.063282415,0.03073482,-0.02637015,-0.043279238,0.054628443,-0.077382095,-0.008707463,-0.056619074,-0.0022268086,-0.09700129,0.020694718,-0.12666577,-0.04032458,-0.019402914,0.0021653161,0.04911054,-0.054376826,-0.008149454,-0.056708697,-0.03189068,0.0032744429,-0.053738605,-0.06717774,-0.0333521,-0.068045065,0.018015401,0.05157892,0.032240793,0.0033439863,0.027491694,0.03846515,-0.013285506,0.086257674,0.01607314,-0.0051008095,0.016284233,-0.045795,0.012607054,0.006191616,-0.042737063,-0.0062025976,-0.0062289992,-0.08047235,0.021240242,-0.023014326,-0.1015315,0.009006224,0.028529285,0.045851167,-0.019642387,0.041312024,-0.0026855443,-0.07003965,-0.067779064,0.07259259,-0.004289244,0.055661935,0.05098266,-0.05751972,0.09563408,0.011277645,0.00012909844,-0.03598357,0.019331107,0.022111999,-0.14606476,0.03753098,0.039175127,0.03852016,-0.0217591,-0.11124342,0.014373796,0.08163976,-0.06233266,0.016314406,0.019774899
academic,0.06398236,0.046717513,-0.006192239,0.03374692,0.020186996,-0.06291532,-0.01752464,0.042539973,0.056351293,0.047637742,-0.01365165,0.0015859123,-0.042335887,-0.00096278964,-0.00066392106,0.00859492,-0.0385002,0.009900055,0.055842016,-0.008440914,0.030138437,-0.019032435,0.023387998,-0.05325766,-0.03801887,0.01753585,0.039030068,-0.058989577,0.0002787461,-0.10350397,0.006544762,-0.026859686,0.1147059,0.04537574,-0.052495122,0.09385868,0.009615283,0.037245803,0.036962446,0.031767257,0.028988544,-0.020345282,0.07357723,0.076210156,0.024044465,-0.04645749,0.011049568,-0.05622809,-0.026428932,-0.0267023,-0.015416806,-0.036117945,-0.053257857,-0.028582511,-0.038847707,0.038577124,0.10514694,0.03734729,-0.010120081,0.030563949,-0.0021083339,0.042867508,-0.10271165,0.03341936,0.0056639183,-0.10328198,0.02139042,0.02294896,-0.03512824,0.07023965,-0.0041903206,-0.01702428,0.04339587,0.023020165,0.12146968,-0.0019987489,0.025059564,0.016881367,0.049669314,-0.007447748,0.0976327,-0.055651758,0.05769991,-0.033741377,0.020722957,0.027947966,-0.06896941,0.06810802,0.024975054,-0.07701681,0.042518508,-0.05435853,-0.027061777,-0.04349523,0.09608966,0.031609163,0.022553472,-0.06740022,0.05462605,0.43194172,-0.082524545,0.023620402,0.0120148985,0.0013932864,-0.04562626,-0.0441121,0.0060255127,-0.0763325,-0.029055549,0.029516652,-0.0015684782,-0.041395184,-0.014476699,0.04489786,0.042446,-0.0011269646,0.0056309165,-0.025803512,0.07059004,0.06786882,-0.024038648,0.019870823,0.019548165,-0.09288148,-0.0012523932,-0.11536813,0.018805735,0.069428265,-0.0310552,0.011360791,-0.008198925,0.0042905747,-0.035548974,0.035608735,-0.0048610424,-0.01493742,0.04795556,-0.026105922,0.032775857,0.038106445,0.0038357568,0.092336565,-0.010973335,0.03773582,-0.020400219,0.008952084,-0.000394694,0.020189388,0.06566387,0.009553608,0.03998142,-0.026270194,-0.021111356,-0.023251921,-0.017132992,-0.012239084,0.015612328,-0.04250173,0.072130136,0.017730244,-0.08857548,0.0062918477,0.08347085,0.029575579,0.059518453,-0.023196697,0.056752283,-0.059150957,-0.0005892762,0.042656716,0.09348047,-0.024878573,0.030087395,0.07703486,-0.017560994,-0.014189133,-0.010817738,0.033629946,-0.047298048,-0.0644492,-0.008288891,-0.046559308,-0.01309712,0.0114398915,0.014483409,0.016040498,-0.021754453,-0.050140798,0.023243645,0.11566892,-0.06001423,0.016456487,0.00028088808,-0.09495261,-0.06061619,0.014922212,0.122238815,-0.13116765,-0.056598406,0.018288363,-0.01735627,-0.0406281,-0.06333276,0.0021347946,0.0011376555,-0.038150437,0.06244984,0.02546291,0.08237046,-0.014571084,0.008490395,-0.1043353,-0.023151793,-0.010478811,-0.006037111,0.008297197,0.005760621,0.009654121,-0.027585281,-0.032657016,-0.047517262,0.023605961,-0.0074799326,-0.08859899,0.021609996,-0.020108148,-0.088611245,0.085655905,0.025278118,0.041292153,0.020498447,-0.006589114,0.03920665,-0.060569655,-0.038439807,-0.015786694,0.0259805,0.037129734,-0.059442364,-0.036261443,-0.065996096,-0.009048469,-0.07019067,0.036290687,-0.0038515634,-0.0030726485,0.0041664136,0.06364502,0.022829307,0.023003872,-0.0547624,-0.048943195,-0.07445967,-0.012162371,0.010518116,0.03938232,-0.02533623,-0.028599925,-0.005316738,0.025663221,0.054349765,-0.029818479,-0.04793449,0.008641427,0.043157477,-0.012899445,0.003283972,-0.021261064,0.0850196,0.035855528,-0.076767415,-0.0012292145,-0.042522922,-0.03128486,-0.015581353,-0.0035946448,-0.017993897,-0.08031842,0.069102526,0.0015843714,0.0046596727,-0.007668132,-0.035938647,0.07545357,-0.0150159355,0.007352795,0.013159998,0.023150673,-0.045501966,0.033342477,-0.023807121,0.012239945,-0.08012834,0.038585477,0.023267178,0.050312143,-0.030364571,-0.0037011574,-0.039807744,0.01965415,-0.008753878,-0.036225773,-0.07621286,0.018524285,0.011292478,-0.024152117,-0.03145266,0.012799026,-0.0619219,0.008902457,-0.02694202,-0.036349017,0.05919893,-0.05754997,-0.008235337,-0.022292033,-0.050306182,-0.09017274,0.0065470147,-0.14289077,-0.029021332,-0.043313093,-0.017428488,0.077171266,-0.025140923,-0.01666898,-0.03862856,-0.030211043,0.017794564,-0.045845937,-0.057994008,-0.023835223,-0.06425423,0.024985297,0.04422479,0.053576227,0.019152526,0.021441767,0.03787971,0.018827686,0.06633341,0.018991573,-0.014713583,0.014849652,-0.017555436,0.033604693,0.018004771,-0.03267926,-0.031236155,0.022971978,-0.06760342,0.0035990998,-0.0522468,-0.08791842,0.015635498,0.02205772,0.059294827,0.0014500672,0.062185094,0.010460502,-0.054896895,-0.048479274,0.055533126,0.0120519,0.059872635,0.033750292,-0.07697544,0.07655242,0.008177677,-0.0010156882,-0.028091144,0.026881615,-0.005955758,-0.11695816,0.042606078,0.038848095,0.028101599,-0.005484394,-0.1325483,0.002616176,0.07011589,-0.0139167765,0.0027317712,-0.003940373
academy,0.064656734,0.0071124723,-0.030736007,0.003591044,-0.00030551493,0.011701085,-0.052084476,-0.008744419,0.0006826747,0.05564065,0.024682784,0.012061363,0.025766334,0.022620039,-0.008491352,0.011942535,-0.03484992,0.04610066,0.058261055,-0.006172938,0.04966459,-0.023347404,0.04243753,0.007167936,-0.022047184,-0.01792076,-0.005361051,-0.04116784,0.0036367355,-0.108462945,-0.0048491736,-0.09479559,0.1579048,0.03437454,-0.06407663,0.058164902,0.030869793,0.04285662,-0.0038681505,0.016162377,-0.03367557,-0.038291536,0.012240051,0.04153786,0.025369892,0.0023536962,-0.026507549,-0.055951744,0.010681922,-0.04517202,-0.011718322,-0.05848539,0.0023842459,-0.0318214,-0.057735257,0.08879876,0.10222261,0.034333434,-0.028947584,0.05166875,-0.08757046,0.048878387,-0.077532075,0.06446412,-0.021528209,-0.02096288,0.021528438,0.09311998,0.0034430788,-0.07177621,0.028964829,-0.055082627,0.032572966,0.0494911,0.05219287,0.023461083,-0.05012156,0.012525655,0.05811051,0.010192957,0.044739824,-0.02256088,0.04200915,-0.0075913677,0.04213125,0.009940702,-0.03070042,0.013568545,0.023504285,-0.05873583,0.05959787,-0.057161354,-0.01169234,-0.03017589,0.092664495,-0.0073403297,-0.018066386,-0.09151847,-0.025504606,0.3614747,-0.058579143,0.017370457,0.0011383691,0.020762088,-0.06978204,-0.02520772,0.046141993,-0.08267995,0.033426255,-0.001137342,0.023789719,-0.06434296,0.005168809,0.019342536,0.019793738,0.029892543,0.027041206,0.0031621126,0.03878987,0.027952433,-0.0105917435,-0.024560926,0.050340146,-0.08205492,0.0037412161,-0.07752376,-0.0152146,0.067394085,-0.026642146,0.0057125604,-0.013418137,0.034011547,-0.044008527,-0.008958579,0.034498483,0.001754491,0.037691724,-0.0035000208,0.026776848,0.023419173,-0.010602278,0.046549965,0.03935787,0.04949561,-0.051743757,-0.016854547,0.009967291,0.054190315,0.036491442,0.063981794,-0.04310535,-0.030823004,-0.018315671,0.045785442,-0.03300256,0.046779398,0.025160572,0.03432485,0.13390541,-0.014249502,-0.102691814,0.04792924,0.093740545,0.0060729478,0.055086266,-0.017268706,0.018350562,-0.07041481,-0.032597873,0.0251846,0.09279245,-0.001824419,0.06620786,0.02890368,0.052841216,-0.039769437,0.023281248,0.044097383,-0.012043803,0.00096547126,0.015533853,-0.051491465,0.017014738,-0.007171854,0.033502705,0.1008092,0.024296079,-0.06958864,0.025015006,0.052812472,-0.04170471,0.05935838,-0.06424294,-0.09602544,-0.0825311,-0.016729774,0.11269837,-0.122410275,-0.0110572055,-0.001709887,-0.09628708,-0.0009813013,-0.057321355,-0.029075526,-0.02809036,-0.03555379,0.020686496,-0.01677213,0.056936324,0.0024406982,-0.031600945,-0.010481318,0.03164923,-0.044269167,0.03457534,0.04844049,-0.0025457111,0.012341327,-0.008580445,-0.004365546,-0.046018966,0.0671269,0.060067005,-0.081834294,0.08759193,-0.03615705,-0.08200192,0.0016588564,-0.01151144,0.006008791,0.025546212,0.045809243,0.03789491,-0.019714711,-0.06853299,0.006507596,0.041702334,0.048514247,-0.024443423,-0.048040118,0.0027119946,0.02732039,-0.03802319,0.047639456,0.063190676,0.03229041,0.016897036,0.028503517,0.04478047,0.008903599,-0.056374192,0.012046351,-0.0209765,-0.057796106,0.025509782,-0.046871312,-0.00056705164,0.038858403,-0.04327304,-0.048199363,0.07788482,-0.028020458,-0.033042513,0.011976015,0.01493172,-0.031865437,-0.043773904,0.009118848,-0.018434193,0.052461345,-0.046428632,0.031970035,-0.01615325,-0.0017950266,-0.109119795,-0.04896291,0.018299254,-0.08547942,0.08272927,0.01604177,-0.015228579,0.009370605,-0.028306358,0.06546,0.022878751,0.021872051,-0.042749994,-0.037161894,-0.040794544,0.049398035,0.008541019,0.0365026,-0.13523486,0.029075844,0.09875994,0.048751682,-0.04786558,-0.0075008045,-0.08855213,0.043942932,0.048503768,0.043516427,-0.04940446,-0.107062675,-0.011353632,-0.04937186,-0.027745117,-0.049634155,-0.0742315,0.027013699,-0.011311665,-0.04259837,0.017601496,-0.06317079,-0.011953051,-0.044301815,0.030789997,-0.14126098,0.03257752,-0.10982917,-0.020119788,-0.0010095838,-0.011341374,0.039729375,-0.020273322,-0.013777985,-0.06287319,0.018153705,0.033175915,-0.056840844,-0.044789486,-1.2902043e-05,-0.045874353,-0.008074746,0.027627459,0.010092463,-0.037693508,0.046065506,0.04288986,0.00168576,0.0816728,-0.015516344,0.0005626871,0.016005442,-0.07665771,-0.015798004,-0.0048806863,-0.06300894,0.010248696,0.02138277,-0.038302336,-0.02438723,0.02208322,-0.09475454,-0.038179185,0.069440566,0.0010939501,-0.049327426,0.07279077,-0.04999915,-0.042388238,-0.10252987,0.024649791,-0.033311978,0.066323325,0.06468565,-0.0572406,0.06929268,-0.0071050623,0.021578725,-0.051969346,0.02744261,0.023263391,-0.1260153,0.045506217,0.0025672528,0.017445302,-0.02174261,-0.045546934,0.03776371,0.08582371,-0.054499727,-0.012407515,0.027982729
accelerators,0.036094923,0.003859956,-0.050971046,0.041447487,-0.000499546,-0.04264045,-0.024497041,0.0032307862,0.0049486076,-0.111481085,0.023277782,-0.032561395,-0.012524183,-0.07527574,-0.049094062,0.013915081,0.023936724,0.015300575,0.026460962,-0.076928996,0.009830333,-0.11743602,-0.017460756,0.024793899,-0.049196005,0.054068495,-0.056127474,-0.017278958,0.0025740594,-0.07730143,-0.036780838,-0.09920501,0.07307714,0.005233514,0.046695393,0.0024359769,0.005047833,-0.030555973,-0.09483851,-0.020855011,0.009410359,-0.02490719,-0.022791643,0.109208316,0.06504549,-0.017860247,0.026123805,-0.053246703,-0.045700796,-0.059024297,-0.045382917,-0.025568267,0.030801512,-0.0734732,0.046165064,-0.0664932,0.081363305,-0.0077916267,0.031027483,-0.052704357,0.01192785,-0.0200066,-0.09616408,-0.032236375,0.024901338,-0.048526753,0.052542157,0.06360711,0.027277313,0.069336765,-0.009574579,-0.03733254,-0.032597903,-0.03414957,-0.021590758,0.082048304,0.0155590335,0.034366395,-0.045480464,0.011948821,0.09266446,-0.04040602,-0.058454562,-0.13909301,0.023847843,0.034673195,0.022170354,0.029597472,0.061229527,-0.071638994,-0.031629052,-0.08346634,-0.030141776,0.054185443,0.122112036,-0.023602294,0.03980702,-0.027662149,0.04633178,0.3134348,0.04466326,0.017880054,-0.05785891,0.039098326,-0.059491567,0.042578094,-0.029424535,0.044961136,0.0103747975,-0.08034994,0.018300965,0.022593576,0.044108942,-0.036378007,0.06446007,0.010020768,-0.06335023,0.014985272,0.039277975,0.045312352,-0.08102105,-0.020148281,0.08796541,-0.010018355,0.07423557,-0.16255796,0.010732211,0.0378035,-0.01185185,-0.00119964,-0.016889097,-0.008256958,0.024894802,-0.0131848855,0.016055668,0.059962314,0.033396725,0.061351184,0.011993738,0.016610246,-0.07170974,0.053975385,0.011231551,-0.011727612,0.03877972,0.05832303,-0.017485006,0.010022718,0.05084705,-0.03604869,-0.055039864,0.011578073,0.10186052,0.045884423,-0.010453797,0.05512163,-0.054527026,-0.0044695837,-0.012820296,0.009250513,-0.067666255,0.028920311,0.002658198,0.028524965,0.012994763,-0.016216483,-0.009745681,0.018601138,0.02135595,0.052584425,0.008293696,-0.09086978,0.02956873,-0.06972651,0.002309191,0.010376472,0.059438486,-0.040244322,0.023047876,0.030674053,0.023262769,0.009325914,0.14677487,-0.0007270303,0.014125827,0.046305697,0.05574136,0.030765854,0.0203835,-0.0039230105,-0.04341615,0.014467078,0.00093886745,0.020593235,-0.065121256,-0.009636605,0.012753854,0.038081247,-0.05549081,-0.014144512,-0.023136146,-0.032255985,-0.021207701,0.029671714,-0.06797322,0.05263397,-0.025620142,-0.020722648,-0.03017879,0.04237894,-0.014110315,-0.068102635,0.062629186,-0.028670017,-0.039647635,0.025448022,-0.05526429,-0.04890684,-0.054165576,-0.043908533,0.06497488,0.09015227,0.0057887533,-0.08546177,0.021900836,-0.03815318,-0.014150235,0.010271618,-0.0038656543,0.021281645,0.0238959,-0.047459353,-0.0018093956,-0.00072691595,-0.00523232,0.0008931098,-0.04142548,0.02770137,-0.015129091,-0.051004972,0.03674428,-0.032644194,-0.0015856405,0.028125966,0.116627336,-0.012167087,0.031265832,-0.057890706,0.06463994,0.049895607,0.030617805,-0.047823455,-0.020779066,0.0073527284,-0.02321391,0.038214874,0.0027239062,0.09311587,0.0031488806,0.0006284562,0.05983802,0.03434375,-0.017305318,-0.026038205,-0.01623828,0.0887987,-0.016600134,0.08808475,-0.06625734,-0.012209482,-0.014479048,-0.03368407,-0.05884667,0.027577337,0.014072259,-0.113092214,-0.049931917,0.03548961,-0.006605248,0.05001907,0.0030799601,0.04333211,-0.03892908,0.06581229,0.065225534,-0.024274819,0.019039316,0.014867361,-0.029160224,0.0032136792,-0.012865067,0.09400147,-0.10943189,0.00071566977,0.06345275,0.07208057,0.026297227,0.07667869,-0.082628794,-0.007892085,0.023267863,0.0025919618,0.016321257,-0.020065775,-0.07547985,-0.039224397,0.0316452,0.029369975,0.026977848,0.06446115,-0.030077688,0.026773268,0.051812258,-0.10719205,0.06758174,-0.042123474,0.06289347,-0.032747887,-0.028676415,-0.10583293,-0.030774323,-0.000930664,-0.10461947,-0.005040071,0.017300801,-0.024837077,-0.1155764,0.0011619396,0.025449743,-0.049578954,0.058868118,-0.056431692,-0.0012301427,-0.0002394141,0.0060544685,0.04752138,0.010136647,0.029716648,0.02955126,-0.0356236,0.025738016,0.038877636,0.04803169,0.0030013258,-0.016261695,-0.03853523,0.029336702,-0.057494916,0.05720954,0.015801681,-0.09628984,-0.0345334,0.002580721,-0.0029110059,0.043416023,0.08320727,0.062456664,0.08052577,0.015768774,-0.022954984,-0.022454895,-0.007090475,-0.035239846,-0.035933487,0.026368845,0.048278388,-0.14291775,-0.050175395,-0.03691045,0.032248218,0.016389199,0.077855796,-0.05373482,-0.04998735,0.09017455,0.005838625,-0.09136308,-0.07165985,-0.0055159554,-0.026255518,0.044413563,-0.01317134,0.019655077,0.00843142
access,-0.025266476,-0.025066983,-0.091348626,0.012031329,-0.011667964,-0.04501492,0.036473267,0.0243317,0.03755495,0.011928642,-0.027193336,0.005678936,0.10478908,-0.05569824,0.033413973,0.066947065,0.017144987,0.011647884,0.014472767,-0.030413583,0.051874623,-0.08646737,-0.028321536,-0.10610162,-0.08993669,0.010664727,-0.08845917,-0.022834346,0.010569803,-0.027964836,0.007682734,-0.05350801,-0.034648765,0.0010054762,0.015801346,-0.030486722,0.008054318,-0.07746284,0.02041802,0.006255484,0.028494332,0.01635838,-0.043477576,0.053714648,-0.07443522,0.034331176,-0.000971535,0.009454224,0.052893817,0.022862727,0.008372289,0.06902637,0.0007649862,0.020010602,-0.032269936,0.07812023,0.003528065,0.010539188,-0.037646554,-0.039687824,-0.012561169,0.015337434,-0.052677378,0.018037096,-0.07041591,0.051385097,-0.02329064,-0.034129094,-0.008972961,-0.08719249,-0.062076498,0.009248976,-0.00048083937,-0.014727676,0.014199477,-0.02124358,-0.049486768,0.032320935,0.0073894802,-0.004837198,0.01618015,0.09899481,-0.0060878126,0.053787652,0.00033421587,0.032014646,-0.0651264,-0.016715659,-0.0043010437,-0.023329655,-0.06330231,-0.025749618,0.040598556,-0.0062326966,0.10419146,-0.074674375,0.01626567,-0.0060693086,-0.040211238,0.36133522,-0.046480205,0.030100817,0.0051719686,-0.006201609,0.019200796,0.020360801,0.09218834,0.016728614,-0.02266278,0.020000434,-0.0007175043,-0.0046945238,-0.026138227,-0.017690243,0.03455872,-0.029531479,-0.079887465,0.0071961926,-0.008021927,0.041972287,0.014653785,-0.008869072,0.029077196,-0.049021084,-0.017477803,-0.14141813,0.07148662,0.07075276,-0.09662267,0.018997293,-0.038615372,-0.010273306,-0.086319745,-0.00060271716,0.024208698,-0.02989809,-0.084212914,-0.04035121,-0.03485548,0.06050966,-0.005628336,-0.0047388533,0.07902505,0.027195694,0.008729793,0.04536151,0.04165768,0.017441256,-0.015879441,-0.05143405,0.118892185,0.0034290769,0.097907476,-0.076474026,-0.0381521,-0.050992753,0.053487077,-0.033619802,0.0324398,-0.004520464,-0.0075184843,-0.08203168,-0.010203317,0.025591465,0.023271538,-0.02669293,-0.053783767,-0.071813256,-0.020968737,-0.034461837,0.03206166,-0.034975972,-0.03265902,-0.07248567,-0.03461993,-0.031289347,0.026046777,0.055448044,-0.051468626,-0.07008251,-0.10371249,-0.058890343,-0.07952301,0.03681134,-0.004463338,0.0266229,0.01942932,0.05516972,0.00842812,-0.015784755,-0.034714054,-0.03243477,0.032083083,-0.0508563,0.022986516,-0.06240123,0.021094332,-0.028803118,0.0031790824,-0.03466041,-0.013573336,0.08299198,-0.05288787,0.007839982,0.038328573,0.03292861,0.016940484,0.039145727,0.05036896,-0.073220804,0.04009759,0.07937724,-0.062650174,-0.05033619,0.0052831983,-0.054198455,-0.0060816705,0.01550701,0.035125263,0.047967516,-0.028574992,0.012817291,0.032000635,-0.04480596,0.045103285,-0.025637228,-0.009473062,0.006597652,-0.033325844,0.06422485,0.016139057,-0.04800592,-0.01887789,-0.0033171938,-0.004624213,0.085516356,0.020374352,-0.015681338,-0.03609626,-0.035829775,0.02766748,-0.0391269,-0.08755309,0.05235462,-0.073864326,0.017653197,-0.012056173,-0.02543915,0.05222935,0.05808817,-0.04343248,0.0020458305,-0.007832496,0.033582572,0.0015357535,0.006339281,-0.030057414,-0.0036116699,-0.063550465,0.0033902184,0.09589829,0.060137037,0.027412655,0.04359427,0.10072622,0.035856087,0.0037691616,0.026699618,-0.07139242,0.049575724,-0.014671282,0.00073497795,0.017626667,0.0048670997,0.108296245,-0.044669665,0.03621809,-0.054771997,0.06312029,0.085942216,0.01869314,-0.058910478,0.07466525,-0.107195824,0.107213564,0.027619254,-0.10108995,0.03464003,-0.10451809,-0.037525903,0.03121401,-0.013390397,-0.0059210924,-0.028868273,-0.017657066,-0.089530945,0.09022136,-0.0052771964,-0.01659187,0.02171593,0.021653304,-0.050637983,-0.043918874,-0.020674625,0.01083018,0.011397304,-0.07921518,-0.001912757,0.05288676,-0.029425299,0.010502884,-0.0682446,-0.011412445,-0.11015727,-0.055066984,-0.0046612844,-0.04112898,0.02591391,-0.008716561,-0.11651354,0.010063959,0.005554629,-0.007362764,0.031396747,0.03753892,0.023508271,-0.039144047,0.05751537,-0.019221365,0.051625054,-0.039628044,1.1376715e-05,-0.035888787,-0.05064928,-0.018219398,0.06733798,0.10203044,-0.06766927,0.066852175,-0.027287224,0.06505515,-0.0004130174,0.010832286,0.02833131,-0.012382508,0.0067708595,0.05703483,-0.01809399,0.090024084,0.03453042,0.010479823,0.030185627,-0.0027584464,0.050304737,-0.11046597,0.095874466,-0.008202884,-0.01698434,-0.04280233,0.041624654,0.10724942,0.011273495,0.054925364,-0.003942774,-0.048679717,0.07444469,0.02681163,0.029365515,0.088249415,0.049402848,-0.0504993,-0.036469568,0.05265829,0.039927907,0.000983331,-0.0027674984,0.056470014,-0.049986135,0.0207228,0.0898608,-0.04950327,0.058437217,-0.04869089,0.045906033
accessible,0.06462743,-0.06118576,-0.04390756,0.042942837,0.0334144,0.014018826,-0.026856884,-0.020389648,-0.038091693,0.06462958,-0.0010107718,0.023592604,0.09024312,-0.027285727,0.0800541,-0.014657542,0.08549838,0.045217764,0.0665583,-0.03284466,0.056912847,-0.059328273,-0.04749396,-0.07960866,-0.024857583,0.017785262,-0.021516375,0.061094802,0.0032382105,-0.12655143,0.0022555343,-0.068608195,0.0026741533,0.042152744,0.009258193,-0.012392193,0.020733861,-0.042155676,-0.045308433,-0.02718049,-0.017769912,0.028906925,-0.042591102,0.022595337,0.0123462165,0.008287301,-0.011611952,-0.01876689,0.048508998,0.021594739,0.01328275,0.036677536,-0.0062036426,0.004392863,-0.028482977,0.10973939,-0.035541207,0.020030888,-0.06402576,0.039178368,-0.007283577,-0.04387659,-0.12424014,0.054663457,-0.037630033,0.09503716,-0.014882432,-0.025864081,0.013015263,-0.09757613,-0.035349544,-0.015541768,-0.05458156,-0.02811922,0.027464563,-0.061029054,-0.012124165,0.030832127,0.017680923,0.035423934,-0.027322033,0.080220744,-0.02527929,0.052027695,-0.041646227,-0.017598834,-0.04103673,0.06140919,-0.043867648,-0.07155466,-0.028580504,-0.0029793666,0.02437958,0.002076525,0.04280574,-0.072279684,0.0130085405,-0.0864938,0.03815975,0.37623906,-0.0244488,0.0077857766,0.03941837,0.02165594,-0.009131776,0.041018784,0.09195087,-0.008327037,-0.013722049,-0.0026411293,-0.0019652112,-0.018379746,0.03661391,0.036065973,-0.0059711384,0.019616758,-0.09225646,-0.009131826,0.05447943,0.02175347,-0.036758322,0.0023202503,0.0951496,-0.048753794,0.08120081,-0.1686433,0.08411761,0.086910196,-0.08051402,0.030145774,-0.00093529554,0.009557435,-0.005220304,-0.0037232859,0.012335486,-0.025741426,-0.04641299,-0.046099596,-0.015221688,0.110518895,0.012673512,0.053442452,0.104284234,-0.0042268075,0.10064556,0.03727505,0.03249054,0.013678219,-0.025906902,-0.05745237,0.040290292,-0.030851334,0.09407529,0.0232154,-0.006539817,-0.00028112126,0.08252627,-0.048774622,0.01332955,-0.0023471378,-0.025060488,2.9138022e-05,0.012188258,-0.006649278,-0.067891866,0.00967646,-0.06251752,-0.04683482,-6.010838e-05,-0.016141547,0.0030303318,-0.049317174,-0.040322565,0.019605527,0.024691492,-0.021245407,0.029774444,0.044791713,-0.092227966,0.002254904,-0.11205872,-0.09241369,-0.060858026,0.003802909,-0.041797794,0.0726921,-0.0032170769,0.010365316,0.058428783,0.064267874,-0.028526763,-0.05405257,0.05609694,-0.013322208,-0.017005257,-0.033470992,0.08259328,-0.06089074,-0.02064315,-0.011617864,-0.022631086,0.059220936,-0.009870975,-0.0143797025,0.02133036,0.0053139715,0.027174754,0.0141386585,-0.039416034,0.004679316,0.03637762,0.066075325,0.009537626,0.0020748568,-0.013045515,-0.032249622,-0.037974767,0.021897199,-0.06329072,0.023299046,-0.017152699,-0.0072279517,0.051974975,-0.124701835,0.04408887,-0.074182406,-0.030902874,-0.002226895,-0.009439069,0.005431821,0.029049821,-0.023484917,0.0046891375,0.009976482,-0.0999514,0.06353731,0.09649135,0.013871508,-0.072642066,0.026744623,-0.04931024,-0.010426409,-0.016796399,0.060929902,-0.007293069,-0.04619049,-0.010395726,-0.032787077,0.05679739,0.08598845,-0.067505874,-0.008871984,-0.08805061,0.04711309,0.0060469364,-0.021117354,-0.0753891,-0.03683965,-0.04880899,-0.012744618,0.047602568,0.046230458,-0.025494514,0.07856899,0.03950722,0.015828243,-0.056127425,0.032901246,-0.023054786,0.041500505,-0.022113761,-0.057522994,-0.046627358,0.0034310275,0.07254187,-0.026056757,0.048026722,-0.053003553,0.08064324,0.057935078,0.010193462,-0.02421321,0.047526263,-0.035158258,0.032963738,-0.05713687,-0.058118284,0.06223462,-0.034769468,0.017183328,0.005030327,0.04625578,-0.026212117,-0.030562693,-0.025063558,-0.055903994,0.065108925,0.018402645,0.01998487,0.09461872,0.060227495,-0.03257621,-0.068160914,-0.066152595,0.03114033,0.0004475822,-0.019184554,-0.053325642,0.10040936,-0.034652345,-0.036724485,-0.05137137,-0.040197793,-0.026857983,-0.022489067,0.03029581,-0.041220102,0.050056614,-0.041647486,-0.18865298,-0.05367095,0.018152947,-0.08030893,-0.02405426,-0.0047788345,0.009938838,0.01670199,-0.047410667,-0.048170365,-0.024111412,-0.044752575,-0.040780768,-0.047854863,0.0021959336,0.00028780778,0.06845493,0.02932456,0.009988788,0.01748025,0.006835369,0.06627476,0.036334537,0.007830399,0.02398667,-0.028520815,0.006996971,0.04322842,-0.018944385,0.08993857,0.025203893,0.011641912,-0.00015956005,-0.010273048,0.0006674409,-0.010372301,0.042851076,-0.020515969,0.013171507,-0.07573335,0.03942743,0.075464755,-0.012307915,0.020921022,-0.029989816,0.0043806545,0.0275552,0.011497694,-0.03247823,0.032992166,0.060935665,-0.0122922305,-0.024567116,0.023248611,0.02383402,0.015166901,-0.002163224,0.0112865,-0.039341483,0.0062944843,0.10544941,-0.02004335,0.046532232,-0.050102517,0.022895925
