"","X0","X1","X2","X3","X4","X5","X6","X7","X8","X9","X10","X11","X12","X13","X14","X15","X16","X17","X18","X19","X20","X21","X22","X23","X24","X25","X26","X27","X28","X29","X30","X31","X32","X33","X34","X35","X36","X37","X38","X39","X40","X41","X42","X43","X44","X45","X46","X47","X48","X49","X50","X51","X52","X53","X54","X55","X56","X57","X58","X59","X60","X61","X62","X63","X64","X65","X66","X67","X68","X69","X70","X71","X72","X73","X74","X75","X76","X77","X78","X79","X80","X81","X82","X83","X84","X85","X86","X87","X88","X89","X90","X91","X92","X93","X94","X95","X96","X97","X98","X99","X100","X101","X102","X103","X104","X105","X106","X107","X108","X109","X110","X111","X112","X113","X114","X115","X116","X117","X118","X119","X120","X121","X122","X123","X124","X125","X126","X127","X128","X129","X130","X131","X132","X133","X134","X135","X136","X137","X138","X139","X140","X141","X142","X143","X144","X145","X146","X147","X148","X149","X150","X151","X152","X153","X154","X155","X156","X157","X158","X159","X160","X161","X162","X163","X164","X165","X166","X167","X168","X169","X170","X171","X172","X173","X174","X175","X176","X177","X178","X179","X180","X181","X182","X183","X184","X185","X186","X187","X188","X189","X190","X191","X192","X193","X194","X195","X196","X197","X198","X199","X200","X201","X202","X203","X204","X205","X206","X207","X208","X209","X210","X211","X212","X213","X214","X215","X216","X217","X218","X219","X220","X221","X222","X223","X224","X225","X226","X227","X228","X229","X230","X231","X232","X233","X234","X235","X236","X237","X238","X239","X240","X241","X242","X243","X244","X245","X246","X247","X248","X249","X250","X251","X252","X253","X254","X255","X256","X257","X258","X259","X260","X261","X262","X263","X264","X265","X266","X267","X268","X269","X270","X271","X272","X273","X274","X275","X276","X277","X278","X279","X280","X281","X282","X283","X284","X285","X286","X287","X288","X289","X290","X291","X292","X293","X294","X295","X296","X297","X298","X299","X300","X301","X302","X303","X304","X305","X306","X307","X308","X309","X310","X311","X312","X313","X314","X315","X316","X317","X318","X319","X320","X321","X322","X323","X324","X325","X326","X327","X328","X329","X330","X331","X332","X333","X334","X335","X336","X337","X338","X339","X340","X341","X342","X343","X344","X345","X346","X347","X348","X349","X350","X351","X352","X353","X354","X355","X356","X357","X358","X359","X360","X361","X362","X363","X364","X365","X366","X367","X368","X369","X370","X371","X372","X373","X374","X375","X376","X377","X378","X379","X380","X381","X382","X383"
"AlegreGC",0.176022468071194,-1.00634077567204,1.03808680600911,-0.929375490306252,-0.0661217147297429,0.705617220796585,-0.581535417205989,-1.02217823439443,-0.635943381156962,-1.07131236229175,-0.74916177065344,0.936021733635858,-0.982576607571406,0.551428950770296,1.07103531767998,-0.958575529154487,0.642562039189591,-0.721232663463594,-0.762210919398127,0.695915150564759,-1.0551231891558,0.991296264110421,0.18482006749453,0.989166355407566,0.491180810197384,-0.635766833433386,1.09636689579118,1.00807905341744,0.722491053628774,1.02556553927663,-0.266500910278132,0.540240120124041,-1.01112802361024,-1.12880363473623,0.644751877886306,-0.880430705247801,-1.15625887335547,-0.0973181523707381,-0.912217258328259,-0.844220019359145,0.655058470763396,-0.692521011731922,-0.802563906927388,-1.14319783647006,-0.674629134035688,0.0680702612307731,-1.1529463874684,0.755007728141656,1.08306257534543,-0.032625312276076,-0.143326132206736,0.85993801042916,1.02740009075985,0.956359454205921,-1.21068175472928,-1.04165701695588,-0.98301032275657,-0.781522520943201,0.546966211334095,0.436175192899663,-1.25103738125803,-1.22342471622804,1.05788495958247,-0.979215318260749,-0.0475940543586927,0.824068596486926,-0.969215652347281,-1.13440642296759,0.627490515885706,-0.8685821970817,0.514173042426926,1.17906970342414,0.210537459936303,-0.595735290888115,-0.845017174704969,1.00130775661998,-0.74702720869713,-0.742470224719208,-0.367911133151097,0.621147512008131,-1.04829672663308,-0.777069951016728,-0.480528574302237,1.16575973488111,0.863342490568731,-0.951721433741208,-0.20486578857099,-0.790279713896703,-1.05291919097168,0.962547204684359,-0.768596937381318,0.845989565248293,-0.54761505487364,1.02954416838322,-0.979132358116305,-0.669420861778563,-0.49897132547284,0.991391570631527,-1.14416147187134,-1.01953471967501,0.943035809970478,-0.824431062154252,0.956073361856522,-0.641272129679556,1.15683676725877,1.06359981669661,-0.0237205621563371,0.610315564881223,1.05011448349341,-0.811767231613861,0.741681195493915,1.34401658599423,0.953751865908396,1.12569792694111,-1.10308996806083,0.211054029735691,-0.367596329431461,-0.830963841939666,-1.13272178085615,-1.04880445092313,0.83396673554828,0.465412718695781,-1.01380701359303,0.912309940006039,-0.81690478741128,0.98919250564147,-0.948244084803081,-1.02985945803819,0.945850614213861,-0.329662174630319,-0.943921488812902,-1.23611176235738,1.00693170550229,-1.06055159804919,0.623393894986633,0.573479256961026,-0.645998148972121,-0.788799722256059,-0.382033987149418,-1.39441036752792,0.894546287534019,-1.06993637731902,-0.565847070299624,-0.588866881852142,-0.604770902665795,-0.740101458672966,0.397801039091326,0.888306289532047,-0.937436887035008,-0.959445836757139,-1.38725661315161,0.881125063155166,-0.945941248221592,0.340828293234522,-1.04121950985751,0.176351230809893,-0.737964118056063,1.05092017524167,-0.98347669579191,-1.06012349766895,0.857244412699304,-0.581830509982196,-1.18235866384733,-1.08010585479503,0.735301881478672,1.13418219144474,0.449693372985248,0.691790110125782,-0.855792974186003,-0.857787508195774,-0.695718222479162,1.01042049362648,-0.920833899896154,-0.127703605780598,0.882760127528256,-0.787645885505333,0.674174145807394,-0.695083268057704,1.0930714110973,0.639984604808409,-0.593926301397761,0.827277604353572,-0.393727800537325,-0.987081334849082,-0.11115913733719,-1.1144125424019,0.338639056217304,-0.018187982875954,-1.15703001150184,-1.32284105431831,1.20996815332353,0.448752901466405,-1.08965311787478,0.237600651432018,0.892157724096483,1.02533540342727,-0.972008276369457,0.973012602573322,0.81837264773972,0.0440610908010629,0.963094911108694,0.594670130690756,1.04412253195219,0.74491567286096,-0.809148298017208,0.75894052769483,-1.09427174259438,-1.10691764710284,0.939780001579992,-0.93867690809367,0.592755946567189,1.01432210170032,0.995629005932466,0.838672934381127,-0.396812863970033,-0.775154214221795,1.00829043257774,0.397864908209926,1.11032389254667,-0.00226380540428371,-0.976961150432727,-0.906211541149962,-1.27183627765766,1.0262848577569,-0.268544642515748,0.925941558028893,0.91241196947896,-1.05107362680496,0.680326074646475,0.607314188867519,1.41528727351787,1.07858858269261,-1.0614272302167,1.03081160922461,0.83406833710866,1.29581691743912,0.0689532768466385,-0.486388205498821,1.09083783995641,1.10319820412678,0.254651508778759,1.06758451219948,1.07242625460356,-0.99385185074193,-1.19355268825724,1.01751973257392,0.861666045766937,-0.970910307597796,0.986567116072168,-0.947318747526205,1.04208678312502,1.09998444101744,0.500801468204245,0.916766598303853,0.145202388786769,0.398174598724453,1.09586875133031,-0.359271711581942,1.09965863816409,-0.843528273679044,-0.92864378377858,0.647068469307953,0.845264648095787,0.195316776952473,-0.896390659440141,-0.960595610517363,-0.38540290707292,-0.875405772151948,-0.336683496597677,-0.405812979249687,1.32006494750967,1.29548961741118,0.804480672173835,0.86728479376633,-0.96419020267482,0.854063769986045,-0.546580985788044,1.25297048747749,-1.06421382239862,-1.30297886439539,0.90523644984093,0.993167306214696,-0.656570242157551,-1.00640653021485,-0.15136364312693,-0.422809536967222,0.674138762827287,-1.08898917151305,0.928765057429477,-0.540821218578083,-0.0656489407405387,-0.961380626070227,0.920731310494421,0.390358614001877,-0.955660275854524,-0.937237646089891,-0.271917582796326,-0.80880069593816,1.09791804101489,-0.851663485411247,0.368199210021086,0.985921372714365,1.03066623863585,-0.657091775511406,0.776795477423006,0.717425271834257,-1.06947060200181,0.417520414650344,-1.00806104247041,1.11785463581637,1.01842250015551,1.06484315535626,-1.1184936177546,0.510858065860282,0.238662965950439,0.627039598030799,0.93051054015018,0.993208068651039,-0.178418053206037,1.01086353197805,0.908010398653141,0.918209405646153,1.04722973369254,-1.00219507411781,-0.844922494371605,0.249653906916043,1.04092071018439,0.788122843631568,-1.18968141682364,0.863753222276663,0.846292189638234,-0.637142912997159,0.948679428975696,0.7510508405716,-1.03374140970721,-0.680859037464735,1.02425619934833,-0.618328086194465,-0.811379506113356,0.666497518371669,-1.01167583850417,-1.12743122484673,0.764530409740669,0.5451077690473,0.837104000568034,0.999467087312271,-0.30860758840014,1.11314306532594,0.169665274388576,-0.621182647044703,0.226564615238389,-0.665803504815683,0.454387577134622,0.968411171884978,0.946653749819197,-0.94808119570476,-0.615453267144651,-1.06986586017559,1.75300855791365,-0.887217113243312,-1.46454621353414,-1.10113269459353,0.605009583917972,-1.05985878151117,-0.951960094838326,-1.03335616673349,1.04967857726434,0.219704663709613,-0.989986836392693,-0.564793459405049,0.561719471522673,-1.05353384616621,-0.334721692954153,0.984344302028735,-0.792601001578921,-0.834530056114272,-0.563621591845757,0.718900270310368,0.877552450290662,-0.915251484712801,-0.875158456380482,1.21883086398656,0.570708068281205,-0.864827861853584
"ArnauNAR",-0.163584327128697,-0.843462867401487,0.738189323799057,-0.818335303352616,0.383236431408298,0.8816302339068,-0.562461457978637,-0.821517613963198,-0.593802149765713,-0.733706686280386,-0.873625042997748,0.516685857708499,-0.79263842328457,0.942275395007135,0.898344710065568,-0.583199150790183,1.0808392481586,-0.853719095757,-0.340384133262619,0.0287764396120445,-0.86171853012602,0.864318588957897,0.747791950696039,0.732826025828415,0.401043195243773,-0.638729019459563,0.899243186733922,0.88122576862201,0.279477564241796,0.877974617185447,-0.75515078449952,0.483465727466811,-0.863273137684697,-1.07321197585695,0.0604614631836945,-0.82137600883201,-1.39007642892635,-0.494842036529663,-0.794881245677469,-0.760081226402955,0.59582619304185,-0.697738238163392,-0.888136046638019,-0.815032283070974,-0.624358790398106,0.803962894136376,-0.87721842499309,0.332577437289705,0.902577467853419,0.374016044821341,0.0207713403451186,0.744476472101674,0.904897467993682,0.44411681727446,0.0899896238327955,-0.72579408715823,-0.705069364043322,-0.297793206847133,0.613263565752657,0.766493672424886,-0.579246152623317,-0.626702621801173,0.870016050431442,-0.924847460102453,-0.0299383914318219,0.322395453033753,-0.871817767822247,-0.390413501976643,0.602351694983987,-0.763021179621455,-0.0959754607076923,0.567134673388228,0.151738724839713,-0.749568788689846,-0.883775086972016,0.816877032858814,-0.816939558852144,-0.724510499352727,-0.474734525383956,0.421104370357757,-0.709837135394353,-0.681041411674912,-1.10572452925072,0.74392136629002,1.06342039958066,-0.570681328023696,-0.139876964939609,-0.731791016716794,-0.5273422999099,1.06901797043798,-0.670674113907493,0.896107219234316,-0.767022002401505,0.694493297603067,-0.812933406098808,-0.664353131165873,-1.394053551638,0.722188163644083,-0.951886288191684,-0.857289914114614,0.709484746063392,-0.624761972844833,0.388269171567282,-0.330977748611296,0.890892630009116,0.933233796160509,-0.336174676285111,1.07080156611672,0.171466442438031,-0.225374070974076,0.714057897081196,1.44112573135042,0.634948039122632,0.802495455932439,-0.745878318171898,1.02997112661896,-0.826408213432876,-1.04312481746555,-0.880386109532665,-0.52238043845958,0.71889474055693,0.110400485199602,-0.683158182393913,0.549414509490366,-0.622183324473625,0.779628118489215,-0.660408248198828,-0.956048670161427,0.808664462060382,-0.264411993455172,-0.592920523362721,-0.511075672762736,0.801700809687929,-0.9624006975558,0.428392541626647,0.148741980754925,-0.622520292597032,-0.753546623511766,-0.249113702152947,-0.0871859859686135,0.467878002187488,-0.747542498089305,-0.40803468070848,-0.886937148502891,-0.786539154738591,-0.509161143065507,0.413428901408508,0.781964329775954,-0.287383077415287,-1.06036004192043,-0.819685624746522,0.803108318584012,-0.599537673752384,0.64647955079217,-0.772472826163623,0.688495170272432,-0.974341407688952,0.702605553196289,-0.719739448556501,-1.03614446230674,0.63174455617532,-0.736100022478777,-0.716087978606763,-1.18293202659841,0.632082141861681,0.843927420982658,0.733016189192441,0.795482566072013,-0.784929684444845,-0.762831871765723,-0.839057989893809,0.724214324284949,-0.791638467351619,-0.423493865625403,0.527960336042558,-0.407459634561103,0.688703413528202,-0.813317130299465,0.980430959681872,0.321181485798639,-0.257755073230788,0.552024378839507,-0.429877791924512,-1.16436774394184,0.354095293370241,-0.31994234507575,0.111191132859033,0.131445646962192,-0.880152603171257,-0.359721155172262,0.647570665588295,0.795702337668355,-0.873134837934552,0.702257528315524,0.768379824291762,1.00993345149985,-0.778136594746641,0.898798671227003,0.662793636144754,-0.44988804358596,0.848813318489008,-0.0289761603945628,0.94497438601001,0.808038683126674,-0.811715221876751,0.904262460250105,-0.823282771757257,-0.713600355251656,0.832154101265291,-1.01295918909881,0.0495300607246669,0.632558053049161,0.939461359422815,0.952647541568593,0.0299162310517149,-0.681834711611253,0.523148318649909,0.943610556568504,0.876248667519443,0.150176525255909,-0.42716582972289,-0.547790761599306,-0.737039118254975,0.877300063068016,-1.00872700796684,1.02097835440311,1.07691765669987,-0.90069143738856,0.56693419925239,0.262728097563244,1.27508404858848,0.967695959967791,-1.00217780934233,0.930317612592467,0.859252493817484,0.692256476915357,-0.206196469280306,-0.339982474218355,0.762482922930732,0.860378592158196,0.0911842553192811,0.936962702120959,0.706863127339803,-0.731025346581583,-0.0869808568963684,1.06416249066579,1.09406151544468,-0.853680103947592,0.544290774732017,-0.818777720506026,0.855173586067254,0.867938326410885,0.373125018077559,-0.0519519218176665,0.638151032185977,0.424900573374046,1.04106606862961,-0.578415424141495,0.930124133849962,0.510287881110003,-0.892711491507137,0.989397313737692,0.968798490467304,0.0671301877164706,-0.781072697957495,-0.850419531180737,-0.808832181939719,-0.921943892271549,-0.851556728967274,-0.441198087764834,0.67474607068844,0.135442640147794,0.406495491998034,1.07958804906898,-0.446999981820634,0.736324614189722,-1.18294394001018,1.07707896985434,-0.729877124219385,-1.10546792612936,0.85413969822535,0.828152237366711,-0.935629022085969,-0.972743973762527,-0.324676438767523,-0.163287230078203,0.674794744807341,-0.902753917641282,0.852036358391653,-0.321849664899775,0.412953122984078,-0.735066793593935,0.770720883551014,0.0438828937243589,-1.03164895424531,-0.450585775618662,-0.169288455825521,-0.691184998196025,0.56999826571793,-1.019867953814,-0.155065693517702,0.774993975329643,0.882147163944146,-0.360066255617656,0.711931530362332,0.584440630153784,-0.891704620690932,-0.157400786744228,-0.779867890855862,1.01709125717745,0.707558181646429,1.00857126531009,-0.761289227039931,0.340871315415903,0.171685858030779,0.304230140631127,0.648352193894889,0.584134983076807,-1.51400042515231,0.882526685819793,0.304327975874621,1.0181413805074,1.03671954104625,-0.748343793527753,-0.922200014482499,1.35093892550557,0.621826669758568,0.371535544806083,-0.728929779213936,0.622230257301534,0.919247609505791,-0.518539251527057,1.20228443364575,0.672579159560085,-0.656267205629023,-0.720309626434596,0.69924563262903,-0.440779670852127,-0.423705853205212,-0.118199690387544,-0.824477783572905,-0.951806300535992,0.530238846212748,0.112185649746056,0.880297925525822,0.146327240904045,-0.529647583588038,0.802376755273105,-0.47379555307713,-0.654021446124003,-0.153717051758989,-0.891360527964723,0.859810845929216,0.391093941085731,0.721854307456697,-0.676396369343498,0.413137990002796,-0.855949226227096,0.197704094717904,-0.708384161921599,-1.08436954067185,-0.248807860094797,-0.0730460424376618,-0.813914224641588,-0.812664382942355,-0.995088734400909,0.687368151968862,-0.469105605905415,-0.759499381459891,-0.445954586955116,1.13273993978295,-0.502286722026616,-0.847720441621669,0.875464716946554,-0.634739517175357,-0.218402365446553,-1.38514231212719,0.836121227069521,0.716830344316275,-0.823583340596912,-0.955270807082477,0.900395609827356,0.880701180060082,-0.887069017353684
"ArroyoJM",-0.203574713037713,-0.819419821458026,0.842207081917129,-0.466319097387051,0.86865831488848,1.05567316099719,-0.847991383757326,-0.961343597898099,-0.710010091545602,-0.551568403462536,-1.03126889541224,0.76224178474129,-1.32709925347967,1.16378933401231,0.860307979077472,-0.701282762358572,0.838925280357941,-0.999133028432183,-0.609942598608127,0.839348070597211,-0.938957945670275,1.14632018563017,0.897909586077799,0.90725175430996,0.395038082976528,-0.649657944639056,0.734751127688507,0.777326668867106,0.435071232223576,1.01131900070529,-0.837522703938241,0.556179602129784,-1.02921475688835,-1.04468832986618,0.697105002329781,-0.910238352221392,-0.58439657229374,-0.45960145796456,-0.699706091156897,-0.99118504529963,1.35082548538714,-1.04379461560629,-0.682059211537142,-0.911019871780392,-1.07247332250298,0.54502984115116,-0.640939157498941,0.490106600927718,0.918414518208835,0.544406989205475,-0.0675093739766027,0.469192273731272,0.93686636927802,0.714425511191105,-0.536437317053518,-1.0805093373425,-0.941607398252338,-0.674688141006975,0.78588132215876,0.572022393741182,-1.27545086461989,-0.666794309838116,1.02291170336238,-0.954670767410228,0.100701100096327,0.691985826882786,-1.23220339317003,-0.740234459022527,0.21191522231023,-0.955770780645011,0.45361303899062,0.720487741908997,-0.0795341475133814,-0.763360506298969,-0.877226437116708,0.988876118288786,-0.475016296943439,-0.98813997202066,-0.72008537174444,0.575154005477773,-0.915130814224202,-0.981786135573534,-0.75553031484734,0.771430356967479,0.511778108123919,-0.889054120967078,-0.400675289642201,-1.11455038737453,-0.871835657153143,0.929299022658283,-0.873974680575386,0.763139124427536,-0.374555182303052,0.792797005612772,-1.02743990345191,-0.418301760862496,-0.714190335309904,0.919758899689211,-0.972418111379159,-1.00697307823137,0.831678591691131,-0.677036717091556,0.84288771739664,-0.685706152256007,0.950939109905904,0.628483153252455,-1.12946987143188,0.992716121013238,0.645870515056675,-0.632497309651232,0.878743371623373,0.637351628867642,0.919991416434556,0.544704087818482,-0.936843999742769,0.719797909600984,-0.337817372198738,-0.940737272146916,-0.97847346062062,-0.931286619703876,0.749243416835468,0.742105140420405,-0.881876436170362,0.372853231503073,-1.06605832909802,1.00295707406805,-0.880814144206501,-0.922986999993813,1.15368813534857,-0.586395028867649,-0.916113216564261,-0.838974207515844,0.873404776324596,-1.02585541994733,0.642931585515545,0.533597869080962,-0.823443273699682,-0.931079748438912,0.816223297013801,-0.387232181865628,0.847566992205934,-1.0318899454281,-1.00347654792707,-0.364343068572377,-1.03389443280712,-0.831941211485106,0.891766685161053,1.05494703873021,-0.867078242842061,-0.727318680375657,-0.61672149098552,1.14362822707143,-0.918153684198622,0.711866499996264,-0.437177797269119,0.155778408798139,-0.112600191484866,1.0322283521678,-0.663147241638793,-0.970572780814655,0.916087893020761,-1.01056214963695,-0.985327415507139,-0.885915263709744,0.602083465821144,0.954136888964151,1.08956716107435,0.843848819311745,-0.958151146161872,-0.731649911884758,-0.911524263703221,0.81392154129427,-0.80621335357146,-0.0100070562307873,-0.00159253127777385,-0.807577446280331,0.908366266353985,-0.333675661500746,0.960573172155789,-0.218036239929041,-0.6985487368168,0.88497780695231,-0.519842122531373,-0.576353430243177,0.232240324810008,-0.441965345631138,0.783518088140815,-0.470544321221703,-0.831702655438048,-0.407556250888678,1.02706944793645,1.02929402148854,-0.849832173322367,0.653957207698078,0.965058121947467,1.0859156156936,-1.12143211403643,0.873036936423795,0.783146871194114,-0.200617323747794,0.958118292253629,0.125064612555079,1.00218202046112,0.600575088485177,-0.774947871717141,0.721667755884054,-0.824115608006523,-0.515823823631385,1.13389911377376,-0.89518622585123,0.576787596362977,0.857811498912506,0.831183949747441,0.734170730373872,-0.677591276046599,-0.775228576127701,0.677237915436012,0.600130330566893,1.03271403528829,0.153820177138307,-0.775638610870252,-1.21945018380333,-1.07184641393961,0.998394802272287,0.020518861309506,0.614104464579853,1.04191683637165,-0.626263395553061,0.822063778699581,0.914855194120348,0.493209845635217,1.10711137653813,-0.907464336836615,0.979594666596253,0.9878122165511,0.796684991476477,0.27853288452596,-0.513282934250003,0.993043512796863,1.00532038974042,0.509876932467094,0.998388656993451,0.738740646703399,-0.820488750913688,-0.732321091408778,0.746316118859263,0.871982820953252,-0.948487431939934,0.336566197037922,-1.03031516607993,0.946118638841843,0.929874791358678,0.290544950605281,0.186610438776271,0.910958813352522,1.35066503737157,0.768528180222971,-1.1586873208406,0.844561284027078,-0.525934542770929,-0.952872717459491,0.7570310076162,0.950469314750579,0.0742924687232637,-0.815442378638153,-0.809527454456913,-0.476501674522639,-1.0689936051021,-0.867969319811169,-0.344130367155098,0.772046200509524,0.823698452130093,0.919563014855456,1.04863940547772,-0.701632502806693,0.937910343785472,-0.347361270711115,0.969400541523983,-0.845507650273491,-1.15045649785408,1.06672618240563,0.944255784208685,-0.806644267744466,-0.882664883740011,-0.455717055438155,0.145385090770046,0.733732349409849,-1.17126445961901,0.871813261210363,-0.876420810093794,0.733176352830326,-0.772289866391467,1.01354307670628,1.13784715111011,-0.992208589871642,-0.833100512579459,-0.533799268865672,-0.749084045490878,1.1511185965229,-0.800127529807664,0.38429456772028,0.887304410659496,1.043291461247,-0.106343316501153,0.977584315951117,0.786490752277509,-0.922585742184501,0.165839214407891,-0.689781480568171,0.892752831155804,0.668438388776539,0.855120381380392,-1.07036336703293,0.318639194569229,0.0839068396711609,-0.0547751710977524,0.780822299160057,0.36390773075459,-0.788128229080369,1.0020225725432,0.387246076430602,1.1407495703422,1.08873429615784,-0.640388748492372,-1.15110967091087,1.26171737981558,1.11180471857541,0.947186972935548,-0.968808733782405,0.744715655716359,0.642314204139541,-0.671141146161848,1.09056083182259,0.565654492928202,-0.642044418468867,-0.941945696973088,0.924122691556815,-1.01711588249922,-0.511081718840973,0.612329513472786,-1.00040807940459,-1.02290413038166,1.18562771766397,-0.129892326676217,1.10991187983241,0.389412555569891,-0.1906216832366,0.865826486112227,-0.382157411098309,-0.725205458226069,0.128374706101768,-0.112549651242106,0.74354443990985,0.506727547012883,0.849164292766144,-1.1326545810907,0.444449734277344,-0.835775862975182,0.777483137887358,-0.942390946539264,-1.16123329394037,-0.356014995704196,0.3532433558581,-0.920287097311497,-0.965128603033366,-0.917934705913199,0.970619145480971,0.351995204147779,-1.13386336836222,-0.705182725098729,0.662291590939907,-0.840904602292787,-0.153647991763163,0.73727289572984,-1.06334879802556,-0.384004053283103,-0.849126123333985,1.05843175602664,0.865925777939948,-0.864174059039318,-0.426552922634003,-0.000352819516590527,0.946943704636606,-0.845378990880231
"ArroyoJP",-0.297249644202803,-0.83092624203487,0.932742917776616,-0.542752471280046,0.788516961071312,1.02386448130765,-0.851696879115909,-0.987377945399277,-0.714905967444692,-0.674729116149204,-0.988210014308789,0.85053437963533,-1.35403144622755,1.05151870133537,0.913632877926684,-0.717966582161763,0.85943370726672,-0.885263754751167,-0.660816134639852,0.807358469900882,-0.989696656055929,1.16055446986571,0.859527095404815,0.945147656870001,0.363227872460491,-0.649653481953892,0.730705767716812,0.82483613926601,0.485015363741708,1.0418246076243,-0.869331958544273,0.589917754187584,-1.05622902592276,-1.06184058441942,0.530600703304195,-0.911198432181795,-0.706400426079612,-0.476186192229575,-0.770765727010419,-0.990749751501145,1.26456237289878,-1.08250088820029,-0.773278657877816,-0.954471815700679,-1.05530527363871,0.504756818195955,-0.716905988969384,0.538702670980775,0.962413339272317,0.47713826310397,-0.0947518624457973,0.507911192182953,0.939354851965558,0.756398517421456,-0.580868128598386,-1.11376453503465,-0.95265897140552,-0.714127122988304,0.874810774221016,0.616135568298554,-1.27262205947696,-0.723715412003531,1.048116037345,-1.00525661527185,0.164229491193673,0.753254120032773,-1.08890890042589,-0.737977921506953,0.294239591567812,-0.965152707992819,0.555389443095898,0.838471513400602,-0.196922839420423,-0.807863237463382,-0.931198779890948,0.968462068302896,-0.611710532502372,-0.963500071633762,-0.697465950072195,0.462433686248316,-0.932915727889734,-1.00071583992834,-0.781714968488626,0.866123247160427,0.606946788968918,-0.865188486375536,-0.540639575491683,-1.09110404941212,-0.917325324055957,1.01755077321338,-0.9212702423645,0.835419403708717,-0.474422275654342,0.820115644905877,-1.05968414929682,-0.423355070321246,-0.642389723638428,0.919632569645998,-0.991403948889525,-1.03641682432093,0.865569391352092,-0.739766237792939,0.891730467537433,-0.768948844869693,1.02373853742885,0.684187287747859,-0.942461449310918,0.98971762324883,0.52916401049916,-0.603526659820425,0.842743180319974,0.600184090628637,0.939764726970067,0.522981945437621,-0.936540840389861,0.736681059778455,-0.363519301116791,-0.951845165082192,-1.0422766467531,-0.96782108946167,0.755851671782902,0.784208027108549,-0.889397815664739,0.461365114685976,-1.05992852033946,1.01399505004461,-0.879653641145415,-0.957627402297493,1.1719260517125,-0.519812578704748,-0.930542201729553,-0.861957582967608,0.869485725115709,-1.06263530399826,0.653583793502779,0.602279233852939,-0.850649893912874,-0.949691470848652,0.695316710984535,-0.416904219976518,0.806671509992385,-1.04661515283477,-0.911456491403856,-0.445713453102867,-1.06816394846114,-0.910916534259248,0.909346119186985,1.02884154011098,-0.86468972286793,-0.861293381434961,-0.663884752238728,1.15718190836474,-0.891020192597734,0.675587759484468,-0.537381700303086,0.195524826787666,-0.103300571642066,1.06478498852309,-0.714528076967513,-1.01273260662951,0.932887806936724,-1.07630341054097,-1.03272825145848,-0.927066682213101,0.625111297773856,1.01361711640905,1.01195538174217,0.874366202589613,-0.989968223682496,-0.77617190561225,-0.950648224910671,0.795421907057534,-0.783846852826259,-0.0139919598686796,-1.23203306871194e-06,-0.823978112744023,0.895299173840874,-0.388534540879955,0.971645124686626,-0.136319653145688,-0.656312315205856,0.881530137774948,-0.549011683215445,-0.567488399162931,0.195250965970641,-0.517918731790284,0.641400289335024,-0.420916686584783,-0.8541010119439,-0.355849921506327,1.05269454408745,1.04975579701241,-0.899601516013333,0.636485555780298,0.946581061439074,1.13534896207695,-1.13309068429875,0.92997574694756,0.799942272280486,-0.171072824514048,0.9789476974501,0.109671248733141,1.03079447132919,0.620675915495651,-0.837654426585803,0.752419148612323,-0.86992536424652,-0.554057754861295,1.09132180642714,-0.982894881387428,0.619656564369727,0.931441294180287,0.875948438152727,0.890230485190809,-0.561164422093375,-0.776300732579435,0.688014121004933,0.66699341791635,1.05636421728953,0.224777643058009,-0.828537376820522,-1.2271750067454,-1.08120909332001,1.02653097136453,-0.0603849615932198,0.703214966804125,1.08950576409791,-0.66440207895869,0.849624589705805,0.854907087654511,0.461599792080834,1.09477892630369,-0.947337152543163,1.01279033832897,1.00082812190906,0.862698925951447,0.233376975149325,-0.594645195840066,1.01430712897679,1.07356794180485,0.466439494081171,1.03715428986146,0.794423443478072,-0.849092541820814,-0.817932043707902,0.809052338117685,0.932878361247564,-0.985006951056825,0.458352634836673,-1.06038473497766,0.968150144175197,0.986818494895003,0.3945822247285,0.284444367885946,0.961628788207961,1.34036444417298,0.751969134230266,-1.1458712741482,0.930574390651404,-0.519173287631515,-0.984549648383588,0.755871602716932,0.991229859872035,0.021222326000956,-0.862305711277434,-0.837951031951637,-0.397757851229034,-1.10287058673283,-0.808136527668652,-0.302652503656058,0.85117030266961,0.890409370415781,0.912776958088088,1.02687268351573,-0.721264608967082,0.948569447130417,-0.472944702953574,1.04135269936201,-0.870621311856884,-1.22945287580728,1.07707800506797,0.954341565875757,-0.831085202842347,-0.931459151913215,-0.395646661550995,0.0619930878168837,0.710005115119507,-1.18405379835246,0.876847737128694,-0.868461460070385,0.723138143054519,-0.781224050648954,1.07670515037261,1.10463735138878,-1.01163568094303,-0.840832672195879,-0.467099425634057,-0.806674239354874,1.10526319182728,-0.851114928435791,0.33492036818197,0.913454394170095,1.03873426886547,-0.246842593321783,1.01137337628783,0.840294933478248,-0.928337895141442,0.104300874701915,-0.83805488884827,0.986004165226604,0.664718794832908,0.878498456430023,-1.09775755806355,0.335331234464671,0.0265523979988039,0.0295478256970528,0.781580734707132,0.408668671699951,-0.718865086293807,1.03325292820222,0.575955690177866,1.16715555985519,1.13644017981508,-0.704259410961068,-1.14195663240917,1.27607682990857,1.1018476126936,0.996150036679912,-1.04501655998868,0.761010856790041,0.598796879670269,-0.65608275436699,1.13662524775421,0.689282872184226,-0.682830668386045,-0.939041612745402,1.03069184959861,-0.979214253818862,-0.583990143886472,0.653430250929804,-1.01901869132912,-1.06965607475198,1.16936554292924,-0.122603715409485,1.09810025496116,0.507902265973184,-0.14973418379833,0.889209639077765,-0.377712985469481,-0.783411988566674,0.214725016743585,-0.260369900371578,0.71965839831121,0.592920954186158,0.917786510809912,-1.13911381280471,0.313306101233331,-0.881188882379654,0.728503664721839,-0.950402198034397,-1.23467645855773,-0.467736544976724,0.370459512754356,-0.89265259398701,-1.01806727114012,-0.944965863125001,1.00172553151397,0.310766811067017,-1.06491971828322,-0.625068383052085,0.742548944666658,-0.86884604949788,-0.207931417081969,0.740831206576315,-1.02039828942366,-0.362932871146026,-0.834810941558622,1.1381842486696,0.886864308358217,-1.0009643050873,-0.501570433037734,0.112271597732522,0.997723912243489,-0.84752213010859
"BiviaC",0.203419220148333,-0.639599965374913,0.38737979165777,-0.344167608623755,-1.03847677496344,0.388735316852534,-0.566905799300582,-0.342817448433844,-0.867036514925026,-0.40082822232052,-0.344837436526071,-0.163946226315715,-0.186650656446183,0.262215149479054,0.738488168126549,-0.304512785386203,0.459358790466258,0.0620303305872512,-0.374736270696526,0.723398761127136,-0.343751934798599,0.247985015283604,-0.691249828810933,0.393667169873172,0.871701386331307,-0.534215976913942,0.521599261041164,0.440151529167488,0.697187205596155,0.348870628345052,-0.48615880237382,0.739697976345014,-0.182116223256892,0.0976416312634138,0.0307594787241945,-0.163303304021682,-0.191923387268014,-0.475324090736748,-0.162001762575521,-0.00289566682723028,-0.659051140935407,0.665865181588705,0.00179191332355859,-0.279997578473112,-0.129150513658517,-0.250714021340555,-0.297449737921474,0.656817410652626,0.174305337986338,0.745831838535975,0.816579490068205,0.552567488292819,0.199131772422559,0.713029335922883,-0.862423845675731,-0.226081931492899,-0.52068819982528,-0.410288123523364,1.11065170071525,0.137911320968852,-0.198979892449215,-0.0782512710254305,0.318650045251085,-0.318062146301793,-0.577433415352481,0.519239107496731,0.319999701084146,-0.350414042608353,-0.289600964232321,-0.248728698751955,0.598367015241493,0.234526076581603,-0.542862838319001,-0.614141550909582,-0.456649257777258,0.374214390766445,-0.488556202017478,-0.347552351702236,-0.668901941478686,0.0107856601645773,-0.500991405602217,-0.119352587705602,0.17731574406696,0.5754484513867,0.315172697740725,-0.544544238889132,0.31050334617096,-0.202998097076373,-0.400642905395772,0.32687950968043,0.00382381779324887,0.66594696415166,-0.421122409775385,0.70598150709591,-0.454999425916023,-0.590938350107128,0.257534820101211,0.303954167512551,-0.275343088421307,-0.359102982852324,0.222329488902284,-0.305476240714942,0.399780031070848,-0.661409410946763,0.261221961449718,0.520725313439159,1.68993799020458,0.414839917790214,0.666747764219593,-0.718374099902,0.0226485347305694,-0.052622574772845,0.47750194234425,-0.636271303094044,-0.586662979501882,-0.189264625943707,-0.295613180692772,-0.283981539485535,-0.135659058839438,-0.346955009943018,0.457452955606159,0.719341754139546,-0.688192409315912,0.680502032226814,-0.361214224176424,0.362410537507777,-0.342537826288752,-0.289521260760045,0.074941044560117,-0.00230878407124638,-0.225288949629208,0.135506998881582,0.232184087012767,-0.376335515202227,0.974669825061759,0.212091725480793,-0.725840357852246,-0.530407775012036,-0.26591713029093,-0.248363804988533,0.572990574153366,-0.28080673848413,-0.525072996742359,-0.0843095537170558,0.754303974281498,-0.496438689683011,0.0148142358406544,0.492290290412873,-0.493207317681009,-0.2154821685276,0.0106167543526551,0.217703905195878,-0.510290783832839,-0.0774400624588939,-0.289382834277206,-0.0466836148983012,0.582768683421172,0.330329431931209,-0.242898263900798,-0.307872731512354,0.367518755372044,0.329841876184578,-0.187644695744522,0.259375986824632,-0.0252366207135628,0.264636346481359,0.292983572213998,0.571682261707824,-0.643050791734781,-0.857327777588102,-0.399873333806393,0.24760401397686,0.0285722110064971,0.50184771993023,-0.191048362404404,-0.333847188216343,0.267802162212221,-0.294542989649452,0.268644313596671,0.47988757369355,-0.628046023341298,0.436929961274306,-0.208580242117702,-0.41878338607214,-0.741123648204008,0.279597919421835,0.291199695749865,0.380508667155849,-0.132808801153497,0.173755883923356,0.195034010365125,0.468049885396683,-0.604730003551634,0.180371920871405,0.450961914799387,0.246928599259503,-0.215463769282154,0.46331354573165,0.180404843185009,0.590365476199139,0.371793139418958,1.01623329720929,0.380987592700693,-0.0292384869943217,-0.254988833871078,0.249023967290168,0.468685407011186,-0.883913735955937,-0.320271541698162,0.343530409513265,0.193051736146524,0.132102377587196,0.517348857608028,-0.205465303903093,0.333913475143377,0.52187409008967,0.508075056658507,-0.20020934126249,0.0960337845775043,-0.839324728647194,-0.509901482739109,-0.232251037954797,-0.283258385686178,0.305781318902641,-0.379703121323348,0.34250023249172,0.384392196228814,-0.166701650409557,-0.154978832696062,0.345485181854427,0.385909258179207,0.0615280383597359,-0.337088754420083,0.770459695266382,0.419959815359068,0.208476636848493,0.581274203500254,-0.866906436817122,0.409524387321236,0.211199205578227,0.142523355384295,0.235876192749879,0.386094821311989,-0.495720558803726,-0.366687373813919,-0.454267813063307,-0.0161375564418413,-0.502782199403745,0.198051220877249,-0.269545174002119,0.173841376806343,0.124882996732098,0.103175405442865,0.776157866553922,-0.934805196744888,-0.584922404266904,-0.0420917528024552,0.0346230859783034,0.100140629775855,-0.565523785617461,-0.429872058550586,0.419173824809419,0.225034713927539,0.687620362154491,-0.541230002196489,-0.221677864318742,0.401253434439743,-0.354333175345665,-0.197663053258711,0.0107873470514205,0.325203177626448,0.463767896728876,0.375019560032309,0.275461620870215,-0.626170177222306,0.526045716994971,0.31056699137179,0.0728881630519923,-0.439080065774545,-0.426616910007653,0.16168962696162,0.304452909503775,-0.0293880626097264,-0.483872529163503,-0.392638123674119,0.269610992058643,0.566261472421776,-0.128216896267052,0.44814273410919,-0.596152512341108,0.119827307222014,-0.604316253756836,0.00168235602233214,1.09232652442258,-0.44110958487665,-0.410033434455085,-0.208713506100728,-1.05375426782647,0.319223529828171,-0.175408803868451,1.26070555526071,0.475381213813801,0.258393133875521,-0.133537732571785,0.742369291792032,0.567000488342264,-0.193252179685726,1.16416225055738,0.306950333870069,0.108849399897892,0.530543874866423,0.572825463383598,-0.19324533156175,0.535844796572417,0.458882654486751,-0.113747285257888,0.593053971928477,0.431653743478404,0.664366364677182,0.318332913875785,-1.24806318013951,0.144983941473364,-0.207008792021253,-0.445965817248914,-0.275905589934518,0.122483933902037,0.311738703721948,-0.0408891822040435,-0.0926235843499385,0.579855547860434,0.497589729683784,-0.120477421217251,-0.198755561460289,-0.676329861123007,-0.696755898943811,-0.445634880280828,0.0954364510067395,-0.598430276755095,-0.255693915211046,0.403481781434361,-0.491864665392114,-0.167019613622682,-0.00490386008806201,-0.473928014962541,-0.248256150047457,0.312434183173111,-0.573687342844783,0.336566244740447,-0.278812983407751,-0.115043778581126,0.313848755189312,-0.0975055698690351,-0.154594808223368,0.353816625524261,0.51836327919294,-0.188670995567113,0.261052753939406,-0.214302910840846,0.365455295250428,-0.288256185622866,0.182312704406859,-1.1628206759183,0.182551761804172,-0.397882554628117,0.322840735288655,-0.443664870369543,0.393573465418103,0.444024380488335,-0.37217560764446,-0.0484720277197199,-0.00405541288311825,-0.257444603643813,-0.238160173695929,0.661529253295938,-0.427498763441583,-0.26290207603446,0.412220598220963,0.76344055260877,0.442160237713903,-0.284206517496934,-0.571461836765199,0.210060001575086,0.513566015689395,-0.389948443603377
"BonetSJ",0.281273174608775,0.617237259682762,-0.305128922254296,-0.134740517248293,-1.29412297689244,-0.478659703728394,0.220526627453785,0.831150020936117,0.118939209752095,0.271082867554929,-0.181333226485595,-0.753452306039921,0.701944496898133,-0.437535797248895,-1.39419360358177,-0.667534985927544,-0.265821704944532,1.59818284672033,-0.0137285117764877,0.487810544843398,0.688206790085345,-0.492295353048696,-0.0953203974166628,-0.533109845309164,1.34020797149225,-0.756786760910164,0.172486788463311,0.0194472904832246,1.45722356636068,-0.733320543347339,-0.331782283747804,-0.173812456274279,0.95629088223317,0.824403619470129,-1.5248564939588,0.885026468982325,-0.764702358725252,0.173648796562495,1.14730623734465,1.53085239124055,0.153148957594455,0.965975849306629,0.158489089314982,0.798194272507839,0.294428950449978,0.541610759542733,1.09282329257734,0.626112760274629,-0.948611855300917,1.16239793471507,1.44034465770748,-0.162444814639632,-1.30861684991011,-0.312062096376388,0.531962157551093,0.420665853212722,0.289242804144041,1.15879653377576,-0.559614671720704,0.209430478094179,0.538111742972763,0.713351936924242,-0.896156624247543,0.746534630306166,-1.36601670011302,-0.587511335250527,0.372360355666807,0.335311159951586,-1.42750217383161,1.36373035692015,0.683610280098121,-0.586203916308323,-0.841568145578968,1.04095535774795,0.636878966292744,-0.887584042820055,0.295513808369011,0.24629944204863,-0.705548856031493,-1.38350001830522,0.581653999915535,0.162073217325757,0.716960248868656,-1.52582931449332,0.177715108392302,-0.198639992159072,0.926150936007674,1.75697681620645,1.34296047548148,-1.25216702023384,1.08912154439576,-0.589797524534705,1.10745136611326,-0.487851904501994,0.790752916837391,1.6462463120539,0.939501045143094,-0.384041093531855,0.640356895534425,0.691178976808693,-0.791080954298284,0.942364429006061,-0.658132289121928,0.326460336307595,-1.20942484980638,-0.329550013136806,-0.743897999160983,-0.680640209065196,-0.233178534016403,0.249578382649779,-0.593351315007402,-2.36163545177856,-0.138676968363545,0.227845834785213,0.296706967409839,-1.11554403409469,1.64841249084816,0.804318746372892,0.51961576099216,0.68183678325721,-0.165302268291549,-0.567001485766385,0.397758105372878,0.536475581961117,0.118964692040338,-0.489029240747673,0.597557333771089,0.918204906242097,-1.2288957905387,0.0378869093898634,1.0878952539359,1.40382830855889,-1.25175276185084,0.827598344955117,-2.00261909656902,-0.800123096327565,0.336884970902829,0.860459768640972,0.596056081123449,0.138303842828303,-1.19830860433782,0.456361563191833,-0.932828746197643,0.864574838810199,1.1678960462464,-0.474004713913031,-0.315175230421744,-0.0196327977129412,0.806992386565992,1.28357579095655,0.0504801685851976,-0.511383825475072,0.191881827172994,-1.60493861914314,0.71804031922297,-1.87892129489471,0.426667486278465,-0.901224510244961,1.0122176776417,0.612857481237827,-0.638813947155104,0.769291174566371,1.03076418353389,-0.618392878036612,0.0565891629402037,-0.61384485632044,-0.495971995293308,-0.0467844714586034,0.800731130553221,-0.0127994395012095,0.394542544276064,-0.10537007293923,0.794277516993457,2.06048801614375,-1.10548036861978,1.32576475134629,-0.196040317700022,-0.1192094772651,-0.647910786389798,1.21376748579327,-0.299492777297294,-0.175212059934673,-0.304647095727207,2.21637971074076,-0.84814189012882,2.33086740781235,-0.982839641346535,-0.807963839234834,1.29778625050787,0.379864402255298,-0.197156214136458,-0.944193933278634,0.744009737116856,-1.05611324453061,-0.341433068873952,-0.695025081676493,0.580705649978149,-0.0633650823636413,-0.00905837660329123,1.41604155250486,-1.0708358966194,0.394421254695972,-0.317552777668875,-1.13262164992439,1.63445444111124,-0.971664265930803,1.82201601720416,-1.29397284365951,-0.98894195438924,0.860078521296808,-0.534124205888638,-0.674000742170424,-0.176164692847101,-1.37048749383134,-0.575791735831188,0.802063925095559,0.258056512020109,-0.332795320546901,-1.03143751928398,0.0234873006738072,-0.870988834361172,0.536177759946707,0.841534261231848,-0.809156844568754,0.813448449975751,-1.0251757896627,-0.973662269864257,1.55551462641687,-0.213441815743115,0.759431047070893,-1.38672420461552,-0.663231893359601,0.900659397574131,-0.73782774968727,-0.336777160764778,-1.8533575505201,1.29411883972688,1.19671863279805,-0.710533582082341,-1.1905945821046,-0.284828963123433,-0.5423663093639,-0.28642163224929,0.649537246699271,0.743300845520636,-1.34503993154575,-1.18840373899624,0.572416299469369,-2.37594855037648,0.739441902830213,-0.867705223437863,-0.72680692624923,-2.87979022031593,-1.07244182822903,-0.481515296736737,-0.134328616546051,-1.5654256871562,0.446479041449937,-1.29769062294966,1.8747030318899,0.487937515719965,-0.491061872394126,-1.52282565647017,1.16363092783263,0.364115763860721,0.0517040285940849,0.227843269136929,0.631457429389866,1.36421230299739,0.851728898657728,0.031098194683195,-0.390026600169003,-0.307124864175083,-0.976035150999943,0.498916344614954,0.16821034207995,0.5440673559533,-0.822748420465734,0.538689327131422,0.429279691230567,-1.03133087355422,-1.08051483678899,1.82116190776608,0.722726454227063,-0.894265991181942,0.531598400569706,-0.20483142769376,0.518185055651157,-0.299932949515432,0.303588058623522,-2.39779204541496,0.519654562680717,-0.681839838731869,1.1972976045938,0.257588053054084,0.0723763640060235,-0.445454685156782,0.416553947583502,-0.365624431034031,1.01164552148846,1.4151807958805,-0.241480540286229,-0.4454109546185,-2.24575638897003,-0.470381279623303,-0.612738433396972,0.0171484892293674,-0.381346967655042,0.324080033624153,-0.0066653111700302,-0.374603249955513,-0.3453122652277,1.68125589052955,1.04898343010088,1.416942124098,0.63581972488963,-0.46402079855183,-0.559177731129458,1.89602503178283,-0.762060849493164,-1.08310477187697,-1.29245190359999,-1.60008853922742,1.21375618732595,1.51238658556875,-1.81558044166942,-1.06781183041804,-1.65062378946301,0.0949300442464877,-0.236506588708896,-0.520943185815539,1.28852086072875,-0.913055401154504,-2.18459707455441,0.85356692506213,0.743190288059728,-0.797841532897448,0.547614616614656,-0.390322384851857,0.984906851496202,0.494311852575921,1.38418740151766,-0.758817342141364,-2.42553558663385,-1.46309976766796,-1.6974330011821,-0.225952412205168,-0.758053991109601,-1.36124129240723,-0.250458285062054,1.29320581886408,1.6922165757475,-1.96877857292021,-1.30673111681896,-0.287441806737988,0.839073216079302,-0.314972344155961,0.679551993997603,-0.514067411390819,0.202580782674113,1.13783229894681,-0.535786992368918,0.605451140942924,0.716793035055794,0.61727207870673,1.25422238772324,-0.359304385952376,0.352509999319753,0.6582929125806,-0.211264759243328,-1.77637954417615,0.833794766706013,-0.0565938856644265,-0.647787124192224,0.540768429382061,-0.237888903813214,0.313614989246874,0.14972157067963,-0.718242429209182,1.18517719601062,0.626761722563241,-0.474330379524942,-0.563229132426164,0.34889489094899
"CalabuigRJM",0.377608176498545,0.235537754491317,-1.43731689728514,-0.401719093140213,0.200026404690256,0.192085905098077,0.540919694553745,0.652676083918657,0.621794482987241,1.30138687552008,0.748982820476723,-0.410437718204591,0.653239019960753,0.256749644233391,-0.612543518317669,-0.0455172820721398,-0.361793436209518,0.873797119566627,0.226121710177985,-1.48897421810461,0.606274586372637,-0.277343167962319,-0.176782003705821,-0.561114566073754,-0.436265690704636,-0.256394287239283,-0.544215849370829,-0.815885437530536,-0.570929017314169,-0.524665483546351,0.488942270290891,-1.04397402648312,0.940591899451025,0.363800458994117,-1.70906584755441,0.364993894067801,0.614145097052365,1.66604570161967,0.564883472978117,0.974837124924115,-0.897790678284176,-0.634308625643801,0.145424449138394,0.500500713378734,0.0580882048863051,-0.891019967456466,-0.66315525795751,-0.525641262270209,-1.18195632516972,-0.950191773089412,-0.251738050960385,-0.593201125013126,-0.497880178488267,-0.627161194689438,0.970658188231899,0.594508702394439,0.325613523843389,0.654938545865207,-1.56147413295331,0.621648085475153,0.426296466245987,1.26608132496398,-0.569417692718871,0.525293780109191,0.471273299264994,0.182720136652454,0.690438936478387,0.50247204833793,0.535188012274394,0.306833369279249,-0.391541810526004,-0.222261355351712,0.905366441126118,0.563709052790953,0.529605757243106,0.00526045822527764,-0.924879970052597,0.519499033528329,1.36220458622198,-1.68142042175942,0.604978685764139,0.591602542791159,1.54330374621274,0.165687481623576,0.1552876539928,0.168669131981531,0.638077157356043,0.300430489610381,0.621688989482523,-0.182054728861899,1.40527502502843,-0.387535204831652,0.570914171210721,-1.24117673872559,0.24228009054293,0.797354187090968,-1.70862626612647,-0.491654453796783,0.728056107241826,0.545955889766671,-1.93549932873702,0.406795331095132,-1.00624649888556,0.157280334037886,-0.365408421292971,-0.733802744652565,-0.770919033032869,-0.927289329227416,-0.367760097306475,1.26241856618493,0.108048817233915,-0.173765783311467,-0.531322375589137,1.10827559504203,0.999165495655451,0.14159918770915,0.911497690547367,0.889670181783005,1.02050120974511,0.844871918639917,0.490288678257122,-1.04219647503124,0.881039786922519,-0.201413699607698,0.967753400781067,-0.379016038535247,0.31961443446082,0.407368180158312,-0.522970252536858,-0.0263243565059392,0.9075136063003,0.0298419838642118,-0.886210824373785,0.911808483946005,-0.816145148753266,-2.07628599521268,1.00970948804624,0.95113015410141,2.62280944239707,2.0406889785623,-0.411938390605501,0.543419082734593,0.377530410501811,1.80360079257533,-0.434931559032827,1.11029452025143,-0.0932154741099446,-0.598550529419628,1.35081009161399,0.197411645914039,0.470601357011489,-0.92779134968346,-0.0857100933189324,-1.13606427413643,-0.854555174463055,-0.220426619496505,1.2106520704689,-0.524585134196014,0.839546300907886,0.204204938411216,-0.564628625159215,0.512374077856131,1.06365197445726,-0.253729916807729,0.983646859466945,-0.610695524438939,0.212871702462992,-1.15837810217347,0.295205347444079,0.35532393891456,1.17966622255757,-0.483722129658429,-0.486500234758124,0.62944009090284,0.0793594114387389,0.980938873044784,-0.775412635817757,0.885725714331312,-0.281069756744443,-1.10282359260156,0.95413689494739,-0.929479376492448,-0.272703313474558,-0.0492819646775783,-0.549882613510208,0.163493850635161,-1.76931795623227,-0.738000317859497,-0.111206539218791,0.855060109842773,-0.685351242001658,-0.950217334324432,-0.0579277582809895,-1.20491648654031,-0.521520244890809,-0.825918219676552,1.0103923127209,-0.810399047243784,-0.423200884058212,0.961663715326472,-0.924733836884826,-0.421488179655645,-0.646628849745752,-1.21683720468577,0.515485653241987,-0.416391436682404,0.231911514869717,-0.275970706874623,-0.0247091487623446,1.10233461703894,-2.18429362760045,0.00631342376659189,-0.15841211463975,-0.832817260307106,0.521167027682111,0.966549509979009,-0.250094214736507,0.421832443054955,-0.361519103497047,0.715705954749447,-0.861099690693297,0.799124542398435,0.817161500265462,-0.510628628749203,-1.86162365213248,0.306208092070946,-0.432875958222766,0.312118267199139,0.595798164410501,-0.604628563745998,0.225164690429434,-1.08900348841546,1.06933267287067,-0.637984265281552,-0.804599580090171,-0.867364676807707,0.338558726080388,1.64326137626275,-0.559711957673092,-0.640048850768454,-2.26905015341159,-0.392167274691583,-0.603115082840103,0.311053714030283,-0.507345105287786,1.09412429823643,-0.972759644413841,0.55204979600768,-0.073345452421698,0.47427679140635,-0.714375665435092,-0.493448817892574,-0.00346562390081671,-1.74015125237777,-1.03174424627983,-0.995612466602309,-0.193732577202819,0.27100182015226,-1.15637785172228,0.627713673085263,0.540349427244961,-0.703777048967003,-0.716742374906203,0.852753887539588,0.579245998723021,0.023769416450224,-1.02506020178986,0.344781478148103,0.33122772816961,0.642075668381003,-0.435246940074316,-1.05727971143381,-0.375456180789396,-0.257584886710735,-0.0342188183015325,0.0136085699398635,-2.16206300210654,-0.456217671665684,0.172213759507967,0.161301777331593,-0.461881427246936,-0.551108358629753,-0.0567296487362808,0.567597650271546,-0.694523786356751,0.873705305090399,-0.47808326958777,0.932225534333559,-0.458100169712923,0.598878100931061,0.0295779789798721,-0.00151548371384874,-0.457221961185466,-0.90790781268799,0.241236141125149,0.470587453671429,-0.0102656128932816,-0.424152869332655,-0.814532691850932,0.545537596847321,-1.84269139619164,-0.407731793821218,-0.664551131449956,0.778488689630214,-0.706191932049523,-1.04776616015514,0.777773598023451,0.275196091665539,0.541619680459222,-0.348330901455914,0.0341048595482431,-0.670845281462386,0.842005251209141,0.261996793616572,-0.158363444178934,-1.61992654942258,-1.00089944644935,-0.710262024526798,0.612343472681063,-0.486749794895795,-0.260113036809069,-0.118852561544978,0.0467152380642249,0.973596027235946,0.517082078160731,0.0503236627700449,-0.511301025478464,-0.536136956235726,-0.191985462378575,-0.213242934353488,0.123286704616496,1.11262912931183,-0.542272854834171,-0.84554242571795,1.1265329812161,0.198159952379553,-0.461958512859942,1.19709691300776,-0.171719653569976,-0.0138945340319959,0.614431396510789,0.622464184041849,-1.49659128973876,-0.683140088963048,-0.695615121694172,-1.86953267094027,-0.355640099165729,-0.36018230898518,-1.88498604516696,1.67376159713926,0.996051192026476,0.32719598063977,0.918729776832126,-0.646828973100085,-0.175469928040024,0.619728683103212,-0.488676727434547,0.299596876899286,-0.631744626716776,0.473986681831065,-0.769331603052806,0.42275789828315,-0.0594404377506307,0.567581905603995,0.574122937082783,-0.0364484574004311,-0.458674518954207,0.586589084954655,1.35687746949529,-0.26904201925135,-1.58626930830591,-0.0723567776451857,-0.448181427544148,-0.680650306912924,0.584999411452179,0.600301823433347,1.94078509467155,-1.05226255051277,-0.679226741687951,0.36932680508852,0.246592820539349,0.161729082359331,-0.865213605500433,0.13216550783445
"CobolloGC",-0.643710280014014,-0.691050200825019,0.759116187647888,-0.651419714848196,0.0679313311196437,0.777306612148536,-0.673230260355422,-0.672740921016339,-0.401638725617161,-0.784214418869123,-0.754913517464994,0.554275466396313,-0.677948510537055,0.380657429729786,0.767975589017355,-0.59811610937685,0.635310219955524,-0.510514201876321,-0.245012608933366,0.329005735665132,-0.796147950140062,0.88621460249884,0.583254394712001,0.80000249710276,0.552399339662995,-0.426084089972579,0.740681174086189,0.93256965193223,0.395275503657589,0.809481933304862,-0.640413166728196,0.912262420513465,-0.815917230337881,-1.01924619085696,0.406445298059899,-0.856502768300577,-0.935045290083175,-0.803640357091004,-0.784476718176406,-0.777606456344284,0.627642585278871,-0.750434134668854,-0.752408196839222,-0.838773864739961,-0.706712757584592,-0.134840762599655,-0.627208389010846,0.44631089328646,0.921283063748658,0.355465025786946,0.280107673266713,0.720463820110938,0.761454263876801,0.608246339676352,-0.630224617533696,-0.829108579216736,-0.703391201699445,-0.569029728370906,0.662460302029052,0.375008840203162,-0.836712543152738,-0.605507023552323,0.801825948620683,-0.812153170403647,0.308298286764794,0.705333747070115,-0.393851879417376,-0.733112946976598,0.442955294355085,-0.677073479172734,-0.217227359028937,0.516083578171855,0.672190466699228,-0.768332081227159,-0.849552216269328,0.676891546998322,-0.470110520923678,-0.667063735572798,-0.668920426896555,0.475790679352008,-0.738623833372943,-0.643761617833474,-0.926454019047435,0.520285311365906,0.652065094562967,-0.565178185577083,-0.251737785803297,-0.56181081595885,-0.653486538781918,0.724812304939528,-0.775804959520539,0.7005996219197,-0.664811920057758,0.699609453242929,-0.758794564766541,-0.709407473426321,-0.853058581779456,0.766027500235459,-0.782524280458865,-0.816436965985088,0.786203629969065,-0.441778269920703,0.512660518140854,-0.818485517796748,0.7697216623296,0.931525760553131,0.386164207814021,0.793731500400672,0.592643346038855,-0.746339887378704,0.694451960626197,0.774205695786945,0.925250948461814,0.296587198290216,-0.735681500722818,0.583364187932604,-0.38633096487014,-0.895599510209184,-0.838803663425326,-0.666442975882216,0.536615028522465,0.493256614563269,-0.704321947866087,0.627766921822239,-0.742051856428148,0.772128152982682,-0.538136110244856,-0.878173706258004,0.787299461932705,-0.257865838365807,-0.608434838525284,-0.815748981103582,0.756494471509823,-0.780197684623562,0.538822036566176,0.346840905828428,-0.787566086552027,-0.695284824391417,0.00194935917602512,-0.621316970238541,0.507956236408374,-0.768093194453948,-0.572770383850965,-0.673873736822757,-0.747092899933721,-0.773802884979661,0.768258280044494,0.710949455185935,-0.600990817425429,-0.852153104720539,-0.46383815493713,0.805710053229401,-0.687433844548989,0.724880861111518,-0.436775936302892,0.46344504693231,-0.652986611107104,0.783553890520273,-0.655748648128595,-0.765859921612815,0.633762538787443,-0.732694968510824,-0.789571393457118,-0.615630248457597,0.596418238141554,0.846951632329715,0.487423904065752,0.822613482474941,-0.667800222196564,-0.652648123750957,-0.752637907183475,0.79108402032586,-0.56028616474005,-0.383469418164138,0.133995962780347,-0.469844597806286,0.851961468480179,-0.644218436868137,0.715361558236133,0.564613629995105,-0.719462558734352,0.680704470205394,-0.704467794375399,-0.718252920583923,-0.144922702986669,-0.456417388956646,0.39030036047152,-0.010078685400319,-0.869497417998959,-0.226939314071279,0.636159662199821,0.567367475992935,-0.747706238035559,0.926330482508042,0.684251094689379,0.842720265755929,-0.777787197888261,0.887778881695447,0.733531721081096,-0.718943886349021,0.845541548856362,0.284997801005373,0.717954177767532,0.69672263856698,-0.826584357715881,0.791669779498718,-0.286483226064615,-0.55748776114009,0.690829689761158,-1.02869660321676,0.0943242048465852,0.57441525548192,0.663763693133388,0.7085325381466,-0.141067191971911,-0.86153387741628,0.70087287371629,0.643463402983061,0.831968724451169,0.00651596996849941,-0.20160120155293,-0.835229776577898,-0.53295795317798,0.820652227278844,-0.342537243988923,0.927973709264515,0.830362398079864,-0.826514568790769,0.282362780238048,0.52133739099553,0.99779285146743,0.763249929977113,-0.854657872318468,0.743290409727984,0.865967427310365,0.885847735097189,0.134755628268233,-0.701020564319976,0.785726037155149,0.945144970852057,0.511177715030271,0.925716151899455,0.866486929429948,-0.76049322725515,-0.424213561373079,0.654241832374151,0.705747549115354,-0.795670589175434,0.571545154035833,-0.798085999490105,0.76298758035232,0.90155290427329,0.459657360251103,0.525305820373187,0.73224440644936,0.710447861617778,0.835475552124444,-0.640784340877641,0.798344725057919,-0.235657286275117,-0.761921352381478,0.773625753085685,0.696567819740037,-0.0391705385731974,-0.866761497302395,-0.515924939023295,-0.297949366830082,-0.80294035974008,-0.674040783710825,-0.349920690007307,0.627817056217362,0.669613462935166,0.674388897394642,0.845102730651224,-0.549353688292383,0.658483113979104,-0.203259283656266,0.845042552257636,-0.753490628531676,-0.784384692524043,0.836389914595123,0.753688369166224,-0.455140549994123,-0.783478685868166,-0.207523746505216,0.246180556481431,0.606603231250731,-0.968041522137892,0.812318836395863,-0.603700851226196,0.0569265461821344,-0.769344529280305,0.927522324541676,0.324729032947412,-0.643810146335144,-0.550152263732436,-0.298868769251502,-0.822484545121982,0.700208836477323,-0.830828710398139,-0.091529776151584,0.761413722890344,0.736005970641635,-0.739520114525776,0.775604206316287,0.729551036896365,-0.916772179727827,0.577682509224441,-0.693147812627886,0.869902047854885,0.652374174526414,0.737340917481319,-0.851360791445919,0.403417328964999,-0.201970201241538,0.562219635000588,0.559703004299552,0.406050915782639,-0.582284319916693,0.822896057134875,0.0970285797968159,0.655677631843886,0.81523065949501,-0.641858154166452,-0.710564235890699,0.933330155677779,0.624240700439249,0.467527873650629,-0.697084747906515,0.47722219880478,0.700149275843403,-0.422988124346026,0.732813020105926,0.331548954132832,-0.703652926333467,-0.602086463256926,0.918792295104569,-0.556456902515893,-0.542436482854638,0.228317619318177,-0.787576875815267,-0.840539737261699,0.70474354815884,-0.442226506186277,0.838705637119087,0.303976531154026,-0.351920324015201,0.811358504510657,-0.330568627705661,-0.894047581854651,0.230864940618373,-0.433889460224586,0.607677478146212,0.740662916615401,0.836253361969479,-0.850761768829709,0.375482795148067,-0.626434452450161,0.647204535424016,-0.771921977000221,-0.667627458339188,-0.635821415095212,-0.23543785694192,-0.839038674596343,-0.82948541818482,-0.703181511713244,0.728892395087647,0.214318948777551,-0.621747150943719,-0.424487266520915,0.740571952795256,-0.605208150585502,-0.524114145328429,0.77209798951665,-0.68818285676152,-0.415111944901244,-1.00510481154969,0.610931910781423,0.829602733277707,-0.887798616793774,-0.730153074073493,0.722126179658592,1.06731343077899,-0.847921578010088
"ConejeroJA",0.236310536871652,2.2923024680903,-1.96847741536561,1.92944090064192,0.234068100304342,-2.30321737320107,2.52978526807648,2.47074740248314,3.01210514843855,1.81764156950928,2.69807241891726,-1.80250597425231,2.09619566180391,-0.861013831457634,-2.05278494690736,1.85378334851747,-2.59300752196956,0.375576827621635,-0.00894060770756615,-2.97458001187981,2.02629580479012,-2.00175320090387,-0.649962076828772,-2.11516762691138,-1.57677236348837,1.33486507581175,-1.91282720506958,-2.12958435236604,-2.24487943778808,-2.0640962920487,2.47171060478239,-0.429571119505308,1.95735198980217,1.31578557496061,-0.895471426955655,1.33310999507396,0.984766024804281,1.08873510553068,1.11145479515751,1.5294743369462,-2.03863473616373,-0.283261935632394,2.72028744398439,1.83247776457788,1.67268876874298,-0.192363561939591,1.66536032869619,-2.00062459951934,-1.54929676137431,-1.26001476719012,-1.46822627676683,-1.3111893085173,-1.64191810302403,-1.68283323403627,1.87935332348642,1.45945973419294,1.74214381808852,0.60748392185298,-1.8694681913052,-1.02554561575611,1.7764725493325,1.21836745528692,-1.97536324505957,2.11628715897415,0.945555670035996,-2.53009450780838,2.39606509039048,1.24054647688131,0.693452104372032,2.05228154698375,-1.63327651395496,-1.23189169496805,-2.49577401014221,2.37109558249352,2.02040423725457,-0.227326768073797,1.3272175728257,2.04681194681856,2.93044373766106,-0.71496164683202,2.09941653316262,1.70646818955224,2.0327038240929,-1.79206593001553,-2.11141850312059,1.81765929303155,1.80870490048746,1.9051717783808,1.69116825545025,-1.8875175569023,1.91121517391928,-1.95120082825972,0.704554792336154,-2.34929022479418,2.11772020058764,2.07821320221906,1.33997296771742,-2.09844134777932,2.04606540533886,2.10286353294581,-1.92713160556242,-0.329872232682012,-2.49516264494875,2.32023608061263,-2.00209344674453,-2.56945732994973,0.282244538751531,-2.31429021900362,-0.612440940413358,2.34163519859895,-2.5407637702646,-0.946509793948563,-1.57667874113569,-0.0977569819768135,2.50328426769515,-0.620327428977903,2.34080698525164,2.0078525546275,2.54551773852421,2.33475205019686,-2.79704096248317,-1.53631857237954,2.24547455713012,-1.19495960177727,2.41560047809187,-2.08871912212562,2.89269808632901,1.55618389793063,-1.85616263756259,1.05385353835878,2.64848434677368,1.36443965789848,-2.47493048432841,2.16403974201233,-1.69237359201943,-1.66132829942216,2.45154639998587,1.98174291735589,-1.75393384825755,2.1562860502185,-1.36868721950007,2.07657076564426,2.04745869032896,1.04922760041051,0.812001403117468,2.27699709560853,-1.91478432527836,-2.11437066171261,1.74631410762456,0.830787983422089,1.76196277582846,-1.9756050508599,1.48622738577424,-1.44168359930853,1.78114745863602,-1.81064406858074,1.4436103526926,-2.09245841157072,1.94969161803549,2.34142584001819,-2.36949079762791,1.78487005420719,1.92276755462831,2.33499277833384,-1.48936102544029,-1.74517978788935,-1.83078418769575,-1.38659671106549,1.66923930463675,2.75310315553929,2.74970594368541,-2.36367927915229,1.89667771156365,-0.783274749329694,-2.38903419722717,0.446906390996599,-2.57645077233442,2.28773835031631,-2.10571101756664,-1.02919793683561,2.29955142283191,-2.3143051536388,1.79078187414737,1.9820310883432,0.154914765914977,-0.0724892377325751,-1.51449071017936,0.18291712998163,1.32290657572927,0.608807732677517,-2.09770194746323,-2.52432894023581,1.64080790106832,-0.200308502687395,-2.3438508984373,-2.35349895342206,1.84024630518146,-1.70991496404427,-1.98573614866816,0.974987168172076,-1.45915867827942,-1.50094088182379,-1.79763148570125,-1.26913260713228,1.79178426018238,-1.82811826240948,0.554562998904543,1.31389798364283,-0.820943320444067,0.97143015986282,-1.64375271114989,-2.12230498024854,-2.42302614492119,-1.83531374187638,-1.64717783978279,2.13224325449557,-1.85773661313789,-0.701753485894776,-1.39843640134983,-0.266434837523074,1.53749206829298,2.35422880295793,1.92459564781862,-2.05948636841387,-0.240032950080959,-1.93815519670181,-2.06719178482192,1.40127912600667,-1.50934990050859,-2.85465552235966,-0.824938008923523,-1.82776047077219,2.17524445800643,-1.88388928944518,-1.70637490529282,-1.38954279003421,-1.37593336450353,1.89576638582865,-1.9091150675295,-1.71879172985483,-1.73727883044964,-2.1953128204511,-1.46219087566276,2.1763748135059,0.326389512019961,-1.17891484947972,-1.09531590307648,1.99451207561309,-1.43795866634938,2.23420360283309,-2.05490065290731,-1.90341297819168,0.393306357315489,-1.88314650355026,-1.86631459615067,-0.947546428858245,-1.81351076929294,2.46602561615037,-1.83513614264722,-1.17572977905599,2.13242050304309,-1.54165018773828,-1.78945959089027,-1.223122249119,1.71678124121649,2.12480719334236,0.694677204124891,2.1693833795581,3.24597274584584,1.99831659293542,-1.28602725929715,-2.06108648383647,-2.34081729884668,-2.35891535587293,1.17420972262518,-2.12186790103684,-1.620120549619,-1.49833140749646,1.8560338829435,1.51400495729033,-2.04808721361278,-2.02133166998827,-0.293693388309837,2.14570431355071,1.44574546260919,-1.60070258549754,-0.865862392010163,2.03290460563854,-2.32143854036698,2.1344890150507,-1.03477190363728,1.7541661567646,-1.30719088973337,-1.68373170918664,1.90542732792178,2.02634884791306,1.68189699538664,1.49727325326832,-1.91551100963469,1.46809176253144,-2.63665036921797,-2.02891556324746,-2.29282072332926,1.441573248201,-2.78196930377033,-2.22159742696169,2.0203094310525,-1.0536773971065,1.40893919149703,-2.1241142013564,-1.62237117455462,-2.17488739421448,1.85612448510596,-2.14695773933159,-1.16337778359002,1.15730490598615,-2.72974265259796,-1.0476840705619,1.46316250748218,-2.05747953228038,1.37501345451871,-2.56874729718648,-1.71468585934591,1.68932394238205,2.56642076552883,-1.17025834737916,-2.21111868309637,-1.47966362669178,2.57294051435497,-1.96222680584209,-1.85243169263699,2.74890017605383,-1.8310220213527,-0.137027002947488,2.00063822611375,2.15597200505653,-2.05017287009747,1.88316364664558,3.03888001240113,-0.16092881823712,2.09333883941255,2.10869012512708,-2.33011982365144,1.61338110167393,-1.3424004922113,1.27765846928402,2.35138226913184,-2.1786119681911,0.549758167838782,1.20481743411171,-0.441588787268121,-1.92792295165361,-2.31575558277257,-0.362360322863449,-2.69673141482774,2.04859895301302,0.353927399118099,2.04888791047271,-0.958140995324051,1.7913262135175,0.675465689078325,0.881575373050122,-2.42887332614204,1.85681160623498,2.03844551646332,1.26465186838251,-2.15428107114684,-1.16572036691207,1.72653237648506,1.65445973657913,-1.17009602391446,1.96502968368793,1.06398545518217,-2.02547754800903,1.98089463852436,0.859185016222073,2.46343322649128,-3.29172265532827,-2.5358821001042,1.39027686762627,1.565136964326,-0.888922827534913,-1.3016922398516,1.6745006752322
"FelipeRMJ",0.669471226020398,-0.298342652475489,0.420734844246552,-0.388566703081304,0.607714216328004,0.781247670772746,-0.919253610408149,-0.627837111378899,-0.593073761646001,-0.161227734954215,-0.881484258628259,0.469100803816189,-0.93353536038584,1.10151615341949,0.768071301594378,-0.316065906444592,0.150876175995565,-0.975263935875396,-0.155584266761639,0.938737651749499,-0.696930589655513,0.711143157793035,0.722997794836981,0.63647118982781,0.644922983204217,-0.816693053151604,0.628471463895613,0.417816830734816,0.585877374398146,0.723072615609556,-0.692798382486529,0.0508260453646766,-0.551987117346487,-0.352397385287221,0.499471753737024,-0.397942657220118,-0.345216273340561,0.0129217508775217,-0.540324905339976,-0.528384875102298,1.44632378171603,-0.686910417153328,-0.289543796215268,-0.639485957031448,-0.744652118003466,0.140487597350173,-0.718123288444582,0.44243895087778,0.371156608960492,0.35736090196159,0.285806066678329,0.259355445576829,0.719194105148484,0.816435978422396,-0.716688609985642,-0.75479502656589,-0.72780160216812,0.0480466969425058,0.121825266962301,0.286488023396736,-0.766022561996079,-0.6511627592092,0.685038498099925,-0.557450643220719,-0.455359398655206,0.442202314437527,-1.20539851957992,-0.29269375169483,-0.657673243096642,-0.814384031187614,0.746791910501815,-0.0380861472388969,1.0643799974146,0.0362988564652572,-0.451095219106619,0.727241257696229,-0.0768089664994897,-0.791162301626317,-0.552684518944326,0.776269583220292,-0.689855333338535,-0.578408312451319,0.0225472391872252,0.677111047368779,0.706077786822366,-0.783098591682641,-0.604602733732489,-0.77587838015476,-0.411561168963765,0.665056184645715,-0.766092356039193,0.450331404324126,0.0128856459342958,0.375754202708907,-0.635330931004174,-0.641842885359899,-0.147741312962449,0.750542285633257,-0.790343158576268,-0.6825343697385,0.345299008308084,-0.427044847917614,0.842828185814917,-0.807751864971047,0.482569653324356,0.535952675997766,-0.299180345837905,0.563776083049918,0.509741373268721,-0.284787641425311,0.501436851717557,0.300188363994373,0.43418702419755,-1.61830174655236,-0.900049500171244,0.264514840786828,-0.127719747749742,-0.688892511739654,-0.662157337354547,-0.724245171907447,0.583295558025464,0.385920320648811,-0.763667993715071,-0.0961070336264445,-0.914063366863374,0.796925541369161,-0.986262869021737,-0.474508678052266,0.760534240464527,-0.458156442682868,-0.578731477042602,-0.72143353523553,0.643210697292946,-0.636716060059106,0.800900194182704,0.33272327697659,-0.543572641239571,-0.9707527793867,0.392294034922238,-0.328182471732191,1.26713470851413,-0.855827193847774,-0.956955794763176,-0.160459534650949,-0.219615357184632,-0.331728566552211,0.448680432836102,0.89197066237905,-0.793706338941562,-0.545199319620244,-0.465904377039481,0.846221308265819,-0.824143007198077,0.00115071259710432,-0.191015327848755,0.2290827902311,0.301563625747188,0.729125457937575,-0.262773139541317,-0.640767895575912,0.763968462497826,-0.695433058879334,-0.655137856548536,-0.347593069384336,0.386093996266664,0.598126070822963,1.0923846666581,0.124518810173546,-0.993268433166479,-0.686447477581725,-0.487719735871055,0.605803103522123,-0.315198060046753,0.40320426780897,-0.178177097009454,-1.61146262094957,0.75315154007869,0.212989213893158,0.742567506609619,-0.453612398706354,-0.805914353797953,0.951001956253881,-0.163448554893158,-0.731570704166741,0.157069467614646,-0.213095081760568,0.0905849662331559,-0.489662610845647,-0.48720489698845,-0.131794180958719,0.502701976699201,1.20911522926831,-0.605002216059064,-0.347889423472462,0.728585889351238,0.75480107104941,-0.775820202937671,0.26746061557602,0.732105726904214,0.293662458795732,0.590000442756674,0.837061349073449,0.50033601111494,0.890520252193463,-0.321088665405563,0.332331957801065,-0.137106035514637,-0.420043412370764,0.976635866426403,-0.238168081591553,1.04678418773475,0.587181392341422,0.547933293589971,0.516572953845725,-0.460776838742683,-0.645703393854839,0.576140445833987,0.686842147318307,0.728777988042571,-0.0722335111114145,-0.867613780839723,-0.636246385683124,-1.04173681823443,0.698233033624912,0.598226828550009,0.462287234994343,0.580714357274557,-0.851243343717571,1.24724287087445,0.991411270923975,0.462261990822931,0.464775828466457,-0.74071284094522,0.643455528519693,0.583109861406431,0.237974878478832,0.712725852306853,-0.0352736805173712,0.700834803990262,0.432607090595204,0.42923786654408,0.656314644093662,0.27723524179974,-0.359633182601742,-0.270972909675708,0.565153305866564,0.483236273264211,-0.585684595729826,0.218876658176423,-0.802838919397207,0.734478929321682,0.615024645692253,0.423385032875249,-0.238948427120536,0.811137359836498,0.675165661917498,0.323783895070427,-0.991108529831587,0.601142097197018,-0.424852542068511,-0.711914357579379,0.353828705211245,0.655139653706799,0.202774934145825,-0.430248797244424,-0.844978832691653,-0.711657831861488,-0.68446935228887,-0.407615596376395,-0.0244389812563418,0.42281223444736,0.429052282509662,0.75170755282161,0.324236574095946,-0.87336712042215,0.699533151888864,0.556692078256876,0.467526702682485,-0.455066027397657,-0.514952845601325,0.626379164799647,0.751672788776284,-0.214833520180961,-0.618287694540476,-0.383497274995908,0.236421390233777,0.674393238447065,-0.485890725073705,0.640587520482595,-0.565120640770796,1.07767281431696,-0.42560935193988,0.14328019362107,1.02893122814016,-0.556943327798243,-0.704177658345079,-0.753250649989969,-0.734327720634332,0.806551955102866,-0.491550762558602,0.947636411375692,0.595525080563841,0.677647260651864,0.0919298589920284,0.725374449814883,0.302498763584827,-0.726488277698366,0.469965518755375,-0.482786828872953,0.298326816106378,0.925993691145801,0.590223658016782,-0.807417893859403,0.395777932185603,0.0893400355620042,-0.423705755362649,0.789927378281404,0.0879691059570769,0.136787447247935,0.681588195902312,-0.482561542102381,0.521836662527769,0.669621015544763,-0.512673163122614,-0.848325748735689,0.840459681372947,0.666083190636908,0.330109920368031,-0.650912057842469,0.801186829270174,0.456813854896712,-0.617731439430426,0.572611418950743,0.343902413756182,-0.479454227654527,-0.924716978920274,0.32663562528552,-0.752381485944161,-0.00983069757178414,0.747499723245135,-0.682692475817658,-0.649192447637053,0.707236773421828,-0.0018166572707497,0.573723473010144,0.178154413942624,-0.813540719251892,0.662113024187198,-0.298368153443279,-0.166098101548702,-0.43974383809389,0.386365544552017,0.398001853954724,0.0252728232452843,0.607529325488646,-0.801369092931993,-0.244732549226623,-0.7870153722655,0.66071455209937,-0.715861367490505,-0.837976897232985,0.142362742913123,1.18222956418649,-0.573381640833373,-0.470537806396792,-0.588767981271328,0.624103773408552,1.27487404815447,-0.845081675330567,-0.802934612850085,-0.199697047404259,-0.780636074635634,0.716592293701129,0.350812920021471,-0.913078412496435,-0.278646325237439,0.144467262921433,0.601668542968135,0.64976493435774,-0.247342651201683,0.253916838962386,-0.701079205132018,0.103518265100354,-0.341605001802424
"FernandezCCPJ",-0.241223954845489,3.60201297036096,-1.25337294998126,4.31287060236425,0.818236733492858,-2.89592136706717,2.30134032147532,1.91618144463523,0.377922601235291,0.999248542303935,2.3361816561299,-4.03364382322645,1.62986868371278,-1.91523137759243,-2.16958444815286,3.13625323709379,-3.17121330450933,0.735634192801785,1.09511489639124,-2.53719765386844,2.70406249752235,-2.20312885444071,-1.53528911088376,-1.90276570325768,-1.9411777731079,2.19037735490315,-2.82024383542924,-2.16709186155737,-2.59401878797521,-2.40085358284004,1.87845985540887,-1.40650116598473,1.57238966091739,2.18274769794515,1.08008374791957,2.93727729268014,2.5289659631779,-1.21048500038552,1.95938421235072,2.53941134546199,-2.3708125878323,-0.338379057955558,3.08908421466287,2.66359263251758,2.47661286171759,2.68823194336409,3.16942820905361,-4.13059381994683,-2.33777669268109,-3.6362146958384,-0.666984531291964,-2.5520295050161,-2.80341422879534,-2.54730869791588,1.89031063230143,2.11684749142253,2.82814036317891,-1.42899675685695,-1.10198785449713,-2.78188980788184,2.95096756599753,1.52709881755093,-2.26439289232893,1.91032932946208,2.74756322387494,-3.38786051004033,1.1773701848093,2.54680194888363,1.58544557424093,1.98047034915104,-1.73692440631863,-1.02067456156136,-0.871067564570262,0.88665953015894,2.06013195055707,0.893087146793824,3.2879574919204,2.04330695008575,1.57041714823851,-2.21276918174127,2.40056765849404,1.69441562068127,1.1459528982743,-1.88843528011923,-3.54165023089461,3.22160579748163,-0.32389077556633,1.55300589094696,1.45195682447282,-1.39892521757373,1.54599736333202,-3.00517759257523,-0.478306844537399,-1.67201805676531,2.63270172900074,1.81139208303559,2.91836033111817,-3.03744994246872,2.35739415656928,2.40146626934539,-1.46408585096393,1.1964960723162,-2.32414367108295,2.52123144180911,-2.07341941200632,-3.18980725538797,-1.1743644268901,-0.873734798417589,3.07783927051789,0.910511594138878,-1.24652732389895,-0.164930096314578,-2.44051169599943,0.0587827026113667,2.02302238030135,-0.976854314754902,0.978798410741453,1.19277252190384,1.66352291758526,2.73738675923107,-3.29349819293091,-1.86328472146277,2.77836803498881,-2.15368662209826,1.91787205689826,-2.55286799847147,2.71704069461881,1.45361662054702,-1.86008062103914,1.92475184548884,2.63389205908218,2.47414820195799,-2.17515309101361,2.29087235442678,-2.03040869580273,-0.188215672079411,2.20063631283456,2.55847308703999,0.428995579396526,2.41770559512266,-3.37567714517441,2.64068750125333,1.68008180200167,-1.16800688859491,1.53382619288898,1.51146967300634,-1.65759330940707,-2.69233906075286,1.80375396356419,1.46166587923923,2.75657140844023,-2.08886357718742,2.41908460015422,-1.96291055995469,2.24937771610571,-0.766128314394894,-2.66398561549851,-2.76807708289358,3.47439821262859,2.66190861242165,-2.60321997894262,3.17677446342867,1.89239241502011,1.46210274846973,-2.41049458592807,-2.23270149498353,-1.93526658240388,-2.17270396142203,2.45155258634214,3.10898758825858,2.75621022228984,-2.86102077932591,3.07122148363401,-1.42606357320374,-1.41920468304496,2.17552068056444,-2.8667554772756,1.73378954563415,-1.4330524485493,1.8641179283266,2.84037216947248,-2.10294288702815,2.93731923832154,1.38318960540341,2.52131940323996,1.03784024994949,-0.074002472734053,-0.449191817856625,1.25850879686087,2.90706997185293,-2.84363592883691,-1.63727004336321,2.45498814544922,-0.62344996348647,-2.70342083597476,-2.17328858119601,2.07673517439227,-1.89811746390798,-2.18948138770257,-2.42122095538688,-2.08386171672965,-3.50360354238749,-2.10746685576148,-1.62620699947207,2.12348627771474,-3.09216404543551,1.99627291507799,2.47552230040956,-1.75457129073879,0.597282037096189,-2.85533357873361,-2.95827661549054,-3.48928131156839,-1.10908659310621,0.628400696003211,1.56366078787943,-1.11451790313238,-2.20723838424356,-1.88119668630162,-1.30228841111377,3.78672043952307,0.888895194851194,1.37146513663735,-2.37673462824994,3.18350425367567,-3.1434001508582,-2.69042819701031,2.9705886300433,-1.10259124385905,-2.56885379350492,-3.02807470604558,-1.17413229965994,2.09287779932789,-1.25777464641845,-2.00929358235577,0.114863781549488,-2.12095773512392,1.27136780030573,-2.25905143896792,-2.16503441689405,-0.839036171546043,-2.31332969744766,-1.30072552528668,2.41630183754948,1.47472726016454,0.649799783177998,-2.17131356006646,2.1401462324765,-1.89599515462459,2.52359154364615,-2.3668217075334,-1.89205219671092,-1.34368021615265,-2.58202234516784,-1.62725736302767,0.488200438407535,-2.28360589829247,1.69181638212212,-2.08387119204804,0.143778438774936,2.51531416054292,-1.72845387891126,-2.17276004023135,-2.12125040898788,2.14074838795631,2.79785448750931,2.87071987562495,2.47740342901475,1.08095607587971,0.375803284890044,-1.77123285066998,-3.20630447906165,-2.420944924147,-2.36268906750113,2.71151082263521,-2.94761620778323,-0.136156155608557,-2.11935525618105,2.74106809357042,1.8119469892837,-1.90041355738099,-2.01051501378449,0.615047431980404,2.47767757997818,2.51977398062184,-2.55984932726672,-0.279805840045855,1.98796447763481,-2.92935367909788,1.15096116401495,0.196960236189607,2.92094526051274,-2.741140850353,-2.24694402968454,2.99319300172398,2.92913354014133,2.61300670500217,2.89692154934551,-2.87157724103904,1.3506224903132,-1.42734792949852,-2.54774832895307,-2.04871015103062,1.46643945997842,-2.10600151555717,-2.01047825574243,2.70111627833408,0.115246355753332,3.79447225859766,-3.30747590964479,-3.26661609892093,-2.14610935088323,1.72140596557128,-2.80259235308275,-1.40203844090628,-0.0373353573990012,-2.79981028611956,-0.797966912103218,2.04791636018651,-2.3617998990481,1.03123799302418,-2.03428588243193,-2.1325923082573,1.66351879048681,2.22574408521436,-0.985222436352643,-1.58084169293587,-0.525956771586266,3.28801746132712,-2.30621291891849,-2.7187355071679,2.305378936866,-1.04939633378572,0.460909944427146,2.50395929067904,2.45574472622486,-1.53067799531006,1.65903531198481,2.45618733254468,-1.60871931136219,2.29614381098697,2.3037305963962,-1.41099510494271,2.17271180258528,0.0471365685812102,-0.843980887964729,3.84711446796512,-2.58111830184984,3.17198514526586,0.485874874709081,-1.38583003334651,1.28817121159804,-2.45090843520681,-0.873927463857957,-2.69976124013395,2.12675902044864,-2.4687458359699,3.17145633219346,-1.31999235589537,1.86623800649293,0.00201285472955975,0.60525545621112,-2.44120795200271,2.1322460607906,0.317047502795763,2.53285713927879,-2.81572261908913,0.79633167198829,0.315794941605816,2.69548613011654,0.984725213483527,2.70898576643382,-0.214552453002269,-3.32433935276879,1.30154893494529,1.55995222855727,-0.0907462417281438,-1.06650368977698,-2.41849052428385,1.09693671978116,2.00430408784226,-2.85759380014503,-0.963901038681671,1.56399044001378
"FerrerSA",2.61118242163232,0.772214514180015,-2.45201798395732,1.09425478346489,1.29944455871984,-0.0489106082360902,0.684067777824398,1.19771104928222,2.56441807354043,3.15113671785393,0.386418613288537,-0.220241601592012,0.925361189834943,0.947340508239375,-1.52409262288651,0.0888245186944354,-1.15715344721704,0.234689836860855,3.4693132404981,-1.10938830676123,0.855196065372617,-1.30918824689391,2.31727417566262,-1.95871247919812,-1.72620552220358,-0.364262803940036,-1.79660722138443,-1.7146867583755,-1.1006788319448,-1.29304901047496,2.58754023528439,-3.02232293644283,1.89390243873649,1.95775910939018,-1.89194173948564,1.20291225194118,1.5069635320991,2.7867472656463,1.94471260492352,0.592414265150296,-1.12816986618024,0.364111340736701,-0.186351503361135,1.52697461268134,-0.348228827096245,-0.442513852193064,-0.0875765993026646,-0.862298229086853,-1.93336521706894,0.929684982965067,-0.456840838902015,-2.35390865602765,-1.09288156113367,-0.730103697762874,0.857058327764384,1.88274727276541,1.13907965003012,2.18279444944085,-1.9452075334907,2.23486692618895,0.983070941401618,1.04018002578807,-1.32030715497287,1.38928844946195,-2.15242893969117,-1.30211236629025,-0.335756797780634,2.12077910755447,-1.52695390145452,-0.469666966950895,2.17073715249416,-2.54140049991377,0.225065965688867,2.80849692348303,0.787156964841499,-3.0854444339118,-1.37451470484957,1.85010164653117,2.10834663563281,-0.143482173911525,1.18946070612902,2.6988497253121,3.01067794797431,0.430346841129872,-0.961124225028832,0.778548438413443,-1.85066620662629,0.70099893237583,1.47823743959838,-1.20190603834357,1.28152714839596,-0.94046626858927,3.44955091055917,-2.71339686832733,1.18182247404657,0.521261535623264,-0.773076440274981,-1.20067835718669,1.00340105835516,1.28740740554852,-1.80319538064586,2.55211460449105,-0.723091599112589,0.905869100815767,-1.44523539042947,-0.733800407341728,0.694770131293097,-1.50829000822194,-1.51751886547708,2.61390743012974,-1.9452336855012,-0.787729391538306,-2.02304888413674,-0.603615101234256,1.25377474031692,1.76058495762248,-0.0590064949191935,1.1455773062506,1.9442798561193,0.932830608851945,-0.287713126190852,-0.993340444046372,1.14248057221495,-2.79296629621714,0.902530897241229,-1.15001264090578,0.45417205826559,2.04230260195516,-0.477953261249476,0.127860247956607,0.729082721472744,1.78117314488737,-1.06407283722791,1.00292026997536,0.331295536051797,-1.9721214956157,0.95612676463067,0.132057978908337,2.13941145686514,0.368886448604568,-0.0972898786715194,0.998331664508711,0.809254002955739,2.73908017743211,-2.04155833685177,2.69240731356895,-0.999868910679065,-1.2273183064755,1.30537193498013,1.92798566836299,1.85201908864321,-0.967015788218946,0.926595222720142,0.0798361057955914,-1.52024164524912,-2.2270614727453,2.10357458199571,-1.11470991929882,1.85803844695786,0.601503741867115,-1.03377203456168,-0.204917429088569,1.49336523352889,0.603841102845616,0.247271811637442,-2.03153993486241,-0.947746883681338,-2.33418663827456,1.21346566809254,0.904534671799849,1.51569657495226,-0.908796671771461,0.329196141099991,1.29997857960816,-0.516919425994329,-0.539180417685961,-0.817006963948007,3.11834934002171,-1.95225957343772,-1.66012486677717,1.5162296601759,-2.24490798031873,-1.94720233436988,1.24260172949592,0.242434038347641,0.616858312765532,0.109778318482426,-1.78500283121756,2.26997768806774,1.53913416351068,-1.24098708870704,0.578956829136507,0.75943227527369,-2.17583858081323,-0.968628250620826,-1.06488743031961,1.63543285430675,-1.70205242567239,-0.651222506074737,0.846150874426136,-1.59991235898937,-0.202695683811957,-1.75399416826149,-1.96920084780385,1.02754425037102,-0.457698189370108,1.14485293957068,1.82635328185439,1.16911224172658,0.769283879334007,-1.8760741546415,0.767548495435256,-1.1848149760378,-0.901746075722512,2.7242145768782,1.82526069749782,-1.3626715856821,1.88726132996585,-1.04514723693907,3.226346995095,-0.796502189897642,1.36613599285539,1.70640770918977,-1.27927249464005,1.85681058996392,-1.78487404046493,-1.30095035124851,0.60567277371152,-0.0942887806951314,-1.28113499634653,-2.104346115949,-2.45971090714007,1.43989638717928,-1.663169492588,-1.96197345360987,-1.24380479647574,1.7948209741277,-0.172512333928242,-1.42254613199321,-0.447923304552866,-2.01264728747603,-1.14691306553122,-3.23281192161215,1.66557903518587,-0.752120804898646,-0.81007067222767,-1.9130461585442,1.80081920421217,-0.0466524936467059,1.04124804982378,-1.27342899884949,-1.70040712248081,0.625931541506658,-1.00941735203191,0.487377861681166,-2.76636243843535,-1.74750846330705,-0.624173541084806,-0.980291599543729,0.57690551989921,1.02789042359256,-2.38401648851827,-0.593553573049143,1.45042869878347,2.52737518636766,0.359011175506809,-2.72275207470584,1.19081345915425,-0.22839472453742,2.7161079589153,-1.96872140472984,0.0500152692534202,0.24084225099365,-1.49692127352707,1.26883859197079,-0.361838011083483,2.06328029822872,-2.31216913829948,2.13714011078141,1.43240973812774,-0.467421023092412,-1.00937958563204,-1.62362198573315,1.30650644827988,-0.788682077991353,2.71388296599913,-2.43655644153348,1.71868215716007,-1.6521438199185,0.664780461508524,0.976710183172926,1.15093466404048,-2.10358305275771,-0.580744136266089,1.77131104057696,-0.163832162167136,-1.19507186392881,0.38867912049069,-1.36037902017396,2.04278959370424,-0.518100428401101,-1.4131172340521,-1.32366665463403,-0.192854209141039,-1.4793277938768,-1.66469503932028,1.1494336036206,-2.56008662994668,2.0517641037653,-1.06620615761904,-1.22171073012634,-2.16049117475049,0.591690317365081,-1.00763197307517,-1.89085166939558,-2.78298075217494,-1.87276333247383,-3.67804226304838,-0.87284020997468,-1.37676922183048,0.671272407782298,-0.485206728179885,-0.726758207247096,2.22608262451372,0.0942415111944468,-0.0534645146392853,-1.16017137180951,0.377236297748932,1.19546613776191,0.0763471842828372,-2.13483338066034,1.56367699912853,-1.34117830441631,-0.602771347508036,1.80554438421579,0.0734061712662889,-0.874969484557473,1.4204031284032,2.07293162537185,-2.08531023890874,1.3653482724531,0.888854845473612,-0.625408443228192,-0.797915530156314,-2.4609725507845,-1.31770420029781,0.221990603759064,-0.875899316136433,-0.398512581451113,2.95935128829075,1.55145774027642,1.61791489659085,-0.507427233169082,-2.80757397449846,-0.925790467671463,0.957908070808808,1.15423225224292,0.239176514933033,-1.36360872091005,-0.0422438102148017,0.984718422340878,1.6306569374994,1.68097309196139,1.38419029802966,0.580256601149928,1.92079651949219,-1.42988678934655,2.04047213707594,1.84116987168685,-0.93162388040531,-2.18404257102638,-0.5025369404815,3.21428456029033,-1.08984922083685,0.738215143089453,2.52524819739204,2.78520272500278,-1.28114198744071,-1.10793695209333,2.02113850880325,2.95515743659651,-2.49210728746234,-1.61343523922993,1.38148968202826
"GarciaRLM",0.995245334064321,2.16476017801742,-1.33625053709475,0.665699338473913,-1.95821487026491,-2.2862104595573,2.62256931670562,2.24537331260239,0.587390711137211,0.891049804150618,2.66292586602923,-1.54132184196596,2.4627753035223,-1.5711777709675,-1.37657652911558,2.50421298679429,-0.892830410016809,1.69563997327949,0.46810470070014,-1.09992010806359,2.13186829293762,-2.13223691623207,-1.61342127073333,-1.95796587046217,-3.06323932216338,2.8125484762185,-2.19663354399894,-2.39299052232267,-1.70340469490689,-2.16226984526078,0.810618757381368,-1.55688703222827,1.81230213942344,1.71131492716979,-0.213407428156598,2.1231512854307,2.56948789801357,1.19161978703185,1.0970959916041,1.26556584948954,-2.18776636125034,0.103836215639458,2.20235268785112,2.33821198942596,2.46507217340339,1.93607096144928,2.33537023991773,-2.14945565932089,-1.41227651436263,-2.46744468226925,-0.598197576752281,-1.13670491975951,-1.28093368948188,-2.58824482416836,1.82761036915014,1.31956328757167,2.47685635897091,1.9792137686062,-2.07901000461879,-1.02053534952999,1.59036632586441,1.51665188796322,-2.19357138063405,2.25781184851726,0.0728843454998123,-1.90495317257377,2.47056915948385,1.6356833976472,0.404800209580741,2.16848199733181,-1.14884285941884,-1.13538371057661,0.676821655065138,0.945651025235656,2.37403134649032,-1.22651221344854,1.54740741093538,2.23353391506623,1.73467291749632,-1.7519661743222,2.22754611931149,1.74855775865284,0.561905220012886,-2.08161516244527,-1.36612135426806,2.32391850941206,0.148734147386697,2.47140321869789,1.4385618972627,-2.01436559423491,1.25864353012149,-2.09683589007793,0.800243268745842,-1.02217613752503,2.36767573671794,1.52210537666378,0.761315495165792,-2.14125168575612,1.91291838579958,2.16288632283035,-1.0349693677827,1.67765582820746,-2.40313275548814,2.43017566252496,-1.71893930166207,-1.78867515733712,-0.206733562365926,-2.36900108318313,-1.8144968918519,1.03186218750501,-1.45328079061187,-1.40754875996082,-2.12037160700749,-0.610780689740695,1.79388989416106,-0.608361435856862,-0.0752088977782609,3.04748736057117,1.74253503468873,1.87761241803181,-1.7128999966851,-3.40797078436497,2.19772088800544,-1.98335903138337,2.82532512997927,-2.33945336091489,2.18067344226001,2.27414701711205,-1.65999521921768,2.0293050136509,1.86775571302514,1.8974799720716,-1.58389111812101,2.02225498828172,-1.88176335556549,-0.748627073086029,2.7088270288733,2.11244472419867,0.69611436071624,1.51215427196593,-1.67602952373246,2.22404092379697,2.5687456158495,0.10029601794584,1.27552519219202,1.02859394579802,-2.36015808052766,-2.26274416371194,2.64643028932094,1.6979903088559,1.93950532433769,-2.25350579827209,3.20127716945861,0.548832641078366,2.35670840487432,0.238158920277501,0.706466312238807,-1.9351214875927,0.940895343792565,2.11947878443576,-2.22913368647353,1.84895634130508,1.99553716719561,3.09048516194051,-2.62743425873918,-1.94171606702566,-2.17549190123806,-2.21444644996578,2.30938553413,1.2237712295909,1.39755365867509,-2.04074278177117,2.44932835717912,-2.15586526573334,-1.6622426710797,0.600401909502863,-2.09768941923497,1.04332905779687,-1.64172301090576,-0.363123302851969,1.928712862442,-2.41933146742473,1.83207102443412,1.32341553393813,1.78102874382987,1.76542764100921,-1.56661144253414,1.93757706723701,1.87108973773547,1.05797566607441,-2.12588379621725,-1.69944899256887,2.4976802763486,-1.83388966802293,-2.34185230217605,-2.26143731177141,1.91290471383259,-2.45878757825934,-2.55028625997922,0.279755461450121,-2.11657263013414,-2.21821908760043,-1.87212582513913,-0.38279999333311,1.45263387151583,-2.24780859933504,0.46821147964425,0.923021352950591,-2.05238740377437,2.19663444454149,-2.05148890575604,-1.85972704268447,-1.25895604935703,-1.93560095025101,1.28808701000675,1.1564808953508,-2.72925736268474,-1.52594494379617,-1.95212669519984,-1.87018023171474,1.91486135533114,2.42802981626327,2.01055074184346,-2.21249036185921,0.140072532370848,-1.24290687606909,-1.90423914198906,1.65681639675576,-2.39508140843461,-1.87558166258333,-1.09290364267019,-1.34040849329141,1.35422577951609,-1.77657593798379,-2.14038124166508,-1.77990659740164,-2.18663725357913,2.55899377789165,-2.24297690083075,-1.66943816679111,-1.49937135464223,-2.08925207774008,-1.55042086596414,1.98392547101981,2.530846160316,-1.55624955434648,-0.200323653888804,2.248009948145,-1.69252249462503,2.2553276816577,-1.86973361818687,-2.16901059898869,0.110895562039781,-0.683986611013441,-1.00568714912761,-0.871898315250788,-1.27383210531141,1.60273099689525,-1.53327038317466,2.00936453067959,2.10643875168578,-1.48844632025134,-1.89583507057266,-1.66331481948221,1.77946370890937,2.12145791705292,1.2607466501072,2.42455804800804,1.12254009837419,-1.31496975859938,-2.63675779345202,-1.75489893428984,-3.02930115172347,-1.83004507893379,2.19302007770744,-2.84864039417292,-2.17731378888425,-2.05999369974275,2.25119759974185,2.57953587213852,-2.18834214922907,-2.38805900420846,1.17495043391369,1.79469922736744,2.44143859032599,-1.48931000597214,-2.17402310412597,2.0923391390626,-1.90543302627543,3.34561696167565,-0.415789399647701,2.65109189571564,-1.9943053665932,-1.0884032661117,1.87115496314066,2.54462728855691,1.81909575647285,2.05366091732559,-2.38381349361965,1.32230308504723,-1.50542044214766,-2.44836230222099,-2.13044815389274,2.18894479900475,-2.12668703103065,-2.02087684040885,1.96652076714958,-3.09872284372243,0.270966035470563,-1.77814555489475,-2.10373697521217,-1.56573360416405,1.96057037438203,-2.46288118432822,1.51684629194453,0.234782171092721,-1.52590201372407,-0.0925326407710796,0.460392491688081,-2.19283394679169,-0.0203593233008509,-0.870431976860134,-1.89941924058246,0.615015086246414,1.91604190791388,-2.40634165766076,-2.35835416233259,-2.73740865776162,1.70818281275007,-2.16688620477411,-1.64474718462787,0.753508035913124,-1.66778713448042,-0.586486325166555,1.87149795878203,2.67890879659636,-2.14213476392082,1.93171264929898,0.334015011502736,-2.13711282276657,2.31306504012635,1.77377268634305,-1.16402841709714,1.39885444933081,-2.00215960534669,-0.126285434696237,1.22134678916264,-2.37876496108166,1.18277586878872,0.812502889205522,-2.32137719360668,-1.15845699989356,-1.85155663075062,-1.45161117200938,-2.56834682731394,2.07775059696114,0.592263741717053,1.4627383329951,-1.15290898965496,2.35828619445572,1.49405546487075,3.16574886502385,-1.40661904553209,2.84657732147156,2.2734258925271,1.4207219776087,-2.37894468045137,-1.89239984806411,0.665459913368833,1.31476941126267,0.431664864140283,2.41361369879329,-0.831606802617614,-1.76568105776391,2.49128886913556,2.7708395555223,0.176322851048765,-0.361805868088875,-2.26858545292693,2.54541823541742,1.39949245676252,1.0800734858911,-1.94112666109726,2.75324271474169
"GuijarroMF",2.29219014265118,0.163755598648703,-1.33640600289245,-0.292353736489115,2.05709378160894,-0.406364539006776,0.755938727372835,0.103617872736989,0.978452799870344,1.65271460081644,0.469259815272755,0.556144699983606,0.0653123337576014,-2.1288452393331,-0.339653438923962,0.701175415734468,-1.00941973325101,-2.29449082678357,1.03533683154717,-0.283649384143115,0.406857724747809,-1.22832441341223,-0.93731900897125,-1.02776498649262,0.78217514016173,0.0108401654070498,0.0212588953044183,-0.27967955517415,-0.757411653308424,-0.402331408231305,2.53713892713354,-1.43253193636154,0.833313198771561,1.02184931467199,-0.127450209772954,0.399576272749844,1.16803252585406,0.362234809022371,1.92529878848237,0.332236493692662,0.288054382273677,1.68326602455469,-0.44522898722063,0.210018112050548,-0.354683927623583,0.426155438191775,0.482044526163498,0.0742290410217552,-1.37238506339339,-0.147068184626612,1.87613877918732,-1.02507278059356,-0.573406666511495,-1.04356007443471,-0.433899491937718,0.972455846878049,0.722487832133485,1.00123798162873,-0.869904897403787,0.049020417336168,0.952879263678822,-0.198706929527453,-0.371069012860325,-0.166574095029055,-0.242215902961556,-0.608039373611107,-0.798007830267656,1.28820418580729,-2.52265034233123,-0.106957922748008,1.78388185212005,-2.21274059618215,-3.34193367228739,-0.617459662353863,-0.166503178625205,-1.66142901200943,2.00664733602073,1.38592127388537,1.70675051984175,0.0200645327862737,0.786538592295933,1.00201553706416,-0.0653884942439726,0.342657891193253,-2.0509849383591,-0.144686957804873,0.763764941796028,-0.0172130317128604,1.83930594255236,-0.394539276292924,1.05643173595449,0.834065793704173,0.874999671589827,-1.23292316419737,0.370024449566603,0.819253399353243,0.24004887950672,-0.625467497486024,0.305970146004491,0.541152988158378,0.586582858086447,2.23859715590314,0.0324582350380557,-0.524617874646066,-0.8291349503166,0.263003887115565,-3.0912615203662,-0.062322675587986,0.154952415321757,0.623394302857937,-1.50435679090886,0.833874749324989,-1.91576752620898,-0.250096091181269,0.332741752194801,0.949523993152935,-0.638286200139382,0.157169642863023,0.819610451937063,0.0262872657269438,0.618839192406178,0.357347595252203,0.745058736512559,-1.03085369035336,0.157533720541727,-0.401526261086129,-0.654270111373817,0.0345029977749164,-1.68054027451313,-1.47037778187584,-0.447672397149994,0.135919712883314,-0.557874043626737,0.399303847090201,-0.621835250015274,-0.817842682903729,0.733029561015237,0.407170206311834,-0.648757511447417,0.560890858925065,0.0274445733402945,0.76739865906151,1.65803926836254,1.27469702291478,-0.476277749596365,1.13846495305525,0.780228284129608,-0.538183283129193,0.506005042564816,-1.13577577321,0.667389794462728,-0.545907474857497,0.869986718665162,-2.61849993981781,-0.861820382065295,-0.36295399496755,-0.181613616427357,-0.339359038512512,1.67080074968094,0.708320136643303,-0.288880774930108,0.376582946096068,0.292118515732984,-0.275818738971337,0.0991525818847629,-0.94819793906796,-2.45070116435397,-0.721952560553512,0.458592711359978,0.143977014990641,0.631519435033463,0.454351869820585,-1.63704638765283,-0.111374413942894,0.23892349803986,2.00641371557493,-0.334453231463385,1.09394047737568,-1.24569773149229,-2.47162176412752,0.729727706826469,-0.624545352792828,-0.488633930002462,-0.433636533937476,0.517585190635114,-0.690322800120538,-0.463894347842783,-2.0067756093101,-0.301274074918532,-1.36417908798113,-1.11543467881677,0.480877117339474,0.0546713834863074,0.202664284606118,0.2560928659307,-0.254699682980786,0.835263921537683,-0.790857160290072,1.69462775437753,0.496260549337789,-0.495078230747576,-0.635965640807817,-1.1344134698019,-0.541607381953952,-0.135965051832562,0.527652573503434,0.612201601310439,1.62560486610297,0.493922346700788,-0.289899363390271,0.807798438888868,0.182287013578114,-0.615767874557407,1.20556227154589,2.90614195718928,0.901908131827893,0.535796382027553,1.33481795279295,-0.895881352465939,0.933460471292483,-0.8968523000744,1.34343910635148,0.245546762758771,-0.396000651236652,-1.8960392662135,-0.540506679334187,-0.397433481330029,0.294758011036407,1.37810803301854,-1.65284851360734,0.453293509512432,-1.77702182110228,1.31407952059663,-1.18212742729559,-1.56079627025677,-0.30357402224786,0.968026812207835,1.154981454331,-0.800150856576156,-0.0391399908903329,-1.03778909599194,-0.720946156450162,-0.280981618537125,0.271964491942872,-0.848649808592176,-0.282845394422502,-1.2561941969436,1.05429906043883,-1.15076218278877,0.192981292350596,-1.00522034615085,-0.952116471638268,0.208048469017627,-1.5766846753534,-1.25740879408579,-1.61249794461979,0.645453832437507,2.18592636786892,-0.789452093604525,0.706916278142004,0.591403413180914,-1.93062922165243,0.614998814486123,1.2938943379398,0.89503782781016,-1.13547046278801,-0.993264204113293,0.38274750102891,0.00648221899063015,0.548932763478479,-0.391438337811891,-0.853721552640093,0.00861551138890051,-0.212975731469089,1.53221370850678,0.879234302269107,-0.776081308884435,-0.36522007018469,0.24356495851478,1.22740782353794,0.615286541661744,0.128040877711605,-0.57218104619362,1.15399427224489,-0.665112143245738,0.910254728484397,0.136008844576045,0.951240265595248,-1.09446372404689,0.828724058233,0.380464171443919,-0.149799677857588,0.318367551535295,-2.15171491121018,-0.0883885903719998,-0.287147663694002,-0.999473109946348,0.271924942156641,-1.07002367798811,0.60684145996998,-0.775066374357288,-0.240414399670868,-0.0405152210121618,-0.239786324182254,-0.444424354080292,1.25398903587216,0.965304945404004,-1.79007241797652,0.274940210488667,-0.999715559777701,-0.284957590189448,-0.998736985096749,0.197311141808545,0.480127496086364,-2.57645731185358,-1.80209941588767,-0.230007602671494,-0.732259114505033,-2.07099355636201,-0.40996410749173,0.0443384882127812,-0.506730817171884,0.429513578913801,1.76002085087527,-0.159459097831207,-0.787962928946552,0.110097266392515,0.766948047717046,1.69354907873018,0.0122352492847271,0.181324449779889,-0.0944643942059855,-0.93171093435402,1.49249328937554,-0.772761722194399,-0.212267741580448,-1.07569599201626,1.37840715482074,1.12481060992548,-0.235365484547973,0.841145414014514,0.297997996322489,-1.86246856808976,0.797186337962738,-0.273096072019778,-0.092620009965942,-0.480654642375801,-0.0312592057924881,-0.619503152589145,1.67691526929149,-0.277350038775199,-0.879984538845817,-0.217848108311406,-1.59573085544796,-0.551600797286653,0.892843866972762,-2.06892316282846,0.0524530224019647,-0.69197481575214,-0.65150948168254,-0.112343287856038,2.09692572903951,0.195935128786259,-0.00413418151674994,0.630659597231266,0.443075631969882,-0.990642819634284,-0.129456268082686,2.28939813107685,-1.7370639150049,-0.310988333570179,-0.613635357545473,0.777535219640252,-0.19372237006759,1.16397188957415,0.233009802619508,0.732070351910693,-0.17062920996847,-0.211365430905357,0.939666522799963,0.44402794017551,-1.34070607133978,-1.43781082923051,0.390394832076419
