"","X0","X1","X2","X3","X4","X5","X6","X7","X8","X9","X10","X11","X12","X13","X14","X15","X16","X17","X18","X19","X20","X21","X22","X23","X24","X25","X26","X27","X28","X29","X30","X31","X32","X33","X34","X35","X36","X37","X38","X39","X40","X41","X42","X43","X44","X45","X46","X47","X48","X49","X50","X51","X52","X53","X54","X55","X56","X57","X58","X59","X60","X61","X62","X63","X64","X65","X66","X67","X68","X69","X70","X71","X72","X73","X74","X75","X76","X77","X78","X79","X80","X81","X82","X83","X84","X85","X86","X87","X88","X89","X90","X91","X92","X93","X94","X95","X96","X97","X98","X99","X100","X101","X102","X103","X104","X105","X106","X107","X108","X109","X110","X111","X112","X113","X114","X115","X116","X117","X118","X119","X120","X121","X122","X123","X124","X125","X126","X127","X128","X129","X130","X131","X132","X133","X134","X135","X136","X137","X138","X139","X140","X141","X142","X143","X144","X145","X146","X147","X148","X149","X150","X151","X152","X153","X154","X155","X156","X157","X158","X159","X160","X161","X162","X163","X164","X165","X166","X167","X168","X169","X170","X171","X172","X173","X174","X175","X176","X177","X178","X179","X180","X181","X182","X183","X184","X185","X186","X187","X188","X189","X190","X191","X192","X193","X194","X195","X196","X197","X198","X199","X200","X201","X202","X203","X204","X205","X206","X207","X208","X209","X210","X211","X212","X213","X214","X215","X216","X217","X218","X219","X220","X221","X222","X223","X224","X225","X226","X227","X228","X229","X230","X231","X232","X233","X234","X235","X236","X237","X238","X239","X240","X241","X242","X243","X244","X245","X246","X247","X248","X249","X250","X251","X252","X253","X254","X255","X256","X257","X258","X259","X260","X261","X262","X263","X264","X265","X266","X267","X268","X269","X270","X271","X272","X273","X274","X275","X276","X277","X278","X279","X280","X281","X282","X283","X284","X285","X286","X287","X288","X289","X290","X291","X292","X293","X294","X295","X296","X297","X298","X299","X300","X301","X302","X303","X304","X305","X306","X307","X308","X309","X310","X311","X312","X313","X314","X315","X316","X317","X318","X319","X320","X321","X322","X323","X324","X325","X326","X327","X328","X329","X330","X331","X332","X333","X334","X335","X336","X337","X338","X339","X340","X341","X342","X343","X344","X345","X346","X347","X348","X349","X350","X351","X352","X353","X354","X355","X356","X357","X358","X359","X360","X361","X362","X363","X364","X365","X366","X367","X368","X369","X370","X371","X372","X373","X374","X375","X376","X377","X378","X379","X380","X381","X382","X383"
"AlegreGC",0.159599885668146,-1.07511423414847,1.14147758105344,-0.985707679608454,0.0531515008542283,0.761563141503497,-0.551080689658618,-0.978610758667553,-0.683889628109951,-0.992584029842511,-0.768441162648831,0.870451843440486,-0.961647775270303,0.765148526484859,1.03974649757,-0.973014520662517,0.59023036547319,-0.910384003660996,-0.783374497233799,0.799517149733711,-0.988919286250875,0.941993905458014,0.104725249425282,1.00522778025018,0.594467277316274,-0.571096188131956,1.10955655196999,0.990746810352457,0.603836314955891,1.03298293682661,-0.372589764821699,0.498583485803688,-0.995276026842448,-1.14973920619889,0.585577895321028,-0.955254133361783,-1.13306072193795,-0.31252777051681,-0.774525450941121,-0.817234012895546,0.660324609957233,-0.616661111976964,-0.913478275023059,-1.1233992234528,-0.665006368659394,0.0486136721751821,-0.79092855780877,0.971029921935054,1.09660807770882,0.190935059404964,0.45383388441136,0.997248327929713,1.07550201203275,0.887563159011004,-1.06901173364226,-0.986130444341949,-0.980666884156278,-0.765089614528305,0.623865013207087,0.651117427387216,-1.11090118969523,-1.22211383954926,1.0677727425322,-0.998417892491591,-0.41650699526375,0.894860126229079,-1.00366135136097,-1.01617341508066,0.370209123205219,-0.833380739370869,0.71256105794707,0.98764937378195,0.191665199047083,-0.377243349211451,-0.920387327286334,0.908118928367269,-0.637045352861736,-0.856971341948423,-0.589443935785485,0.315582064647854,-1.09315234092796,-0.81189741127491,-0.719505007671489,1.13480591567105,0.964009610452426,-1.00278038023983,-0.098510126931434,-0.793650310051505,-1.06997954448016,1.02237936336041,-0.74550714031653,0.842958937928199,-0.50000705129116,1.15603044102962,-1.03667614979728,-0.631854086419944,-0.572360413074789,1.00170531149484,-1.13989426813222,-1.01428016361254,1.10458839304879,-0.626319101146163,0.982247821157165,-0.583453911357888,1.19633500221326,1.10751319144435,-0.436647891703927,0.68925723396966,0.963086901954599,-0.871241589684815,0.734792188494185,1.21958376981114,0.85902698327462,0.729883946024563,-1.1496427352807,0.342426485530646,-0.0344756334986668,-0.861517836799536,-1.15512483699774,-1.01672155491168,0.8697090637614,0.451269374564165,-1.03895832845889,1.05853509997986,-0.789679822940421,0.985210918138317,-1.00018296391521,-1.12564856440678,0.885053749168099,-0.367320067254609,-0.998176829170449,-1.1175244181708,0.948724075220313,-0.98133246595775,0.202351116057766,0.674920458241932,-0.712580624842052,-0.78010942379274,-0.669972224212546,-1.36321417171199,0.836145286938234,-1.04418350417657,-0.486113458928023,-0.523397023065074,-0.4735317766537,-0.926818322105784,0.273956445416628,0.87235184896039,-0.989235938464666,-0.991866814722698,-1.44421954636616,0.905542281451139,-0.860010162353957,0.455032988599084,-1.01842867824972,-0.249091340607483,-0.664407898898959,1.08248950428946,-1.00498751237182,-1.03109805702616,0.925135378948198,-0.576883413258232,-1.14142659811084,-1.0541199502869,0.715511513763027,1.10842617427849,0.148363309660919,0.788146133558307,-0.859995900116854,-0.908899813942145,-0.726599798385814,1.05955564956078,-0.925881785504317,-0.014834865254955,0.586081450672393,-0.612363627507832,0.721608079962011,-0.721132673750984,1.1203400910586,0.505878219935584,-0.650380085734007,0.806345911658372,-0.412553518240265,-1.03252600791444,-0.447323243506859,-1.08054984960122,0.218221848210482,-0.322736898281904,-1.08608964108675,-1.29805254949045,1.22054564010638,0.53494942361945,-1.00190146581972,0.474271907642864,0.917536619980064,1.02532570472824,-0.985674249367325,1.00864854419938,0.850666935495992,0.239468735067305,0.985731940954857,0.773396022864975,1.05096609431098,0.787147050605193,-0.819316641034497,0.792039803349302,-1.03085343952278,-1.10943852899908,0.799485723315985,-0.88378190492729,0.665748811704184,0.967088704841313,1.06521024307354,0.812730469339293,-0.183379361606047,-0.568642296706634,0.978742351763194,0.476261567641124,1.08212542231171,0.158506300120971,-0.746478802775165,-0.895235911007797,-1.24608593561875,1.03042136720113,-0.30028465869398,1.01048682323157,0.939794769731298,-1.10301715957369,0.70430214007735,0.549592128436446,1.31658611042185,1.10469174055464,-1.06450544844201,0.945819764622985,0.805428232405386,1.3852549609732,0.258824194123139,-0.787884877885068,1.03785419907371,1.13421660276093,0.355044493172683,1.03507905214978,1.09947156686083,-1.00686211680793,-1.2863950496119,0.783905843899956,0.921095170834813,-0.964242072378678,0.780459663493643,-0.947890880779784,1.0309924794129,1.08740878792797,0.112441468333116,0.88281703723276,0.0719661372671362,0.443787775842714,1.04927949075481,-0.40241945672249,1.01383494731263,-0.66379148514159,-0.990959913810609,0.643173001172072,0.872285561948749,0.363211825198787,-0.955506708336591,-0.949062089770367,-0.253221828528554,-0.911441295475999,-0.400552623941419,-0.337940667128484,1.29865815942293,1.22692195400008,0.725321729253242,0.893055232716453,-0.806302915042747,0.890290812043927,-0.530409109287482,1.26478453157146,-1.06583749104678,-1.28898664172986,0.82945870024276,0.964354322374353,-0.783456483929454,-0.952724457920552,-0.118840941589953,-0.28108129787314,0.535854525918346,-1.15115735381025,0.964259395199144,-0.572041325999532,-0.506912991399856,-0.934612351824875,1.03653199792969,0.518122546638473,-0.897890137152844,-0.917619581587548,-0.460386893609488,-0.689620866882424,1.07849229089614,-0.853542846909599,0.187002513464442,1.00339820283939,0.975857125557493,-0.907785457025139,0.798027501739045,0.807214040761182,-0.997444786243625,0.722038602232667,-0.982404865211369,1.06273687578483,0.958908539543446,1.06800484821795,-1.09099131343634,0.712497402237022,0.396290179659942,0.640784929027716,0.920390648060762,0.854254499496758,-0.419337252201957,1.01641897840249,0.816278515797928,0.957454301685255,1.12062722583695,-1.11436714432252,-0.824831687800583,0.200313683441848,1.02674709861982,0.682726131590663,-1.05958176742286,0.809573375886777,0.855545943645836,-0.541492065902075,0.959296480956705,0.702455861638585,-1.15669103287111,-0.7237687734683,1.03192333845895,-0.516119196479552,-0.580028054250117,0.744985282738963,-0.999389440262123,-1.10048764096122,0.745148148601902,0.393196712820189,0.886722023816766,0.99893725773971,-0.465865840231338,1.0815196778186,0.0130607738931071,-0.802805127240376,0.385295175014504,-0.713110757482389,0.566179320523172,0.945977862516898,0.88783168599066,-0.96547048905626,-0.670496916882881,-1.12782203574783,1.36869791673348,-0.955205174686974,-1.32731535969079,-1.14331166522968,0.654528510733525,-1.06961635775269,-0.873210604165729,-1.14706543150885,1.05666931693749,0.0617654921585189,-0.93311442897487,-0.637488265202342,0.443155427365188,-1.06101738312859,-0.370699194036058,1.020279820693,-0.753620214727521,-0.985379126704489,-0.602442087962031,0.858473258709257,0.879035325349621,-0.758381023735296,-0.950350092258906,1.24507782236606,0.569500123644424,-0.915574180831384
"ArnauNAR",-0.00319150250471305,-0.744478622251998,0.67440167497615,-0.872831849536946,0.374351882934111,0.828672066212555,-0.468459844354577,-0.803463756256416,-0.60863297348639,-0.762274920803006,-0.881350076026916,0.295242566397547,-0.729489509417788,0.898942701155598,0.842895375938035,-0.694094509956684,0.97490706424621,-0.819931600905755,-0.257877043462445,-0.15815541448362,-0.819931404070581,0.813514105150404,0.752562975531733,0.667556263459574,0.597217911268342,-0.685247555428724,0.96498384429809,0.862833794526256,0.292609162037323,0.834371381759105,-0.66449714341585,0.322302114791327,-0.819302999816274,-1.0333092692189,0.00573702494066707,-0.762558027093021,-1.50077168301085,-0.528566595887381,-0.786884910796838,-0.740343089194046,0.776359179424553,-0.709807239998525,-0.862094774120136,-0.793145981480908,-0.611249240187979,1.0425894049176,-0.867601832763176,0.492308131324369,0.842037705450289,0.549152668195255,0.570249739667276,0.722926418424989,0.842159928579691,0.354245181451266,0.424046542457313,-0.724525700252447,-0.698554952263693,-0.0512607203218875,0.388495353524422,0.825981385414625,-0.609871226698172,-0.622573070272542,0.822625676919421,-0.881479962283754,-0.419106683516741,0.260369770325514,-0.908460756657294,-0.454307197985671,0.317614623526325,-0.698397548472055,0.0852792104938843,0.449791116951156,0.245757502097595,-0.663642212194113,-0.85272834228747,0.829885190288667,-0.619676176229096,-0.65655337863321,-0.544170489227482,0.458323942779015,-0.67685502808646,-0.583459420927595,-1.0256838592037,0.703370832223421,1.10149648455558,-0.605419550314755,-0.0698039872075531,-0.681765344480777,-0.34806727315958,1.03938918262211,-0.701221193504524,0.775166772992107,-0.623320867035232,0.718978092414973,-0.76597896849255,-0.652673283252972,-1.29242500613385,0.728602665130436,-0.942927164328477,-0.816704402150114,0.61417917365185,-0.526800044830866,0.344699743639634,-0.196636511137865,0.843932351858451,0.933889481769354,-0.394462740159015,0.985220642510728,0.273453014474067,-0.26803432600505,0.670269978790239,1.60002789194299,0.58996320178256,0.451543756105692,-0.762899629770784,0.98210072759782,-0.770313717046423,-1.05261793801253,-0.867467589578703,-0.507672099117566,0.679328525565267,-0.0386194500665187,-0.61826961588494,0.625536675819076,-0.632781999695047,0.751886149683557,-0.663791889994402,-0.89017909085411,0.744202242100048,-0.22374693973348,-0.552728818862928,-0.458165332956469,0.73526244382304,-0.927234264642183,0.137280250404638,0.148666094656478,-0.626555876411369,-0.738918074202826,-0.492907285266451,-0.215253841072236,0.352191844945386,-0.734494522650258,-0.420923101307184,-0.820492193576873,-0.583978712774736,-0.516916650598642,0.3939007206147,0.797562675423533,-0.231254530188973,-0.926079497587653,-0.908646054942507,0.750582452151824,-0.578420857810891,0.575925119262346,-0.682938390648512,0.393286273467568,-0.917451249785778,0.689276191725884,-0.675605333169516,-1.02547100697224,0.56912727403697,-0.697015817752581,-0.69913093585779,-1.21437082405529,0.510383095729116,0.803709560725325,0.570035737865797,0.774543357222375,-0.703313781929078,-0.75207215504477,-0.812327805274595,0.702891369520897,-0.675668918736766,-0.298490016691919,0.194543336180766,-0.482323317142627,0.677453349665326,-0.776741864127965,1.01952485575826,0.383437163712261,-0.341953814979375,0.552309569452762,-0.479651229465363,-1.22340729028472,0.212482445223715,0.113046509841372,0.062734276828279,-0.00869842554070449,-0.87164080512988,-0.424443589833875,0.605029031162517,0.815606854048074,-0.813467542236066,0.552758878009362,0.748862062513862,0.977461126166947,-0.775978030360339,0.865655773942417,0.707587819049028,-0.361623504604854,0.800055472222595,0.145075058291891,0.919156316471464,0.827011344197858,-0.682671935736505,0.790207253595989,-0.802282795524162,-0.851379282331372,0.738920078311542,-0.889837569738587,0.296556460200157,0.634229426575137,0.892597303423244,0.918106730759726,0.0836231265725915,-0.744496654220664,0.515106079584509,0.904913986523455,0.8621645938924,0.35567655941025,-0.521710711956035,-0.625764014660343,-0.724368136345717,0.836511627968996,-0.756146256792436,0.948237413611625,1.02483332225261,-0.921813894805026,0.535863507112914,0.325491159138329,1.36634037652219,0.933067047695693,-0.993993402713162,0.931127020183244,0.810966162247839,0.589317183587462,-0.00467502275160856,-0.318937291356232,0.745782621331714,0.810904971033749,0.120506096942313,0.898533579291766,0.742340517551235,-0.638461801755775,-0.118547166268421,1.02045069647198,1.08696039638675,-0.8121419428778,0.194108163323706,-0.772109662204778,0.82316613591532,0.863018275909505,-0.0798995767244502,-0.135622678748762,0.828918284240852,0.446666901456589,1.03443824056382,-0.487192516978316,0.929085394311863,0.959927477692441,-0.844434179207067,0.945151339815199,0.900246141055907,0.141945405147875,-0.725394978421748,-0.856130027430951,-0.871481214782157,-0.848006004731119,-0.784597797951515,-0.356500699738578,0.644723919480406,0.263733040744642,0.39481966296924,1.06609611850857,-0.312336449770922,0.764075867543124,-1.0604636898977,1.02555789879838,-0.678699975861457,-1.07503303869984,0.793801774608368,0.79000720667762,-0.832058431355914,-0.971058095152241,-0.338618729030647,-0.169501154387775,0.617306935257028,-0.818858923698553,0.835373722487048,-0.313216088238703,0.0836819113336211,-0.615776933898839,0.694179291006144,0.22555294313096,-1.00177650925743,-0.47881132014519,-0.267143550919352,-0.575604050360154,0.559026429922404,-0.976845619973791,-0.0722078440821501,0.75497296981984,0.879569332082231,-0.57250644070002,0.635729370844168,0.480298863082202,-0.941722630691105,-0.00364639029803334,-0.551169942014711,0.94528260268373,0.712614226598781,0.94920695343856,-0.775236816777243,0.358634346347329,0.425047790722007,0.492822301421631,0.661498161366655,0.615844468248652,-1.50944781576877,0.83921753308779,0.146965485628169,0.983315600723808,1.00293186343387,-0.689420606111706,-0.841723776695941,1.31720458171917,0.585276410124092,0.152917389278485,-0.740361548918286,0.59207437255118,0.835588614592517,-0.334600359579425,1.18714600933399,0.493216339910378,-0.613528057889187,-0.681324499669701,0.647481273513987,-0.392924774754866,-0.334758560064867,-0.132153592752133,-0.787743571326392,-0.916405368934933,0.467598886768842,-0.205880269319167,0.808835542760486,-0.0612649700520765,-0.594932134520645,0.761435992122597,-0.476174262685031,-0.67778728038115,-0.0911211784819891,-0.68783599937497,0.866276539593267,0.293540160956517,0.67419663348758,-0.61337953574174,0.445066614139497,-0.820099520051961,0.0662482190386459,-0.738273556492022,-1.1492841640935,-0.152021708029025,0.143646368608743,-0.793535194220707,-0.790945813908949,-0.914202814826682,0.636426741587956,-0.514885165080128,-0.759205899365992,-0.535728802395173,1.03417265417,-0.429442264126696,-0.756662592137195,0.884709355702597,-0.65376037481367,-0.295665599170128,-1.29549457629849,0.746383792670645,0.688210940656331,-0.642171900771978,-0.805731149570343,0.824652836804342,0.798087688436364,-0.811762358837145
"ArroyoJM",-0.211780404560085,-0.731839174366872,0.817646997350504,-0.466599728138199,0.820380486419726,0.99608942550138,-0.78189368887978,-0.917740131188336,-0.595368944159858,-0.705609786995116,-0.981847495224961,0.664191496268473,-1.32723859289577,1.09915864717033,0.868716425745049,-0.854990162018725,0.797438645562983,-0.925991953524053,-0.496734052339503,0.738182699756675,-0.943609333861402,1.12075625638659,0.920928702007046,0.89312140735807,0.562672598497034,-0.700145924848685,0.743103680073547,0.843790100720595,0.357040280549961,0.997833988002622,-0.779594360943668,0.528038723026543,-1.01918646224246,-1.00813528990976,0.549073865268405,-0.870929281015888,-0.761064439606027,-0.509443565323492,-0.724416331236034,-0.994230227036104,1.4086455730886,-0.985233695301753,-0.78357710039974,-0.898365798678273,-1.03810941787966,0.54976020990043,-0.61811247863411,0.679340877607289,0.925064102502191,0.663204380707674,0.426894309901132,0.511027062130411,0.910794047436067,0.670094008655371,-0.217392015419897,-1.07689494416289,-0.948625497298493,-0.600918446075059,0.625588897901887,0.693687775441296,-1.29930069886887,-0.64380625193953,0.998349972485746,-0.96618333058872,-0.315646179743279,0.675997051483452,-1.1433857414398,-0.714042154585465,-0.143999223791011,-0.937018689798646,0.819959149918932,0.686723155649408,-0.0366258807172936,-0.583917075608827,-0.906969366685166,0.974424491196539,-0.509677697872198,-0.915466998736545,-0.827909045091362,0.360696804997185,-0.903383584048652,-0.883440844094248,-0.809588017143458,0.672011291049503,0.67335745212535,-0.849399063395101,-0.502426135725562,-1.08833848012188,-0.834895477256928,0.990968998500094,-0.928621691641308,0.691801754630282,-0.194556732131059,0.771865691491461,-1.00100204522986,-0.449062769694986,-0.646825699903614,0.921086315618602,-0.976751401179339,-0.994946227648087,0.951944719325623,-0.649278310311109,0.790084048313547,-0.714704590400482,0.995177627974526,0.777322226329096,-0.718598507872606,0.963410144477232,0.452448294347269,-0.671842563715669,0.777330125316969,0.576589422250326,0.891028047418797,-0.0254531741096159,-0.928236426280038,0.822359171390049,-0.064596930476258,-0.888503860307833,-1.00623099933159,-0.888365502672897,0.690273347177834,0.610049351031753,-0.84444236736932,0.547581352458937,-1.05995274340967,0.981794269976878,-0.850390148261009,-0.909073383690584,1.19887317761263,-0.412471288935643,-0.910374584826195,-0.860344753092259,0.858944124037856,-0.976734570845353,0.475255312422889,0.491071271027982,-0.857201121077997,-0.916280555035373,0.230101893886122,-0.623570451105102,0.7119272060738,-1.01733086414557,-1.00326034957928,-0.393614680641349,-0.987187592111398,-0.865550088087654,0.857830075253788,0.992336526784171,-0.832765182212163,-0.649227453454493,-0.794634856791928,1.10275321704778,-0.893901623406169,0.701753957993479,-0.476753654113535,-0.266149322421376,-0.117560688260519,1.04853582258334,-0.693367901770432,-0.96946791071027,0.909098912197974,-0.969316330971102,-1.02346343888929,-0.842578771562515,0.489209085286442,0.962842913613634,0.88374776261529,0.851492732018288,-0.90941295160968,-0.744657404136351,-0.95398688536905,0.820970628351355,-0.706909508612803,0.214283379669931,-0.3620989466037,-0.764425859157628,0.907508348936413,-0.397676807563774,0.911740937080897,-0.101216218906694,-0.766139527924314,0.896994393308095,-0.643115677876519,-0.476991172005942,0.0209759542248681,-0.254741834948033,0.532543776400232,-0.649252406352847,-0.704341755372902,-0.408350621368607,0.977501650753743,1.0323482783964,-0.800211883607691,0.784608470360606,0.916964782748363,1.0785531596037,-1.11329189254657,0.898385427061851,0.860887875824373,-0.262818000487435,0.936600718587624,0.336803796372506,0.99565682901831,0.57106548277254,-0.696009244716009,0.595987065276842,-0.815532051655249,-0.565971859076893,0.983445332273577,-0.873059777426738,0.742274078439204,0.918328865873319,0.778800504424515,0.872265152142664,-0.536220320780158,-0.719504277874766,0.647936829350813,0.720131376132246,1.04592197164455,0.510368867675009,-0.535463913319709,-1.28730585920076,-1.05785162525665,0.981981123264375,0.182473044398047,0.605176817631149,1.02859114868656,-0.698378227128594,0.765882475875892,0.889572168867901,0.334410090207395,1.02519476121486,-0.936638190960236,0.906643120275552,0.935259574099221,0.80240571914271,0.476066441801528,-0.676399451737998,0.986876776391824,1.00757525701029,0.525896841655492,1.01750292723291,0.756830807435008,-0.759436774456925,-0.836098189067408,0.467539565230177,0.867168546080112,-0.903697540091542,-0.0421390990910805,-1.00595240244782,0.964550279031432,0.939799296984242,-0.153746253274224,0.160800757390941,1.12422681756139,1.25194313940062,0.725808881098086,-1.11800746060313,0.900963803777756,-0.430407360109984,-0.958457755354496,0.724261191282357,0.90576416094721,0.131816057980594,-0.814902737950434,-0.804591492447928,-0.543265551543986,-1.00937979984256,-0.93807402483604,-0.244712897277118,0.743610193890657,0.853117518595295,0.92263702309915,1.00209012070472,-0.618480925205191,0.891569773578081,-0.263723544863982,0.980525819706064,-0.823937938716346,-1.09981866593999,1.0395062024445,0.93728624463179,-0.759128073874758,-0.904607923990518,-0.412522833110544,0.178261733149869,0.581074405637657,-1.08376282103178,0.90590543058136,-0.965348148534571,0.648490942176355,-0.666044839856964,1.04535641438035,1.14432213700342,-0.901512231210098,-0.843573695758765,-0.648393480767765,-0.612324170753298,1.1131726020922,-0.773180012791245,0.297918801633464,0.878704662713591,1.05751347350875,-0.44321541354984,0.912550473071739,0.73150084567993,-1.00777173532662,0.234394847628957,-0.466628205894945,0.860456697544365,0.704819351330767,0.785328327664679,-1.07416103589584,0.459361364529259,0.362329430976781,0.215545566674266,0.762871316905289,0.304884734004846,-0.696651790060466,0.984840993971928,0.699249363014179,1.06549888282722,1.07707056311983,-0.572486841351947,-1.11591531526051,1.29183213394458,1.08445126442144,0.796409483207012,-1.01996863662954,0.771243591406428,0.550403705103125,-0.505310166258795,1.10361104855303,0.421456403244524,-0.633406434345641,-0.942008019656634,1.00091062428567,-1.00332736217846,-0.379505602514711,0.59072910878047,-0.990028790716627,-1.03335156336011,1.13842406594916,-0.529390094643419,1.07966507776154,0.325987455803104,-0.329196872966658,0.850281644244483,-0.325248066588429,-0.757862377202855,0.289040839210531,-0.0341938525704353,0.661658412783587,0.47419761398068,0.849705568572463,-1.10409443356694,0.375411400225287,-0.855023524752803,0.560152608012938,-0.987117729213528,-1.15088211380744,-0.292011249070347,0.511450235730891,-0.895442561214929,-0.966893306935439,-0.882797385684659,0.953470809305507,0.159028846499013,-1.05044796198742,-0.659648604313937,0.512352677186247,-0.784707231978895,-0.0231793997262653,0.730856022913829,-1.05895259010681,-0.467836960946099,-0.884938557534154,1.06364132659809,0.887655887604872,-0.876620670003734,-0.270749855737055,-0.0941622706682197,0.920032715478435,-0.830988156913179
"ArroyoJP",-0.214134486611274,-0.77659604062879,0.875772946062702,-0.525908528046213,0.790594539318375,0.994144718320422,-0.760864208953818,-0.947621989120719,-0.65013793351586,-0.745203969738248,-0.969543800903258,0.682954841328375,-1.34108540176189,1.10720909884647,0.894882777166301,-0.83113031885427,0.788428079301864,-0.934645708289033,-0.535749760023295,0.725594864492866,-0.964607486413679,1.12497995695906,0.826007987968615,0.913352215083935,0.562134499162239,-0.691987338299989,0.765642116442868,0.867885685630071,0.460295315398124,1.01831374051967,-0.770390356974855,0.519247298210039,-1.02502465934015,-1.0153539094465,0.451896292426474,-0.894211285511653,-0.843688288190518,-0.521362348285494,-0.777048377380954,-0.971367351721465,1.43164187814107,-0.979755775940992,-0.810261898418627,-0.940155436482575,-1.03690481459043,0.562272289498608,-0.617133736738444,0.735561233646864,0.94537296802521,0.627564729107093,0.404794823979298,0.536070636657036,0.908732574028817,0.690079904453274,-0.221834245944272,-1.11555218161796,-0.948954691429193,-0.644463316129207,0.649655076560365,0.697601910810805,-1.28099552319156,-0.688710374140907,1.01851402545042,-0.985865896422807,-0.297473593421343,0.718123629067542,-1.13695532851578,-0.744237437008825,-0.0802995937674991,-0.934443538918693,0.817312491693171,0.756992469684879,-0.0463560477162617,-0.616219763453905,-0.951099219194965,0.938301863046483,-0.466418818532381,-0.901283355277384,-0.803927478880875,0.392895206842562,-0.915775544748396,-0.916637530244224,-0.813666527896232,0.737724586674384,0.693896243227387,-0.857096485020514,-0.536076994492356,-1.09687022411028,-0.831770393333485,1.04143586861228,-0.942941564322442,0.731876376946718,-0.244198017754641,0.815024016380499,-1.01625623146866,-0.440539585174861,-0.641943228083422,0.918955562460562,-0.999671523486029,-1.01158644384081,0.927568490766984,-0.656447308290773,0.811840675490129,-0.71191193091946,1.02541382454477,0.798215998133007,-0.804422685357143,0.967736874523735,0.452769102108446,-0.64504879887669,0.7568362385103,0.573893491805592,0.901237466406502,0.0599416505480861,-0.972748493996529,0.818618028424877,-0.1367929893065,-0.915587038475692,-1.06196981045903,-0.941217535038477,0.710346892081318,0.594323620092674,-0.827625725907024,0.592952123797692,-1.03002192712147,0.994403937420269,-0.887635070834695,-0.935308903197736,1.18265035141934,-0.403372685198212,-0.918006595281938,-0.881646288785604,0.855274725283532,-0.995835498794303,0.433739313866049,0.506403286524135,-0.857360775906031,-0.924540493867896,0.182485950391689,-0.587762900946978,0.718635130360021,-1.03502523506593,-0.92502703748791,-0.397092260893703,-0.952603670743356,-0.904247621431367,0.867464224362382,0.998209969719067,-0.823346565379318,-0.708325380669867,-0.846039451883944,1.11552476268269,-0.879170333738051,0.686928580726401,-0.481603926717367,-0.341860434252703,-0.107750708598687,1.05911397274788,-0.722803212190162,-0.996250778166014,0.907527612916372,-1.02372751269206,-1.04685878496873,-0.942878716236112,0.507412242563624,0.98841083152199,0.807259699193063,0.868393451021839,-0.893405811417025,-0.780677843069013,-0.964236577570991,0.808856733722254,-0.689917858029904,0.135875600409092,-0.359676717584343,-0.798255069264622,0.881519653555277,-0.407664895844424,0.953100953932283,-0.0622204205089045,-0.742523059341006,0.887554712096745,-0.663421126531381,-0.532238028209433,-0.00993610918644468,-0.299366172758663,0.462369655097917,-0.588070768515983,-0.768821636104561,-0.467694200490268,1.01251117573408,1.03185289954431,-0.837119258446747,0.701639125296155,0.932494897821254,1.10853428770827,-1.12493279547798,0.952471836788118,0.88810526651444,-0.193494242000643,0.945993510441847,0.322086044671583,1.01883077166333,0.590080232609013,-0.741449693491335,0.640453804590284,-0.768171086232215,-0.580856438369469,0.93794916547601,-0.844505340916585,0.796223490831819,0.965289068053259,0.808238450464913,0.942553107671244,-0.507482514415516,-0.818187468215269,0.6830876493166,0.72592118601607,1.06715446238163,0.532167614965738,-0.642749015843929,-1.28981973023138,-1.05587864321154,1.0009159568298,0.130377123751312,0.653557886283932,1.05989535183385,-0.711443117973739,0.790891883762468,0.761952939638833,0.406994946687096,1.06413755416193,-0.951012602849254,0.926798474698371,0.949168480338508,0.884976559275373,0.470315239317821,-0.695265397523923,1.0076721891369,1.06194373467304,0.515015713984523,1.02881564948595,0.788553480864921,-0.807069071799791,-0.872696025939059,0.520632293506316,0.93096975502821,-0.935801336538982,-0.000163064655273568,-1.01556363454755,0.960850442536346,0.970750745086711,-0.0826858277879647,0.211173197528604,1.12728057774384,1.2820115639116,0.721301175834772,-1.10792470137203,0.90945061108527,-0.318085530820533,-0.978133481469432,0.709676804114466,0.927687442775381,0.141255310160707,-0.837525982424818,-0.820278772601083,-0.500376307586787,-1.03505542348436,-0.899909369227929,-0.231814164794645,0.815727269025769,0.927254750756368,0.909160057953219,0.991348582471399,-0.614457492866324,0.936348622715442,-0.337891208644905,1.027298778362,-0.847642256141513,-1.16564249669786,1.07302464818014,0.951929596869364,-0.807874985198599,-0.923225946809133,-0.378404543150769,0.0977943276735596,0.556078047800982,-1.1061451612007,0.901961812172451,-0.901710443756328,0.634457404000281,-0.674256284331419,1.0863814206762,1.11356496625247,-0.925582446433764,-0.856473033520179,-0.62009012061561,-0.660902016075723,1.09715628120343,-0.786965029232095,0.219290815790444,0.909538142762186,1.07537365158218,-0.510072232291982,0.933575745514047,0.737103227096578,-1.00385516803491,0.269558777323758,-0.584846502257596,0.941176661479636,0.69264850825615,0.807967053626898,-1.07932534967796,0.443207896832736,0.265307902476873,0.245808117572087,0.782121198957123,0.374381672028011,-0.665435274358767,1.00489723195306,0.6899950583351,1.11886958800613,1.11946163293871,-0.635202862008204,-1.0978801885288,1.29999514646269,1.07352606576164,0.801810222513521,-1.04119820342162,0.756696049681468,0.532155277423176,-0.479118870921877,1.14759145118079,0.514032617751104,-0.64346200330452,-0.927416098216985,1.04450847317371,-0.972172391587744,-0.441386510601041,0.580605552411854,-0.999287120085224,-1.05368388815157,1.13748035888445,-0.481268600516158,1.06265683079242,0.330663058959247,-0.322944767038859,0.862398249425984,-0.330887275191575,-0.746240167033139,0.283258105001658,-0.170708150029164,0.665078061926361,0.517131421370291,0.869802168617541,-1.11651990056304,0.298403857006969,-0.889030593628987,0.564135477652639,-1.02068385570783,-1.23401510326432,-0.319908261499314,0.510010213529265,-0.892511661038997,-1.02539537142264,-0.918236893771065,0.95855375104336,0.113993152283215,-1.05982045318679,-0.675725013482432,0.604315423364646,-0.781572995456827,-0.116117583808426,0.767842124958479,-1.05063457673955,-0.493587087644398,-0.883800005670354,1.08518704718597,0.887712700087471,-0.874998389703486,-0.319037054785563,0.00416359533886511,0.927884201091745,-0.821634927896436
"BiviaC",-0.0417744615552023,-0.429207636416081,0.269437312210281,-0.413608459846474,-1.12080381501379,0.391030119980654,-0.629702836869368,-0.308800163035284,-0.645940903355467,-0.662659808171204,-0.288050649322816,-0.104394419802257,-0.149660578283045,0.0731620700267639,0.846286556596046,-0.368226189153521,0.572707597237433,0.389615983652635,-0.317651087345759,0.643625043421374,-0.406277859568512,0.291786859600002,-0.588274047759812,0.367201563041245,0.912410337922781,-0.612208004029884,0.485917979865648,0.430723058460325,0.674754774583821,0.377217555701441,-0.226192224141363,0.976074132805258,-0.276849540454801,0.0588802327372406,-0.197105258945602,-0.386387745614338,-0.427670787103174,-0.303704514570334,-0.16565800278735,-0.00702551306894462,-0.339730370635061,0.389867706207918,-0.308081795923751,-0.350057792928488,-0.243516151851317,-0.67185545642913,-0.544051867184098,0.782047674394085,0.310827374944692,0.612008087798756,0.806174483091595,0.624544602008748,0.210662919980908,0.873276585049268,-0.878861403104997,-0.38740110143995,-0.523750747253262,-0.416689791705043,1.03713038050145,0.157953989774881,-0.285620334289246,-0.161598131014258,0.350871032113572,-0.355626475295854,-0.750665179214531,0.531093220758886,0.387908307851729,-0.490127006183937,-0.379797093710782,-0.24475971749512,0.577299769494437,0.428135266391487,-0.319842407148328,-0.538058621912207,-0.345432644841824,0.489574888736365,-0.433961310320872,-0.214380567196748,-0.505699072208422,-0.332019594143934,-0.538960607799634,0.0391607785138431,0.000823487148992517,0.485008701466701,0.212550122828417,-0.4838517590695,0.249067124708344,-0.14148989332651,-0.503715456503537,0.274714903040409,-0.241327400177502,0.667773639301382,-0.393555768671303,0.520939895314593,-0.468127789394714,-0.8191931532555,0.372999871588012,0.362207660254058,-0.307693686254317,-0.400865752239616,0.35163499387444,-0.331468551737067,0.425242154846985,-0.691324945570123,0.321022815853032,0.616772887684805,1.64470723665349,0.334939719116341,0.470614022259146,-0.685887934065447,0.127274871092053,0.147865993686848,0.545904139612187,-1.09254239585417,-0.45817954911059,-0.363432197658788,-0.225825558913112,-0.412749577560715,-0.126220970114014,-0.370314053740328,0.300463049330771,0.602843437656848,-0.725919847669463,0.665485562574623,-0.262738446654513,0.388023511240905,-0.282856587457355,-0.371084146619037,0.166978890865305,0.340924145661199,-0.0962718051360375,-0.131547321921782,0.296793896732666,-0.332469810954742,1.5570994853452,0.0239342240065695,-0.70124832598334,-0.523039567507235,-0.797622724307871,-0.277837032827993,0.590057797893797,-0.305643689007588,-0.504893040775528,-0.0126980231127668,0.489557003809826,-0.405397488740376,0.083266043136232,0.422150398234519,-0.514957614048565,-0.237059406726914,-0.2750241085745,0.230261189153838,-0.480818583312867,-0.251194434554074,-0.216892491169444,0.0188095840526599,0.448312407170505,0.327490250545384,-0.465083355039901,-0.316750797987508,0.461002074375667,0.250108502635325,-0.271433825517313,0.352703791171877,-0.0561700760537442,0.3760306231458,0.383812986446816,0.452575868973293,-0.595092298072146,-0.744851826968939,-0.354767181694362,0.394386402892208,-0.119175370047551,0.632420397723778,-0.0396697004209939,-0.245825956435072,0.279534591045764,-0.543975005796749,0.271307427914761,0.773870702701231,-0.601879477628413,0.496309467910699,-0.221496917877957,-0.513506591318878,-1.09623384550359,0.437130637120804,0.133187429701886,0.196755739761698,-0.0600049224254034,0.0683585850616465,0.239907712822149,0.551462671780809,-0.692722826465479,0.155715577484414,0.382534814403486,0.311616173828273,-0.187433739841443,0.444551816206109,0.29729568752663,0.482421520206385,0.407340253172017,1.10471077970285,0.401313290087875,0.0965043916376551,-0.0333222571719212,0.296504645106465,0.357850997688963,-0.727743275436232,-0.424514118328951,0.10392335964609,0.331206257573032,0.255234567403839,0.407779855834347,-0.116244898469012,-0.0727918791606565,0.385602056722255,0.585532330076923,-0.152950785436566,0.177209762567447,-0.600905646180366,-0.524879270631466,-0.0945956679763797,-0.329450121175176,0.361300491986986,-0.441166579843087,0.53650140180193,0.470316693275323,-0.329746479666988,0.0446241874585899,0.350007787213978,0.326055168151314,-0.00085650406367622,-0.358065721929667,0.753753410574345,0.462176796211109,0.256481862985628,0.600200616150229,-0.753924066528182,0.513097492047145,0.199932160720649,0.228593471869667,0.29543928575467,0.46487743966854,-0.450059885535725,-0.517033169805348,-0.120673208888293,-0.0374151695604189,-0.519147779148844,0.482254918643099,-0.308089561430571,0.200615350659284,0.217410873650929,-0.00429117172736196,1.06558790061159,-0.273058087983525,-0.812342893144533,-0.100310393348068,0.133519521049494,0.400399245517974,-1.07153261865542,-0.439958779975892,0.480595753589915,0.233753007157954,0.509826914131322,-0.561695380714007,-0.352137979580709,0.205520053346161,-0.261537086068482,-0.227154898582855,0.0125491989178517,0.379359818914811,0.483295686033113,0.380034782878925,0.315191833549498,-0.781403341728483,0.408486316530625,0.267948372056211,0.199952058021314,-0.546963532807705,-0.56866966213473,0.199750709406632,0.319027358209994,0.203049113830645,-0.555235671694206,-0.352380389781147,0.485458908303438,0.449113867962149,-0.126912075731515,0.454197343536408,-0.776739307564285,-0.117973561152239,-0.563958919646918,0.0905202495636282,0.51763408725284,-0.363050189111336,-0.413681777529502,-0.335040049997657,-0.953696872054391,0.313862380415244,-0.232341228397651,1.26125788412771,0.440814241219293,0.203986434129884,-0.0631376241221277,0.701160142294398,0.404348384673599,-0.356650005684942,0.867706196647133,0.334180465425155,0.238147376507016,0.558878356613649,0.544192077860365,-0.225848558538341,0.665176346187899,0.618551429023883,-0.0787684483038728,0.520716500090766,0.649611868869065,0.432457747947598,0.373173580556968,-0.492893658856271,0.0815741348580209,-0.197503272718534,-0.550148307773363,-0.375171203162502,-0.0441651202884297,0.258854029009745,-0.0846299265675666,-0.409249450974197,0.720353582269181,0.529389502207017,-0.234858720885542,-0.0768406073987989,-0.916002867873774,-0.644991395263018,-0.536030501033039,0.205047744096575,-0.606428593322289,-0.342571551174443,0.343149272300582,-0.555735514324364,-0.245150546038475,-0.104843816843507,-0.704509611159044,-0.214613940034374,0.068928496567614,-0.637257939817749,0.390065798428525,-0.172772539968366,-0.0627338089120738,0.52067526357257,0.521153364560864,-0.185880682268067,0.631763321743401,0.599475216163437,-0.209419208259744,0.314124852815358,-0.164563330536194,0.296619838649389,-0.208717959432215,0.442171293031587,-1.0256138276836,0.276947478947103,-0.456617509123614,0.174521550253007,-0.53195899675804,0.460437054078964,0.288267945525285,-0.215875758111797,-0.0609870856932143,-0.31371543988198,-0.340012987372942,-0.219934708524056,0.615066206622382,-0.466120182676668,-0.359766217697072,0.123322686819128,0.583215704277482,0.547518041239231,-0.620590929383775,-0.612071955899177,0.226825571579279,0.816867909782118,-0.387650481442125
"BonetSJ",-0.38448199976412,0.300127451253365,-0.161157798297465,0.346246639394861,-1.11756137234143,-0.272471162951063,-0.0923440001589876,0.686636992192034,0.324202734868178,0.021621052388901,-0.00839866163664485,-0.158170805822069,0.35229385907917,-0.258982643118216,-0.815377854895634,0.0438376838650364,0.207689799361931,1.14182350167542,-0.15803227264725,0.640481414033219,0.501941678768793,-0.0273098213130365,-0.432538863092607,-0.120026630984643,0.13733203591666,-0.598858930313637,-0.246701046800871,-0.00712949397688194,1.2473168802364,-0.558710825711809,-0.145218295917948,0.7226994105366,0.610252497654399,0.247916236587026,-1.54878944776447,0.570012468041179,-0.16334007428185,0.25708151269132,0.879226759043246,1.10453156211744,-0.837912817166051,1.20401330049845,0.645190054766565,0.506529633610812,0.145533514214552,-1.23596241862622,0.594807627774036,0.161533198114054,-0.432088369627905,0.578279209686346,-0.267423831187169,-0.126873710141309,-0.742777149652994,-0.00278863208338945,-1.00563206919714,0.423978149625593,0.235938578946259,0.133483211872633,0.0222598223803086,-0.129930821708997,0.260726497762314,1.21399120927432,-0.602952458789237,0.516252971686525,-0.300851152133019,-0.508555498261536,0.596773799014757,0.293831353405088,0.00602265528889644,1.05751954952593,-0.722057151144427,-0.078915299075402,0.0732868198868493,0.899252969657763,0.668971545456508,-0.590880169325649,0.274337862838574,0.1462373301229,-0.169523268877037,-1.33509977794428,0.194875494735193,-0.35334927449914,0.520807407020594,-1.14043773482838,-1.10397261171797,0.00668509562066662,0.514297742174574,1.19781460781632,0.67899146897349,-0.749852766222723,1.07002704614863,-0.302097796802146,0.445771947228238,-0.499777190112676,0.587057353255532,1.30139712014401,0.0597616147643369,-0.439818077409627,0.523240471045372,0.461909394652182,-0.779065402425156,0.517855972671969,-0.403491658430816,-0.151337738196239,-0.71920366910204,-0.6578679076446,1.26454661487459,-0.446546290351533,-0.886237717132029,0.283708641580366,0.131168895549525,-1.77897124679587,0.472212136421237,0.79421661809281,0.386815842001832,-1.24904775896472,0.929688654839484,0.679408094980874,0.45742979041786,0.616046984357351,-0.122268557213699,-0.268672972705899,0.295807372987451,-0.0898810209172419,-0.0530885637306808,-0.38658285497309,0.539095212046374,0.484645077337462,-0.585276033393329,0.0962787794957168,0.920856360135625,0.676342488127938,-0.47609779310632,0.446477293108997,-1.33119658496211,-0.591948010528717,0.455916424888723,0.673384065281705,1.23388994609631,-0.0498361099654105,-0.95475612901369,0.437033279394947,-0.712770924268546,0.600649794711539,0.478522929264288,-0.108010935665528,-0.0564620713704661,-0.196136219221035,0.477761794823126,0.410807301162641,0.220753094726547,-0.628515139672612,-0.0992771593097115,-0.758680277909908,0.351088569828169,-0.0119406494767388,0.257667839102701,-0.671076969294747,0.680845006413556,0.665227579710959,-0.376061938365256,0.917994249557485,1.02871551626264,-0.410876829344242,0.386622867361387,-0.272935962153266,0.651581767662957,-0.108551428949001,0.288376023566924,0.472666674730918,0.450111461886595,-0.231119181080121,0.228359239384338,1.4749065719225,0.937189098352178,1.19475592799368,-0.062126906630069,-0.0238478210343099,-0.749241743417652,0.975071947730585,-0.131998576409643,-0.161453039867082,-0.0511653543830021,1.73705106177853,-0.769570444926318,1.48039167690791,-1.77057133227138,0.0986357086504256,0.626601644297134,0.721536393731185,-0.291009667243625,-0.977255477407069,0.140356825823125,0.241202161884104,-0.230353841118358,-0.542210536758639,0.750179210515271,-0.0336246229801624,-0.263314764107331,0.797947968696264,-0.775627336398252,-0.176313348292578,-0.238411092984461,-1.36115221686933,1.36047299715338,-0.363658182622885,1.91133936109456,-0.783477567514459,-0.274112886112232,0.097773237999169,-0.640895471471875,-0.648147292677069,-0.327039447135264,-1.04213575704472,-0.503613657791346,1.12482421298407,0.320860772312377,-0.333426978950111,-0.699350287504726,-0.623496272124776,-0.25860291812732,0.642971793447864,0.709477488688331,-0.571872733099067,0.0998488154104113,-0.38693469398778,-0.649120904068083,1.16185007415825,-0.372151395525182,0.465886995573129,-1.07165679030363,-0.30212787935503,0.78129280429235,-0.473987322328373,-0.276287307022359,-1.00695047552486,0.598895519164838,0.522828519886586,-0.529998561957816,-1.15795934122413,-0.289633077888457,-0.395873341671361,-0.304968222746804,0.460631368358701,1.12635647374361,-0.387281401387708,-0.878739771675887,0.347127675269659,-0.55731961859747,0.500729320248718,-0.589036023161377,-0.334612571520081,-2.05706568879851,-0.142393653729207,-0.437163228643915,-0.111584708635467,-1.52594975316531,-0.287127822664355,-0.884348272289718,0.593551420512769,0.314637678173786,0.00521500930464334,-0.861418125918284,0.644327289907219,0.127888446614004,0.0367703456383136,0.402224204777993,0.194789460446,0.781831720318649,0.965184659021035,0.0172825594084893,-1.00584841735059,-0.0753467106133773,-0.525867470710446,-0.568060308812401,-0.222107030402266,0.0913843341215771,-0.559032824522937,0.235777922021086,-0.221720846766881,-0.725426987389276,-0.733252842859274,1.23987391729441,0.52085655816968,-0.780910814683175,0.812263613747608,0.160749827722382,0.257680097165607,-0.298867859233197,-0.219106471337242,-1.03302047177921,0.0604028086408555,-0.672636979760582,-0.00739180200900449,-0.062806259977151,0.170180738723406,-0.250787875993931,-0.450024590760572,-0.38907576655376,0.531967993196014,0.41551642428015,-0.377505300655437,-0.431599246960504,-1.18020709793445,-0.0796282548267434,-0.17522995834465,0.204777989608167,-0.37655099087867,-0.341615557991829,0.122704868202986,-0.350729231184491,0.0872673349586458,1.39356434029173,1.0589137703923,0.360959820880407,-0.00217962797686158,-0.672559873038616,-0.870003231028497,0.643034942616661,-0.503561430470703,-0.228725406743849,-1.28738943410229,-1.10982840736675,0.793724016691429,1.09566356570967,-0.115142586897125,-1.27447125667018,-1.24826628925663,0.210570183728065,-0.0567027058259997,0.211202078067125,0.760644625119236,-0.737580442488432,-1.35719615609164,0.654577748885981,0.460893960739714,-0.397118543814533,0.252030012477553,-0.990765083919756,0.610243204741036,0.293954856929557,1.00719271837975,-0.279302813984239,-1.53919710993259,-0.839749202445691,-1.264524685895,-0.422387331112909,-0.455383772918121,-1.1747989442599,0.650559728803368,0.487079173508756,1.99653920943284,-1.9074469986216,-1.01007899915691,-0.0628310114665734,0.586267134802732,0.0534946097464121,0.829059971472344,0.203509237092088,0.558501644168373,1.11582833876281,-0.66743594707619,0.0938396513610272,0.736343476655627,0.169387356588829,0.490549723376422,-0.187625527545656,0.0824610688156898,0.453997442055637,0.064501674447642,-0.853626448574503,0.581631757030349,0.00450691928048804,-0.664003319787517,0.423703850513664,-0.11847001035692,0.459711721393114,-0.0337068866409608,-0.680489197367664,0.521100484691065,0.55267751915953,-0.146824871066691,-0.0348295334889234,0.295183693258221
"CalabuigRJM",0.463621602521069,0.298941359712732,-1.47671531189732,-0.343198128106467,0.046115522523099,0.156540744101795,0.640085872811148,0.678738603826589,0.717676066310792,1.18346711578333,0.682188037800377,-0.553516148429168,0.654956119404762,0.017385219047989,-0.716131685677901,-0.121162566878848,-0.348333930281463,1.19648992930179,0.149560969390039,-1.72985584363394,0.664638767172509,-0.36825873213024,-0.0525281577182055,-0.566832366610721,-0.437277960776922,-0.305398656901804,-0.627049264820723,-0.809236735418028,-0.691562712873394,-0.581121839874131,0.589050313304869,-1.16301298180352,1.1089704067836,0.404718649159703,-2.1343752616612,0.463423009286236,0.571372592961484,1.52889596130624,0.711898880206768,1.1602400312122,-0.71030360818315,-0.459251443289788,0.0316112450709304,0.586365115838014,0.112012220294074,-0.862463424867671,-0.783562490328152,-0.418220210621965,-1.28261793893822,-0.805633875207705,-0.13144571540458,-0.556485979267785,-0.694352904360212,-0.720347514088547,0.748767308368587,0.602400759855843,0.385802768761484,0.922233437966574,-1.80610669383149,0.76360852884179,0.481344882310762,1.28068374667602,-0.658161240285807,0.578356142687771,0.299107487129101,-0.00309714565269856,0.887816815437929,0.733156792853276,0.580230150361054,0.345081093520188,-0.292748430047697,-0.470388037121401,0.569759954068081,0.79157881082115,0.578244804462504,-0.0620458712937724,-0.72611787350079,0.604498304590154,1.25256528294742,-1.9042769235702,0.734487772311016,0.593646567257981,1.4962060590677,0.26283314775129,0.280056550389912,0.15330310593611,0.629388126680468,0.42394456618416,1.05698722348121,-0.31087681738918,1.41993798270214,-0.513813517312422,0.768157578379642,-1.24342674101041,0.313917007391318,0.946818862560763,-1.55699066056532,-0.517995091942505,0.753198899310628,0.604213610827199,-1.69652921475225,0.229970262124013,-0.939450001371242,0.246333567481347,-0.371783069793703,-0.640819654119479,-0.383627641201052,-1.00432461827646,-0.515833205199553,1.22698965353361,0.0042415969908199,-0.442653458415697,-0.578029368491988,1.04347660080747,1.00196026526953,0.0928826364504871,1.28470344664718,0.902736934662645,1.00958552696544,0.967666714141231,0.421994134803775,-1.17060318807677,0.939497630657731,-0.128379452741209,0.94051664290292,-0.433036866502373,0.448441250968278,0.498374674530126,-0.660950557707282,-0.172349605835587,0.94865702390007,0.142420947712721,-1.06087161473771,0.973402279344261,-1.63055154071944,-1.88749658117395,0.982859447568167,0.927054620349717,2.37309437737929,1.70252379488857,-0.572657567653116,0.609920733901716,0.395163970995116,1.82454224589277,-0.540740226544858,0.979832334577783,-0.0820153273351414,-0.740554194225431,1.34532591262416,0.258163273040903,0.323245572110758,-0.967160423064709,0.0350348834184473,-1.30448457508375,-0.831838518071781,-0.459542641168846,0.945899394358663,-0.481546014436268,0.925771518990506,0.189443963607098,-0.627430515445089,0.562591561927669,1.13000416323243,-0.192183722639707,0.943560770322973,-0.641765847414896,0.127900496774413,-1.07244387336239,0.370325684149124,0.438720062027106,1.13641096959149,-0.455486684922686,-0.386132840324142,0.781344983028541,-0.134922797940383,1.14933319071647,-0.751228285189105,0.927201644595653,-0.397091196375201,-0.806121342690816,0.894462700353414,-0.94927987922239,-0.329663401977972,0.248306376068534,-0.60723906806355,0.835506400159744,-1.70509215194187,-0.810446530434767,0.13686666485144,0.966328150450947,-0.724534518480581,-0.845269738346633,-0.0551526477317845,-1.40300963876316,-0.561001296044709,-0.798885010576104,1.0030807750769,-0.812134300724981,-0.515426181364005,1.2691005546723,-1.04771026395255,-0.313777807881061,-0.756201068133022,-1.44703003596834,0.753132708919208,-0.563729119118,0.312701680576825,-0.212374626307658,0.0402658344147631,1.10165257451277,-1.55419199387221,0.0124629097797392,-0.206811356275722,-0.82402730625038,0.664230069941504,1.17970413850513,-0.24228673940069,0.435574976565171,-0.465045572352235,0.984223530158291,-0.954709805554901,0.852034689460384,0.920411974655765,-0.5802183763363,-1.75041155428871,0.274492833363666,-0.479977743254383,0.305953246239192,0.482900241335585,-0.416752542548723,0.0454802920309113,-1.17060081001874,1.07269679846015,-0.618944803919666,-0.863384708543729,-1.4747588264157,0.387424692269605,1.38673857110951,-0.579685314906372,-0.700193334708527,-2.01048418803917,-0.460129526663186,-0.726013279739928,0.395959807151725,-0.505923781648424,1.50817380234591,-1.03992922748107,0.657081222272136,-0.517793190571166,0.522857471818975,-0.728089934993318,-0.539140335678636,0.132486348970056,-1.82071745223109,-0.833442899848641,-1.12693804204982,-0.364001879431481,0.425173993792584,-1.10698048337182,1.20779060976457,0.60252152288231,-0.718726811344461,-0.961487520917131,0.955781846267955,0.641423209969586,0.0271955580734889,-1.12072997625586,0.379862256584127,0.416290582087685,0.912274040925862,-0.433010846214695,-1.03506812078992,-0.441056999210346,-0.384285819850554,0.0654869083974313,-0.0397499374224442,-2.28609437910241,-0.490140412049178,0.239024815158216,0.181171911267867,-0.428015826771062,-0.650960649180566,-0.363652884419139,0.614464292124594,-0.779490657963864,0.796830396618694,-0.489666230938311,0.971201706193041,-0.525707350524621,0.469435664625689,-0.337948884134666,0.0282027761910475,-0.520687416525837,-0.708198953282961,0.299386978687004,0.480132644388439,-0.0684867827987539,-0.448360852240549,-0.890797804342736,0.735090284404581,-1.94073566551252,-0.476805148746472,-0.754869529627499,0.386826072478943,-0.778352823786102,-1.15570748610695,0.686441936882704,0.232408306402604,0.874378072687877,-0.38767165238083,-0.0512397021833725,-0.745504641458883,1.09008725846061,0.33651654907338,0.0311038245377463,-1.56866836046392,-1.03714201075017,-0.992062851517869,0.733750191462019,-0.557425959971748,-0.137696623012683,-0.174502583874128,-0.00482728272253095,1.24941829044664,0.615845312347914,0.186992836104668,-0.717512824626132,-0.750161970358765,-0.219258083028445,-0.162836060500078,0.00436981125254309,1.39497116225717,-0.731335988391592,-1.21342051829795,1.0458996111618,0.210717242546415,-0.553977866915603,1.39305032888194,0.00472792104586622,-0.0303129101681047,0.671788562332905,0.708740997811387,-1.62955184450495,-0.846208262559274,-0.776735081968529,-2.23628688473378,-0.376598301870813,-0.397602627525244,-1.7482348965505,1.53914536395588,1.02015944257616,0.547563518087738,0.708440972551863,-0.97294767204327,-0.13358784220347,0.773480853222797,-0.407734624532786,0.303021613412152,-0.702218596304137,0.428597701749686,-0.671358700890513,0.261768483317439,0.121009976722616,0.545076784012315,0.762396156403716,0.127197055441555,-0.455229393685759,0.612846036609481,1.5026229653809,-0.355557527393279,-1.79859044109602,-0.0679250958390998,-0.236039983908502,-0.609196081395994,0.63906133596914,0.559549605962271,1.68606703119002,-1.0724458689167,-0.64957963647655,0.379964981217511,0.219910806424004,-0.0881576322516777,-0.893853598848381,0.114304065085641
"CobolloGC",-0.494300970579688,-0.622627063952022,0.719922516263141,-0.741555406819541,0.0775537343285373,0.730565342862128,-0.62613184046231,-0.664995235876183,-0.418722578816845,-0.726128325997637,-0.793258030958874,0.421088813068841,-0.640085084755341,0.360775745603639,0.684437106812845,-0.654290318995363,0.536897727876716,-0.435943921033661,-0.190314352041623,0.256499563238348,-0.759363828438234,0.86205163844933,0.629671514338248,0.746085577649886,0.696584995382847,-0.421271121262982,0.847530058631127,0.885483173012129,0.386431171457452,0.789334569515095,-0.62686937269918,0.748811581403036,-0.797767118604447,-1.03528056228143,0.309528837110768,-0.796505722672156,-1.02259056963987,-0.82987836511809,-0.742312898309118,-0.767766517490771,0.78632267147406,-0.699613188593649,-0.732413270475601,-0.835213132789661,-0.682489602533834,0.0975860924873127,-0.497415309016137,0.534578859577731,0.874695096755346,0.546094874165711,0.809467592282997,0.677205845921499,0.728809946111869,0.563995381306499,-0.413909328802263,-0.843622625053411,-0.667053819958644,-0.399024107351882,0.537891394267444,0.440756160241958,-0.841400619720252,-0.598158212845054,0.766741589322004,-0.770122678944724,-0.0787413965330373,0.606347220221624,-0.401065025511245,-0.732100797640032,0.082484170768439,-0.630902095844003,-0.0968227837808488,0.307406630052191,0.670050938780407,-0.788689450161461,-0.828607305226478,0.587481071864369,-0.275803519300428,-0.661401140029138,-0.740133116288662,0.448087835531452,-0.67504410055403,-0.557593384588339,-0.837094082556092,0.479468382335952,0.735268084902012,-0.589580290259486,-0.202163815490775,-0.511084377674615,-0.476184239883199,0.660908259041083,-0.750189486324727,0.623133424692674,-0.582419480213578,0.675428914141335,-0.719733924716006,-0.67177552801836,-0.800409415201682,0.757963313367088,-0.772200898326701,-0.784192808250961,0.718533705504928,-0.353459504743077,0.469575430342555,-0.733783630700357,0.718500196423726,0.90980827246144,0.110478438655076,0.779897904152493,0.671664527501014,-0.736780324794906,0.554490114612912,0.710982530691551,0.881676494726736,-0.0291434344346542,-0.749563879484679,0.602803376173261,-0.254064046821924,-0.902039260370005,-0.822258018934854,-0.680235130483818,0.498437974619611,0.477568759373886,-0.686530025447251,0.658982445474343,-0.748989891557825,0.750838533951296,-0.553564632777784,-0.814154736485313,0.733539513527663,-0.265490073153253,-0.579327961156035,-0.788226111865265,0.679578880884433,-0.763090925582377,0.32606426289389,0.379975461599972,-0.754908284110002,-0.687676043037142,-0.20060160293437,-0.76675697544212,0.394889713124951,-0.765798408752356,-0.599421339997291,-0.692282113966069,-0.62069768895866,-0.778986240196949,0.72720194332003,0.735907430265986,-0.574025859908255,-0.781444204601619,-0.500540927419081,0.790745392311439,-0.614654985462756,0.631508448944899,-0.299659882617071,0.402594980849134,-0.692656995891788,0.761214514104543,-0.591291388190721,-0.732316357248091,0.575299593908195,-0.776197147970283,-0.773215322082169,-0.645901850569577,0.476669981393899,0.81666482759078,0.285780340320802,0.780959701608213,-0.538966775514273,-0.647081944614684,-0.732038676717553,0.814609654883138,-0.477551667671394,-0.232404345808176,-0.255476292697114,-0.468266781847323,0.82552341016274,-0.606845019107084,0.726923201780612,0.588961616974164,-0.747900598904285,0.69681112867499,-0.673170402606818,-0.565430711883919,-0.162531746993699,-0.159003800352483,0.409561366885783,-0.203388098814656,-0.904124489240594,-0.289827486183359,0.638852061010057,0.572805559304844,-0.670640529907319,0.779456413152093,0.662137314157564,0.832929218422288,-0.804621282316144,0.86673130775526,0.74979740923405,-0.605161062413178,0.81577666684637,0.39661052957787,0.681505455277738,0.684436056077612,-0.779789159230906,0.684920106342435,-0.0821363186332653,-0.708865009319318,0.646392979889931,-0.984468431682878,0.338919619142159,0.538218953252368,0.663954415032287,0.66306084831271,-0.174729023192579,-0.924946375053516,0.696452084879396,0.560462733571466,0.79499605968973,0.158528191414549,-0.22807146141887,-0.855983921955012,-0.530902041706938,0.785582756103311,-0.145871177905905,0.815571507173698,0.782317630630259,-0.804895782631935,0.29577263910917,0.574861889561431,1.01673810594487,0.753563834890305,-0.851040800860504,0.756210252830587,0.851924050308903,0.870674941266669,0.312318408609458,-0.640334122932411,0.766334078387263,0.907038848040831,0.550341542837963,0.885336635255618,0.936514744429624,-0.723731588463864,-0.449951352097515,0.547934852308811,0.708371019764362,-0.745465169206159,0.1579217017968,-0.770012742222552,0.735684091731485,0.879996510587451,0.0561846401393056,0.439110938382242,0.836597491933264,0.63945285375887,0.788907046747541,-0.514538157445678,0.80979917413802,0.0399746013763768,-0.71839163810268,0.738171041866789,0.606058021487724,0.0202466965559093,-0.805006604852795,-0.519656154874255,-0.321656938617825,-0.759043619101561,-0.612585068369937,-0.237456034814175,0.585385348329956,0.740040483327681,0.656607977341532,0.787832461347128,-0.37718824056394,0.700111698422341,-0.0431700661828855,0.784967954761579,-0.695035273833274,-0.68219935504382,0.817706541467566,0.723016695827177,-0.400601478240959,-0.754803619351485,-0.264570085697,0.189906013554032,0.581958022594214,-0.947052931929644,0.791151330200075,-0.566733479693338,-0.270484358552865,-0.695541851527889,0.910559700308845,0.550015014722401,-0.588386052299151,-0.563259983369682,-0.372215204803973,-0.634642382730035,0.721311568862678,-0.811976028996449,0.0854753913742991,0.738068511582766,0.723000840154466,-0.919732582319935,0.722119316088508,0.642807737985406,-0.932879514805254,0.665635307129392,-0.600413011641691,0.832536199063062,0.591257162530151,0.674251106775795,-0.87812845727764,0.395671869001446,-0.00787914679176497,0.701480494188712,0.587824303947956,0.34794119744109,-0.465937766106691,0.787271999161279,-0.0902784796393521,0.58265828407914,0.767991403330088,-0.556596597995022,-0.693647456639368,0.814754806786505,0.600846402497242,0.334558778614739,-0.672676934748916,0.42231939728325,0.599162872404342,-0.270160660544477,0.692547060668095,0.179570300491906,-0.689911616575469,-0.571019749353662,0.836882585937016,-0.53544157558872,-0.455472758726506,0.20632567702738,-0.751572181180577,-0.803754251948215,0.715338871397196,-0.711721980049203,0.803530261173372,0.210098168927177,-0.437061633153326,0.772681754619928,-0.29676960587868,-0.964643954858643,0.240353998922933,-0.293738254450692,0.572929958571401,0.724571489545022,0.786871268352984,-0.822411758114311,0.399137961773695,-0.606711441856127,0.636444924489845,-0.776154082991201,-0.553412702760647,-0.569739170257512,-0.0358424879763671,-0.819907076243074,-0.81168267233436,-0.595830311197482,0.704064207792076,0.242166614737701,-0.61624422021582,-0.481456041747793,0.624877933445178,-0.535132895457642,-0.482391773238523,0.772941558668371,-0.674184378071084,-0.484912585425631,-0.983078579070092,0.522079213797996,0.80442975758446,-0.714277781241123,-0.669712126376256,0.626301424639893,0.921167435690747,-0.807992811831734
"ConejeroJA",0.147525571481431,2.27364751514287,-1.97932290924107,2.06587533840659,0.20664524706146,-2.24443991604304,2.59899104824476,2.61971351615397,2.66152666945639,1.8129086105692,2.7009716480519,-1.70580307558853,2.15424748438765,-0.61094173640518,-2.11136950844408,1.88922585634252,-2.54911904592268,0.11516998034806,0.031625562299801,-3.05251208824569,2.03105142045107,-2.15092863447183,-0.668945768138547,-2.12117437453078,-1.59158494792976,1.33847638169869,-1.87305755672885,-2.03874285056521,-2.32822012460502,-2.06541413934571,2.17359515930927,-0.182561875149024,1.93913844619781,1.30783746475003,-0.471986574286839,1.35473179594459,1.09999120104241,1.36191463602037,1.31266800406837,1.6690192425766,-1.95624961090818,-0.163796293485616,2.65816800763801,1.96276375342571,1.63179687202095,-0.437428616469667,1.47964641406955,-2.19246170990249,-1.51542988991707,-1.48942053185269,-2.37426780462082,-1.2688258448219,-1.78678397466454,-1.52110451520285,1.54440542422514,1.40332759273774,1.79801669267504,0.690036164439126,-1.9149555991695,-1.02687115610165,1.89678578451318,1.36839570969984,-2.03578914531484,2.1104248896633,1.37661929382485,-2.67548532085386,2.22744026613254,0.998669723403582,1.51081797534505,2.13060085613579,-1.73000821077128,-1.00890126944865,-2.09539364047127,2.32770464218284,1.9234581120537,-0.144225518240536,1.125098282211,2.14141741264783,2.79655864146474,-0.697627692321101,2.07328341640039,1.73771071323432,2.05309157550946,-1.91080250236651,-2.12034587053638,1.82109040357945,1.79280364705303,2.09579309779719,1.97374604787666,-2.00625860169711,2.01709621466711,-1.87924461311717,0.503615590346915,-2.45576706403238,2.15885521388045,2.23695888358394,1.53663968243572,-2.09716650509329,2.00926192659417,2.1425099081252,-1.79850372627003,-0.528746273351433,-2.50281837572963,2.30750235073798,-2.08427610272335,-2.50329339770355,0.623864728396136,-2.19446837879699,-0.55313461612651,2.50426601712844,-2.90950388561388,-0.460785105586201,-1.51480402061364,0.650328388916225,2.42571829581493,-0.64847507097558,2.35390800251166,2.06214460065801,2.30960431929678,2.31350404061426,-2.70021889121039,-1.63421331117504,2.20285189079135,-1.36888789832163,2.37471240793436,-2.11306259595293,2.86553330413034,1.61246377950348,-1.82710678392713,1.13349192890023,2.66487077779797,1.56099987516657,-2.57452545395734,2.30863085993337,-1.93582299579139,-2.07463205286837,2.3975626978004,2.15436590031467,-1.10458521189772,2.0640657950906,-1.45239885022731,2.05591011024251,2.13130060843506,1.17252979825827,0.723814617574432,2.0981984315537,-2.1661711160205,-2.07880645739171,1.88620216077779,0.685477276158502,1.73985708410339,-2.00221564569601,1.41344783562731,-1.50299027494652,1.60465692185678,-2.02650499560314,1.23097535808371,-2.09633853803385,2.08293553637541,2.32643410395287,-2.31849616151237,1.67275136689152,1.89047246562257,2.0538746481279,-1.33123114392375,-1.80506506179557,-1.80601545061091,-1.39959771417913,1.68978199304985,2.69371840037501,2.66642896370107,-2.37619112526955,1.75713336122317,-1.12221921350825,-2.1865287242526,0.311948755055975,-2.58925175926741,1.92548460980466,-2.19361881952413,-0.900634605528909,2.13406248515114,-2.23927932165452,1.75555721727167,2.21601974761891,0.605832576550051,-1.12219797841837,-1.08616239667371,0.69125397369736,1.30928208029517,0.442299926329713,-2.23345277530202,-2.52610633650261,1.70190234361309,-0.850583592218016,-2.29977784777287,-2.35238818151755,1.89576200314503,-1.71221578288558,-1.92105208999412,0.880750054729701,-1.495503738987,-1.69895061651982,-1.8371967219225,-1.57358105302832,2.02224555676873,-1.71929971002327,0.259015311487212,1.33566904018916,-0.634508711923361,0.909857915901801,-1.96729715004803,-2.10486386485425,-2.38094530862323,-1.76576719456499,-1.57989260433341,1.80911398644355,-1.86848578745198,-0.795741300892682,-1.38937232896223,-0.216525274615064,1.78392567240174,2.27478872220379,1.77461567151424,-2.0853244755087,-0.560686321717304,-1.95116893948512,-1.99955333860922,1.40930002613937,-1.43221225393849,-3.03513411637323,-0.708789159307651,-1.95605737035255,2.23296377697474,-1.96266209775364,-1.79475711470648,-1.51506368498205,-1.66906327129277,2.13776148273344,-1.9359345201388,-1.65530560586049,-1.40223977977031,-2.22913415564684,-1.50648606213531,2.24166604106755,0.392679499799542,-1.16143302532732,-1.47503580662953,2.03850834200825,-1.44231355587119,2.26190725421724,-2.04903354068436,-2.00360362973441,1.16559249526395,-1.62602519441907,-2.15134686712199,-0.834582634289374,-1.69933503112692,2.49591698727267,-1.94163276553899,-1.55309393627117,2.17317349394968,-1.70130141529823,-1.97359251530396,-1.33631830938988,1.72709497628305,1.94711792048398,0.770369549510261,2.2274099167832,3.33819205444743,1.83727063508185,-1.17495388353658,-2.12980672151468,-2.35226204447942,-2.46699535065041,1.1497344365659,-2.12395682331443,-1.8408170702507,-1.43601102205466,1.92149760114864,1.38666308710361,-2.03770199057195,-2.05650839893485,-0.275279065278015,2.10069168214517,1.56752422914875,-1.53222081973612,-0.931761064575311,2.07524050947473,-2.31191095172385,2.22246885631156,-0.832139919855897,1.72756274098879,-1.17076832675175,-2.16619858331774,1.73487480649331,1.93604584209689,1.8190900976761,1.50599795002789,-1.9942683380739,1.47969819173035,-2.87820094516185,-2.00881606458364,-2.18414120396998,1.95057254145755,-2.76366162724967,-2.3191039640754,1.97882767443374,-1.65274880200572,1.49633572420386,-1.98684963648024,-1.59692124116559,-2.10037624784662,2.02706410095197,-2.31675427161347,-1.42884016271997,0.850000990553572,-2.79749393208872,-1.07742802517022,1.6883255618058,-2.09608232073536,1.43838896241186,-2.61960239920719,-1.83101021034881,1.8371241469147,2.62064058835269,-1.20748641278165,-2.18124826397787,-1.43903756204839,2.75943684769987,-1.866419766693,-1.78265157672927,2.81836484484468,-1.75882006112579,0.218831710620855,2.00963989048911,2.21434451123468,-2.15011705265204,1.95515778832543,3.08753492787216,-0.252958251167916,2.074763214219,2.20804891670195,-2.35625838459016,2.17550689306384,-1.39760563447841,1.67975686596826,2.43152181241147,-2.21403273622208,0.648877225609488,1.42304839070333,-0.52777750893137,-2.25080282659778,-2.35912113138455,-0.234486846941327,-2.67486276423476,2.1193002444148,0.581098336836866,2.0498458240545,-0.688943505761213,1.77458671719531,0.559305524300783,0.887517215901593,-2.55044438388296,1.91997429814275,1.99133663545366,1.24303188898649,-2.11964942303322,-1.05929892190733,1.63803972215947,1.6723148077562,-1.02539243979761,2.01157527081562,0.894305908949692,-2.04002675616556,1.96667951072864,1.031150547209,2.18045220170051,-3.21913613223567,-2.53744902303865,1.50452891531871,1.52037115694649,-0.677230780905281,-1.50482875526906,1.58040669260023
"FelipeRMJ",0.473372976502442,-0.609756862205134,0.528837042024034,-0.274435868051163,0.415881563989148,0.794502589175878,-0.92465680697832,-0.670143325119444,-0.1089165122395,-0.375253239119074,-0.866221955688428,0.703275090978647,-0.967103987190271,0.938062132170846,0.898131583752121,-0.478578422043526,0.483910155143558,-0.665121080288655,-0.097832607789779,0.979569747002277,-0.731466472754002,0.80250404388219,0.55579404008782,0.721971230138455,0.574180692725381,-0.857891907936901,0.500283270470561,0.418629792288613,0.449851062942245,0.745449348870426,-0.5140894701963,0.130197644766773,-0.578603491705918,-0.413827777555823,0.437412987468359,-0.449181220923703,-0.322184518104048,-0.286934157472019,-0.54309214921487,-0.409233161552652,0.981296896334536,-0.640147696326647,-0.520137707709575,-0.582229237139906,-0.814118304790812,-0.316649665671046,-0.884052277897581,0.574051996604423,0.568944356204261,0.310611054457665,0.0413661489505639,0.337335266028076,0.714721626530491,0.749771756864646,-0.663034953900054,-0.723574770409988,-0.73074285401163,-0.120623787550063,0.381776973389423,0.625090886298522,-0.780181885789535,-0.512994192593097,0.706456284966824,-0.606105348720077,-0.655406722149261,0.417478311618347,-0.945428010588168,-0.141029731620152,-0.836344243245935,-0.86346999153663,1.1033357318466,0.18622396295404,0.389541631744005,0.104641383589071,-0.46965607390551,0.737235156323364,-0.623058545683099,-0.774404022895125,-0.523009616067282,0.380740308053156,-0.709859254047756,-0.76636147424245,-0.132247865084082,0.683042007034716,0.762410958253678,-0.735959156836335,-0.529402906367802,-0.653047601657966,-0.544695972930553,0.813219054561405,-0.729517352050836,0.576935527935156,0.0185295029416893,0.4392400411721,-0.685253592813006,-0.497118461989495,-0.196535235602846,0.754333783173369,-0.799487591654436,-0.720248909486411,0.451707404688498,-0.547075892615097,0.895162955794878,-0.901696889345846,0.505776244032205,0.621932515314372,0.00814442931734907,0.571776218115501,0.0347816527047898,-0.340093786951869,0.574307856387326,-0.0250641991088286,0.409870129001557,-1.0318918775184,-0.760861583731369,0.408254395807498,0.188546179314436,-0.648934091100791,-0.694859883077244,-0.717617417458224,0.603069513733308,0.7514252111879,-0.726099841342934,0.288818441407739,-0.844458053975906,0.792856730868439,-0.794721488075185,-0.583444252226391,0.894026774521531,-0.170575932309703,-0.690581460748327,-0.683506445711945,0.622680189179414,-0.681338220972995,0.436826431886622,0.503839433922295,-0.637620002612237,-0.924419622638705,0.319598379352875,-0.245756595053375,1.29126390126581,-0.779350724096811,-0.977369577050208,-0.236101462812175,-0.384361466534726,-0.517040784105783,0.593360736299624,0.797966321313067,-0.822683342718583,-0.449121524452824,-0.472003154807277,0.97404281303398,-0.945853672465686,0.305273720040366,-0.562424665781097,-0.488473665609359,-0.0128886474569174,0.78341686907702,-0.246763671719731,-0.707404511855943,0.820132503721565,-0.532323332863413,-0.587244812347588,-0.397071892185972,0.605684643370793,0.623065144913297,0.800132558780886,0.384480851073814,-1.13064285866472,-0.71967933602521,-0.567066945279985,0.61266641614555,-0.162140742758777,0.723269910350079,-0.0419162371472492,-0.967211408030665,0.813058470109359,0.0275551354229957,0.726099574470299,-0.351360305783647,-0.630073307757109,0.839690389066198,-0.342244674790765,-0.808099688557504,-0.0904803731508396,-0.109700571353282,0.0329852049625,-0.933051473495484,-0.267861086721512,-0.185548123062756,0.525551093032383,1.11888606794848,-0.687817833345324,-0.0813337330906943,0.687502294456364,0.752448100577404,-0.65748205498727,0.346752911667804,0.574364058243148,0.390256345160788,0.622582294191271,0.858168448530827,0.569950541826524,0.851209965704654,-0.456928441359977,0.438611863810023,-0.219332719708713,-0.244133864748381,0.848665616067335,-0.570931071591145,1.00668492002411,0.62817482295356,0.616730886631212,0.687561435004982,-0.387695133648679,-0.300875689460261,0.509852261231466,0.89810945677522,0.674361361174523,0.224299934160552,-0.680597543603823,-0.543098428559898,-0.729289930174375,0.723663984829147,0.668224359007845,0.443469039240578,0.640963647374601,-0.730048327479264,1.05415992743019,0.917372903667844,0.168253491331329,0.491679882366798,-0.692053172541763,0.711708780926247,0.633763303013739,0.157977391903013,0.685366971466972,-0.495356043806575,0.696974347066472,0.521912808309407,0.187549722678549,0.666571319074133,0.101845537835469,-0.407889845587472,-0.74222640425042,0.717002324771244,0.669673904517507,-0.610269508108757,0.253819430524032,-0.800387152643852,0.807489619204706,0.566576857391866,0.148220464618961,-0.171781687437247,0.806515300421239,0.679198749208384,0.20612284780322,-1.08035325045916,0.62019510634444,0.143326897762449,-0.764856317650125,0.484360367189302,0.711341897122041,0.468425677021572,-0.474721996845627,-0.745940574047527,-0.608619487044132,-0.78206865546346,-0.646401885057281,-0.0194583461177197,0.466057232489533,0.352108584533101,0.613402840934022,0.450229565045262,-0.966225355093657,0.668641542430142,0.343459842360401,0.520976317454073,-0.507320388827825,-0.638408471206289,0.644634087691314,0.717462095898695,-0.744516016122776,-0.572088451123401,-0.417335075314962,0.614346620169005,0.668435612222411,-0.626002886613051,0.673403716679476,-0.623153495613157,0.635612566315709,-0.531431827146478,0.174298444747219,1.22375357617745,-0.589576601683126,-0.719691254700513,-0.764709294140481,-0.650392208129477,0.804016187226942,-0.539989930301349,0.523834909856,0.594526761377106,0.659852571812156,-0.542493979382233,0.665115136250539,0.441797493498837,-0.802937310826059,0.330373744286656,-0.450758797316265,0.456223005714422,0.907055585249511,0.59997227310686,-0.564635017595011,0.462677758716971,0.411326066067461,-0.411923366901906,0.727228869686565,-0.152779451367034,0.024530822011185,0.700976219181735,-0.0425742619643384,0.851143552577944,0.700414976401915,-0.475716568422069,-0.873829878146566,0.849086486171822,0.677797194630439,0.383905217083885,-0.793712436832375,0.852596531641434,0.409996846060599,-0.758273273990098,0.542724535027245,0.189189184702968,-0.548269242647285,-0.886529459437818,0.495495174183178,-0.805432571709262,0.15614885743519,0.602413070586344,-0.701898331947503,-0.782595462510749,0.650109362880585,-0.451711633438634,0.542063772952383,0.25646991930128,-0.778926088726553,0.653356308000975,-0.253572750054085,-0.227592847166687,-0.179275765408835,0.206405504678761,0.0482345073225083,-0.133318551613183,0.721438384229357,-0.789021681421366,-0.0258861891477792,-0.849436949967507,0.780297463443241,-0.730393905337619,-1.10857828295582,0.00563666495916562,0.984018897458152,-0.636996793094784,-0.41410072103708,-0.577428578528188,0.689592633905114,0.941272466438268,-0.600744863383875,-0.531247696192866,-0.380119997067777,-0.809153954584786,0.480773235815068,0.36835635670957,-0.77688023848761,-0.243108601477692,0.0916417632839636,0.787312647300856,0.577019003804122,-0.690484208965849,0.0306778975229634,-0.781624578395483,0.570700241402538,-0.487037173810728
"FernandezCCPJ",0.0073507497893369,3.61921375380505,-1.40583908898748,4.27824459067811,0.861402712107744,-3.07086995343971,2.36821328826569,1.97253189566444,0.165240449693135,1.04702193690073,2.2348088217164,-4.50225611909039,1.58664422823524,-1.91269982991379,-2.49459573337734,2.86578403144124,-3.4497923076538,0.566114915341559,0.820739036169722,-2.65900476412222,2.82127901377789,-2.35749589372749,-1.45446206809643,-1.95345638446204,-1.95875265947484,2.27922965567426,-2.69064180885611,-2.21796197661177,-2.63470385078898,-2.46335947568064,1.856196262194,-1.42017374231341,1.72669410701794,2.26525315748143,1.42675704557683,3.04692462362629,2.26262228057985,-0.760684032977826,2.26725572481567,2.77313998461709,-1.9492507490447,-0.552773451275878,3.10803546619914,2.81651612922836,2.43301965503387,2.65266876750379,3.65271187647418,-3.86242554535033,-2.46537755721556,-3.77320619290997,-1.02650958887814,-2.54491763842534,-3.38631381737472,-2.71381972271399,1.68763749928684,2.1351499243404,2.82870385362284,-1.95389115549954,-1.25181388984903,-2.96745947097461,3.27584860003608,1.59587012139902,-2.35260979608373,1.948529266,3.1446959549745,-3.66673049140642,1.09769482691799,2.73711733462605,2.44086957629616,2.19714586649239,-1.83799791439098,-1.04694064498153,-1.19345075953381,0.700117873848428,2.11394811583874,0.965565834868145,3.76013326208446,2.1532475099312,1.52149613178475,-2.06932153358182,2.6041715512932,1.79673803568469,1.22887300300508,-2.09356278073015,-3.03205920514001,3.14598782704397,-0.180434873346826,1.77072285921217,1.92852486314066,-1.64605068681999,1.61529592166051,-3.25110008034417,-0.652204519959446,-1.69352814337894,2.62734268809657,1.96631441440675,2.87125179139336,-2.98023953197443,2.44111123232409,2.48018946755635,-1.58010141299634,1.21618718865454,-2.34003241757226,2.79359836376138,-2.29087408481609,-3.04391841332209,-1.69909785862633,-0.886948192182404,3.48847067143488,1.02430313138896,-1.58238566358875,0.181358523815538,-2.55806336300202,0.714274849103251,1.94517066973431,-1.23198652365371,1.14636756552495,1.160634768812,1.61645855658144,2.83867811945482,-3.33989570597129,-2.20390048613635,2.83775938211643,-2.18975623606393,1.95749696245892,-2.56754191258026,2.5549818221692,1.54269824735299,-2.01627058156647,1.66243221731767,2.78351240026092,2.73091994109772,-2.56225372002389,2.44619051784124,-2.13974747407564,-0.422032691549776,2.2101095303132,2.63799568357478,1.20393687982589,2.43215407348772,-3.5595870912868,2.63849545334324,1.65726516538273,-1.16618300902144,1.60558366468095,1.44783511687414,-1.71789237248575,-2.7464041448409,1.61683596667362,2.02261574326144,2.48369952516854,-2.16066525545159,2.49686911063194,-2.36082069005328,2.50091323205934,-0.681578667759436,-2.35691476442383,-2.78462083180018,3.49887783670036,2.68739790697163,-2.65167899476515,3.22522285226289,1.89949641154847,1.43741668654068,-2.60911586342661,-2.33621495082481,-1.75837604764264,-2.18506529843405,2.74938773771155,3.1652485975882,2.74666738128938,-2.75846799382467,3.25024367120616,-1.71538410884234,-1.80689188283531,2.27682039609884,-2.85709668084189,1.78473270906855,-1.46884235464201,2.05790170233779,2.75653965792854,-2.07045620487643,2.94302304555264,1.69785319644819,2.7411166934769,1.48237059578249,0.223539931688968,-0.422148230321592,1.18130044087665,2.71610809722108,-2.84795703526148,-1.65176794068945,2.63611887793248,-1.04472892354566,-2.73586689573595,-2.11135309904191,1.95988049898889,-1.8860098825954,-2.1108214802943,-2.61480908179323,-2.18380209100422,-3.50511699032493,-2.11229168240425,-1.55631474317419,2.65006464916526,-3.34425325526728,2.3488281938159,2.63257335309369,-1.79598831954606,0.933724907339974,-2.57770094043855,-2.99566736309462,-3.57620615337707,-1.34520117706339,0.344556606885932,1.46013074256292,-0.982923234028447,-2.36059449834568,-2.01938403004314,-1.84198663224558,3.51224796024515,1.00404830118569,1.28733199235092,-2.45588291939112,3.19833409827752,-3.31172811480789,-2.79783452846344,3.10120380319104,-1.07925790777788,-2.30779062072638,-3.19122354382547,-1.15383608226053,2.05433581051642,-1.42666512753966,-2.08661672039287,0.411408441688908,-2.29239836945218,1.37009836733728,-2.32649151654097,-2.24802016635709,-0.385002418089529,-2.40461473843328,-1.32328928188243,2.469624357302,1.43679157122804,1.24130716423608,-2.2612212658266,2.22972355268184,-3.22069636617867,2.60608479349935,-2.39031975866667,-2.02977267111191,-1.63671495558478,-2.54228853680892,-1.5388546270973,0.59124384517548,-2.13409866495801,1.8893829186505,-2.22710940187767,-0.0916509723636746,2.53032345849801,-1.98112252138406,-2.56214321600177,-2.25190741801543,2.08056545938698,2.75864970180091,2.91989147220595,2.57860152429279,1.41161643504261,0.131479567024511,-1.65279257851249,-2.94099411451457,-2.39830400853908,-2.71905231723842,2.93352144489017,-2.95566855535859,-0.41968725093592,-2.09139136524478,2.86262670946872,1.87499799099348,-1.81105489700929,-2.10084831673951,0.938992258426432,2.57588896380929,2.46302987745482,-2.73507854793339,-0.141988157373943,1.94291111460558,-2.92125553120614,1.30721997498089,0.617644976399075,3.12998766446394,-2.64872868708695,-2.10651653590195,3.19947432972466,2.91585710779115,2.60422165156696,3.30891792956117,-2.79836292454367,1.66782259027777,-1.38213305534547,-2.54655038988187,-2.05401084172098,1.59410092732102,-2.30769354863454,-2.11056659635846,2.60613865135804,0.389875255748047,4.1112054907875,-3.318608121533,-3.47419147434954,-2.26147218376007,1.92588471218884,-2.87068195880118,-1.33613309590368,-0.416990972015787,-2.71461865024413,-0.61887458597113,2.7058375509471,-2.44643782281455,1.309884067362,-2.09457687195212,-2.41152872849287,1.83909003925505,2.21206011589461,-1.16071026385728,-1.46950611426204,-0.48130238891578,3.17159208257794,-2.3028036578034,-2.98743938787149,2.58840656216841,-0.942224489351456,0.83431235151672,2.45639127483149,2.5059538152225,-1.66755209246825,1.66429686415905,2.35305116819439,-1.6853529896237,2.28890210064541,2.47756960937588,-1.26395322034061,2.52382294571234,0.0412130664014209,-1.35587409952072,3.900989339043,-2.70840211646196,3.19541891905314,0.542149389106027,-1.42201273699665,0.854958625201857,-2.16505901994946,-0.926220247749185,-2.71632149144028,2.18280453596982,-2.67809096477605,3.28220082696118,-1.33850831627605,1.81130193375076,-0.0944141579284724,0.698489549463886,-2.55383070991987,2.13598275269359,0.239576287258031,2.75793418699797,-2.88583130639939,1.03370047507363,0.195439678545378,2.54015497015539,1.49459573080407,2.92135641302303,-0.338987115714935,-3.32589296761005,1.3837438440715,1.45947824732558,-0.153557022827056,-0.924812585200463,-2.347179116632,1.14117476623261,2.01769104796187,-2.97152989041367,-1.29961242251932,1.52209142765876
"FerrerSA",3.11232896869063,0.904932621783903,-2.43409192542024,0.691997817374366,1.21181442008332,-6.58850171436251e-05,0.628599716903255,1.124415908178,2.74736915835392,3.14272872612233,0.455097845196543,-0.335092666463385,0.910193341213647,0.752245370190121,-1.70204708866137,0.120422430165121,-1.3292542748756,0.18941842629734,3.51066543302486,-0.937038782169081,0.798225411497733,-1.2481700486524,2.40639581339646,-1.99628489369693,-1.82592239885918,-0.355440737553757,-1.71710623500764,-1.68840266074921,-1.15184858633771,-1.3392383743247,2.80385169437785,-3.09892431475236,2.04760980540517,2.04218488303316,-1.67815798932562,1.25816666564334,1.69388401445488,2.79369773444843,2.15696964723514,0.637314203047382,-1.35451498442365,-0.155046021549261,0.109735575663007,1.46241491593678,-0.229621381406109,0.453873068161997,-0.179929920342567,-1.12709879552963,-2.11138785695606,0.839285300537065,-0.958783891030011,-2.35000096594391,-1.09820628807108,-0.743228899179013,1.25871298150883,1.90926065644643,1.06743962670856,2.55842002119761,-2.14200961254267,1.93008300573506,0.798208824019693,0.995140632211943,-1.35353073498495,1.43049595383981,-1.83450063004666,-1.02337219886602,-0.33167517677238,2.14436010193405,-1.6804451326647,-0.628330098827867,1.98898691385858,-2.78257141124446,-0.216366154209821,2.99729117682797,0.805725709482672,-3.08489913541979,-1.72650246211443,1.61124762154924,2.01962904208868,-0.182661587167404,1.17543363395531,2.9015866052865,3.01732473146219,0.657548417109189,-1.06557493740736,0.722997384688413,-1.82121618916575,0.715029436002012,1.29475228289059,-1.26967949664266,1.12928316480465,-0.978499629139557,3.72646270558198,-2.59800127440073,1.19146799065323,0.43274443554511,-0.641711990985234,-1.14702198611694,1.02308121154443,1.31731264402139,-1.97150985360258,2.77428747060101,-1.06710398935493,0.816592700067954,-1.57363529878732,-0.885742086127445,0.123157887423258,-1.67893683353095,-1.2521269349657,2.52363097844215,-2.09870347618324,-1.14604385294364,-1.98999302846232,-0.416315973914386,1.34164111420239,1.50300957318912,-0.518606514536949,0.930026099226353,2.04457391719942,0.964916913337465,-0.233697730426872,-0.870928437351158,1.13541595292604,-2.62642888075783,0.868611549206853,-1.14571592583651,0.575759056153581,2.09054406099974,-0.681762349496526,-0.00273373328147137,0.789986965396522,1.68549066779897,-1.17024904167882,0.93985647506029,1.34727564639675,-1.82737888350071,0.944328282450162,0.0212090099891283,2.56658940187345,0.581847459225123,0.18306083845224,0.926811717509504,0.513466314887396,2.7392367135328,-2.26430062100348,2.75869852014352,-0.761860101342999,-1.18065332885797,1.29409102052658,2.10255318317514,2.05318680850044,-0.979895917325474,0.838559522196995,-0.385127450761459,-1.38455667595705,-2.57160888002681,2.48129859251575,-1.17997306073265,1.91409571363745,0.60293213252491,-1.1240836204468,-0.290935644108241,1.30656836735136,0.926540425395249,0.0329872726525359,-2.0642887378537,-0.610720200593851,-2.33230719964263,1.06334922197753,0.87655363555525,1.55448473362733,-0.894099091766661,0.363027162224526,1.42702910295788,-1.25504282840084,-1.27652453073151,-0.927432038488219,3.29717983166686,-1.78985636375714,-1.94144151348574,1.56681812534565,-2.21868772462951,-1.7973300953608,1.34149868248233,0.448289429703837,0.553078759395349,0.246869607460294,-1.43714359529293,2.72478122875079,1.69700575363532,-1.20028387545672,0.627898959773596,0.641424830750856,-2.10261641990593,-0.932487631468031,-1.09964667332071,1.54202338864783,-1.70423680387331,-0.676998445033217,1.12340104583587,-1.72540213634251,-0.415254262407498,-1.8755745746139,-1.88885036358083,0.920033349837173,-0.492284204746237,1.04394075522613,1.84099523412157,1.5991260343916,0.957690867209215,-2.20610404820442,0.690025850908212,-1.18175953219146,-1.12530816315126,2.67814004126766,1.87316370694554,-1.37372800292474,1.78313431598874,-1.03652191800815,2.82203737005745,-1.26131812753571,1.26035121925997,1.69805277181631,-1.30364171064204,2.09929002868681,-1.97838569155118,-1.46870280353333,0.589621854805549,-0.124759997316401,-0.687832082861963,-1.94772929848067,-2.4968050584649,1.35542025202837,-1.70918847058888,-2.01110438759887,-1.37868521791393,1.61376925825873,0.263413479574252,-1.41429124708107,-0.596002861921266,-1.91841630093346,-1.15001471831294,-3.26740423661323,1.89242794394275,-0.426688192110377,-0.782686658943135,-2.07687418772599,1.88060435527596,0.621195173312004,1.06060500553286,-1.38619387019937,-1.71582745608461,1.91216580640466,-1.35432057725305,0.116345376576054,-2.86447837850203,-1.84066307783557,-0.67004997488569,-1.10122500885321,0.20238445428756,1.02669614204787,-2.43366622012665,-0.525512159928531,1.32004196380395,2.48991804698319,0.370589086064221,-2.70304559164011,1.22569043768915,0.0323321587616428,2.90524425730047,-2.0491001024734,0.0405140949863348,0.456564969907925,-1.62790758880077,1.06877926285462,-0.235731599871895,2.47850437882716,-2.41272890909925,2.10891200758497,1.69591655844084,-0.511019843684629,-1.05209329668876,-1.30077262720771,1.33187805674211,-0.867025940140084,2.48329923676783,-2.28184305111635,1.78008607906411,-1.6971765870935,0.697188159989521,1.2437929613721,1.10256673672501,-2.22645644503217,-0.417264440208905,1.86686821042678,-0.0658952397354583,-0.873374952974212,0.125729012386223,-1.23091653663305,2.16573146391773,0.0170751146119811,-1.3213315582407,-1.39715011268577,0.628454924519103,-1.546606777889,-1.646608384891,1.2706855007915,-2.16063515969686,2.01205437174691,-1.21846670035195,-1.06741615364907,-2.21052529692953,0.255207692525469,-1.22345679597336,-2.23747390706034,-2.85846011977099,-1.80651885677329,-3.76545091426117,-0.553078928133032,-1.4104658012243,0.10261323641168,-0.57102987672233,-0.652445933400886,2.37561591564573,0.0146841926109114,-0.171486314628921,-1.03433776603997,0.824680834324325,1.0301503677978,-0.0264073125753564,-2.17750714586557,1.74585920401146,-1.31226036287835,-0.551728992133093,1.84122636064748,0.113112747167689,-0.93337398516444,1.17386072304193,2.2340490839242,-1.86854032909809,1.40369474440383,0.860549874435176,-0.583453270368679,-0.554759545508751,-2.61448476352783,-1.12295481323479,0.572290943031385,-0.903610591536754,-0.540672170520492,2.60822472626464,2.08914949033891,1.73234240551137,-0.404189352515489,-2.90479875857738,-0.766983265423366,0.906889536364344,0.807974850870494,0.481918229707229,-1.27749054828848,0.154557636026067,0.593506610715936,1.31357894528057,1.50996985712584,1.29573940547327,0.808366200707494,2.37497873004975,-1.4401465950237,2.42902119588518,2.0542060411611,-1.05734174266855,-2.30081558479583,-0.617458774891682,3.49865045312526,-1.06314644427104,0.654826768497526,2.70075777178886,2.82246715777363,-1.52115694512144,-1.06206526210253,2.37702095249992,3.3113584080793,-2.54874559579537,-1.67693234602198,1.49930345477681
"GarciaRLM",0.904466268356067,2.30250438279998,-1.37592915959302,0.590149086693723,-1.93414174701282,-2.2917782192418,2.6627225622335,2.43931753460936,0.194453628004968,0.9841039998929,2.73661909481882,-1.55835585069847,2.6182588097009,-1.51754519547302,-1.47126181253033,2.66592821538797,-1.04774154324834,1.76629281543828,0.690377293657272,-1.25338919244033,2.27061348563412,-2.19301848529384,-1.41765359662382,-2.08762421100535,-3.03357633114918,2.7885916285216,-2.22586821982233,-2.43298845877418,-1.65431753202936,-2.27899725721793,0.437230576445286,-1.63531302454344,1.92139510206754,2.10600731541343,-0.230285382881251,2.16146998030076,2.49407102438205,1.43327120197263,1.0865228823748,1.34084863295,-1.9000543549941,0.4059776800466,2.1850986617791,2.41397258094894,2.4709724972574,1.92979295239554,2.41550911421539,-2.19421982330487,-1.48779128948933,-2.62594852215215,-0.751152529112715,-1.24876721557113,-1.33874483700254,-2.62189802791377,2.07080555339349,1.42945654992543,2.51895807936194,2.3045027486591,-2.51953374512056,-1.26093568320861,1.73094482655004,1.46028236195108,-2.35787207086895,2.38807527222338,0.627681558491708,-1.97732678812805,2.48214143874951,1.59803259508156,0.618174979876856,2.36662369061874,-1.3594917117345,-1.1644809908837,0.922974133721086,1.19479470038814,2.46492102911908,-1.25750866407664,1.41993166508842,2.41459360717168,1.73605439825926,-1.6149844801246,2.31018656765965,1.94478832428541,0.686223976932435,-2.13291160706308,-1.46045528527273,2.35965057750336,-0.020594086733542,2.72265540343172,1.73836593155507,-2.32705001596251,1.34900695241095,-2.33434336198792,0.765038275101699,-1.10649787041369,2.49929703505767,1.67176545691562,0.933256116080016,-2.16845235881359,1.97662443096223,2.27484583575327,-0.921475712000869,1.90971462197001,-2.51980283510957,2.2991695070494,-1.9124314667446,-1.68087326281654,0.0255059957560958,-2.519979857304,-1.49449317147191,1.20389075245509,-1.65574652836762,-1.63429364578923,-2.27054378419787,-0.908633545794321,1.76075954202944,-0.767034418829349,-0.263281603278107,3.13510446786726,1.78890396232076,1.85665456189256,-1.90074414724939,-3.74126926774107,2.33479388650235,-1.98406522368438,2.91244803045947,-2.42597145117261,2.33740220392477,2.53913321979734,-1.76207953715834,1.93750937828701,1.94026705673867,2.14084514882074,-1.70476408736907,2.17190263199746,-1.76679920502137,-0.656862254532073,2.70281540194291,2.15575416377471,0.502248865765179,1.59544905672652,-1.84319570961012,2.32293008198685,2.6441491991297,0.148650321011386,1.33944535446002,0.976009373262097,-2.42778465893522,-2.306102092578,2.81770022959946,1.87258840296125,1.86529605871144,-2.22359876534222,3.26241696149336,0.439989685387787,2.47078816845413,0.698377543344009,0.832215261155245,-2.04053292364234,1.04295230559237,2.24981160385742,-2.30482121736178,1.85938107898634,2.17286589528801,3.21670242231403,-2.42851576053395,-2.03363841744523,-2.53450472654206,-2.27661513605876,2.61306575335495,1.21313880713201,1.44011613720022,-2.12019595514065,2.65483156436478,-2.44926957569826,-1.41782406960297,0.420783789964324,-2.08439996918143,1.07403978829474,-1.77151448642419,-0.386941041897805,1.8969146572088,-2.47549658841891,1.87787552097054,1.50405574233049,1.93699610401282,2.3949777363211,-1.12370535222565,2.44527383628693,2.26088420378878,1.16018823346544,-2.20614476190949,-1.77218740069201,2.60944850367589,-2.01940951995258,-2.41781665915897,-2.372214909909,1.96944582022626,-2.56896284962149,-2.53473104772372,0.0600049279808421,-2.30766064417408,-2.19854562424966,-1.94007831387989,-0.368192889564202,1.62527437709272,-2.60273271261293,0.518508216100621,0.76597600077911,-2.29401053340798,2.44414389536397,-2.0060613700558,-1.84566212556167,-1.2336434533912,-2.21774972262432,1.35105396264098,1.07402902214528,-2.74740180798988,-1.49789078497866,-2.13634689414347,-2.05956052803987,1.78158219260844,2.3903063449552,2.22594052820632,-2.34440943698788,-0.0232708023500275,-1.3931250838293,-2.07390767010935,1.77818267371941,-2.45918684115443,-2.12705615564051,-1.02096032660231,-1.37596001757385,1.40733225528606,-1.99314312930632,-2.22223742029094,-2.29585545482063,-2.29159191697985,2.80930326758308,-2.32212270383746,-1.74781301804171,-1.60032018801569,-2.1533414932935,-1.42947630561719,2.09183277209127,2.69601280193186,-1.75517243520837,-0.26183319597869,2.32219672950972,-2.39355707259077,2.38926923602475,-1.98677245376714,-2.28719051713801,0.231002566772342,-0.636966305940064,-1.00450662086276,-0.762735848954319,-1.25983663549776,1.948942686112,-1.87229200088688,1.73521431592426,2.16433570415753,-1.595690503604,-2.11429716663885,-1.97046616449788,1.86869054964337,2.23554619765258,1.23895615045346,2.64118572641634,1.31639546027441,-1.73465834088262,-2.78086454175618,-1.62231526528675,-3.06010419924273,-1.96228945312299,2.30517145242803,-2.83570926679439,-1.83236808127121,-2.23115749748846,2.37121778722889,2.77573514164768,-2.44588533601217,-2.5174829805156,1.76533963342472,1.88277669438982,2.55282394699731,-1.72452656214182,-2.50179334086284,2.21951165496489,-1.88162460248312,3.17192179501451,0.0963629149976855,2.84005956898582,-2.00832568578121,-1.10905313142166,2.00416408502851,2.58406408926905,2.00120658843065,2.21847135212834,-2.42958010366199,1.50901650272016,-1.24276660897708,-2.54298697882343,-2.22084621589618,2.01266810826617,-2.3390205284707,-2.21471928088053,1.9303355881526,-3.08510984152848,0.134805840613287,-1.74057742402385,-2.18855920936421,-1.68972978074709,2.15543355521885,-2.42866698482837,1.13646849655732,0.221741918455976,-1.59245427467498,0.139066844651842,0.711101812421889,-2.31982602537104,0.0378123488971092,-0.919987583042285,-2.15719744495445,0.664371186114856,2.22027762500852,-2.81148613297628,-2.35471473699605,-3.13697304093559,1.77300442447377,-2.24565974294573,-1.67979724005739,0.929255581610251,-1.80642369685167,-0.491005545477192,2.06021726107799,2.72959086900576,-2.30374132845887,2.16257485983857,-0.132581130450247,-2.26961974833451,2.38731078558356,1.97665776923136,-1.19966928257199,1.75838402857205,-2.30704520042505,0.0163304755872392,1.29263274825692,-2.50377647285184,1.01871829980148,0.835492471423877,-2.49176203890979,-1.1796544577868,-1.88789995989381,-1.66323571163131,-2.70465864731051,2.21991138245969,0.349006659784125,1.43179912174248,-1.22212853684779,2.28554810745983,1.55317963098551,3.42316395039702,-1.33823989847345,2.85147036864476,2.56882977516925,1.41633864085379,-2.46978989033885,-1.62717762297589,0.691198167312913,1.41642086064973,0.254392570515204,2.46186266734458,-0.9004316996421,-1.85252845207939,2.53994713204425,2.5987816866763,0.193317752476978,-0.596624700515532,-2.38301273693109,2.66063119512957,1.52172017665234,1.18755340672386,-2.0310452289059,2.87372894996578
